%YAML:1.0
---
opencv_ml_svm:
   format: 3
   svmType: C_SVC
   kernel:
      type: LINEAR
   C: 5.6699999999999999e+00
   term_criteria: { epsilon:1.1920928955078125e-07, iterations:1000 }
   var_count: 2048
   class_count: 2
   class_labels: !!opencv-matrix
      rows: 2
      cols: 1
      dt: i
      data: [ 0, 1 ]
   sv_total: 1
   support_vectors:
      - [ 3.67364171e-03, 1.88652403e-03, 1.68398139e-03, 6.18567399e-04,
          -7.27785518e-04, -7.86169025e-04, -2.60494417e-03,
          2.00516704e-04, 3.46558722e-04, -7.69894803e-03,
          2.97612976e-03, -9.93262220e-05, 3.50479793e-04,
          5.60815167e-03, 1.84244098e-04, 4.25891438e-03, 2.03049718e-03,
          -2.24153991e-04, 1.41341856e-03, 4.78363421e-04,
          1.45915255e-03, 4.36440205e-05, -7.35078380e-03,
          -4.23077447e-03, 2.72394129e-04, 5.59888722e-04,
          2.78977957e-03, -1.18000864e-03, -9.95436800e-04,
          -5.93861798e-03, -1.85946134e-04, 1.54683526e-04,
          2.83287827e-05, 5.59439432e-05, 8.79030023e-03,
          -7.81948026e-03, -1.36016943e-02, -1.16966643e-04,
          -2.93051428e-03, 2.73063523e-03, 3.94540955e-04,
          1.25152497e-02, 7.17908982e-03, -1.39634369e-06,
          2.18634726e-03, -5.28399833e-03, -9.39372403e-04,
          3.21038999e-03, 1.29574770e-03, 9.13896110e-06,
          -3.00158700e-03, 2.62786704e-03, 2.29650363e-03,
          9.37047647e-04, 1.37917494e-04, -9.53760464e-04,
          2.59961671e-04, 4.06837370e-03, -2.93793948e-03,
          -1.59138333e-04, 1.29404431e-03, 3.11372460e-05,
          -3.64132412e-03, -5.02616679e-03, -6.14346936e-04,
          2.83264351e-04, -7.48166814e-04, 4.30155633e-04,
          5.46795258e-04, 9.16812452e-04, 2.39429902e-03, 3.50666861e-03,
          2.02931021e-03, 2.35771225e-03, 2.83119222e-03, 4.43837744e-05,
          4.59710165e-04, 1.07771732e-04, 1.49681640e-03,
          -1.68997416e-04, -2.16992036e-03, 2.75486847e-03,
          2.13968591e-03, 6.09229133e-03, -2.73314747e-03,
          3.95333482e-05, -1.80790154e-03, 1.10417586e-05,
          1.38752584e-04, 5.48158120e-03, 3.20024759e-04,
          -1.19162202e-02, -2.60493089e-03, -5.24507253e-04,
          1.03827589e-03, 7.91511778e-03, 3.69553803e-04, 3.02499757e-05,
          -1.34371209e-03, 6.98723411e-03, 3.75909545e-03,
          8.85945919e-04, -4.57318019e-05, 3.34351184e-03,
          3.77358607e-04, 5.55953666e-05, 9.39668342e-03,
          -7.09134620e-04, 7.73133617e-03, 1.37472171e-02,
          4.83495276e-03, 1.55630417e-03, 2.15171531e-05, 2.97057195e-05,
          -8.04973114e-03, -2.02897075e-03, -1.38961920e-03,
          8.13496532e-04, -2.93423282e-03, 1.60831003e-03,
          -5.06169054e-05, 2.11843420e-04, 1.94827770e-03,
          -1.33574795e-04, -2.78171821e-04, 5.03787596e-04,
          -1.28509325e-03, 3.05935089e-03, 1.63430243e-03,
          5.29831450e-04, 4.73644398e-03, -5.17325243e-04, 0.,
          2.96435668e-03, 1.09728263e-03, 5.03199873e-04, 1.61810743e-03,
          2.09258869e-03, -4.40988643e-03, -2.38561141e-03,
          7.30433909e-04, -3.11015501e-05, 5.88480225e-06,
          -1.79507668e-04, 1.01708152e-04, 5.73179022e-05,
          -6.88316068e-04, 2.56354385e-03, 5.46655327e-04,
          5.88751631e-03, -1.37001520e-03, -2.04775177e-04,
          -1.01604417e-03, 1.79370539e-03, 1.70809194e-03,
          1.73085474e-03, 4.28450767e-06, -1.42071787e-02,
          1.37341639e-03, -6.38901675e-03, 8.66905320e-04,
          1.72575237e-05, 9.58403863e-04, 9.75177914e-04,
          -2.58207601e-03, 2.11065097e-04, 2.69940053e-03,
          1.90372288e-03, 1.14765007e-03, -1.03324198e-03,
          6.16654521e-04, 9.12591804e-06, -5.43157745e-04,
          2.17189337e-03, 3.96228337e-04, 2.59155384e-03,
          -6.99376324e-05, -1.40723661e-02, -1.36140889e-05,
          1.27174631e-02, 0., 9.59884783e-04, 3.19662475e-04, 0.,
          1.02468964e-03, -2.43513100e-03, -3.82757047e-04,
          -6.35842280e-03, 4.44708945e-04, 5.88853797e-03,
          4.17804949e-05, -2.17322237e-03, 1.54185604e-04,
          -4.52288223e-05, 1.20321958e-04, -3.07009817e-04,
          3.24753579e-04, -6.52841851e-03, 1.43409902e-02,
          -2.00713403e-03, -1.35114230e-03, 3.54050361e-02,
          -8.24396411e-05, -7.79309869e-03, 2.51594865e-05,
          6.85305335e-03, -4.74828150e-04, -2.24187016e-03,
          3.62325045e-05, 2.20814045e-03, -1.75071706e-03,
          -9.00070881e-04, 9.93008539e-03, 8.55080038e-03,
          -1.21637154e-03, 2.71256035e-03, 4.06972831e-03,
          -9.18945938e-04, -6.90064160e-03, -1.18103495e-03,
          -1.60057412e-03, 3.33161699e-03, 1.63217150e-02,
          -7.74849264e-04, 8.42306297e-03, 8.16471875e-03,
          1.01328525e-03, -5.87592460e-03, 5.33506088e-03,
          -6.08288264e-03, -6.19753310e-03, 1.28706591e-03,
          -1.21791463e-03, -2.06706510e-03, -6.79549266e-05,
          2.95318174e-03, 6.55844400e-04, 9.56216548e-03, 9.60454170e-04,
          6.16020011e-03, 1.19490037e-03, -1.09196140e-03,
          -9.20131970e-06, -6.29940332e-05, -5.98855724e-04,
          2.57917140e-02, 9.26768233e-04, 2.25774781e-03, 2.24487740e-03,
          2.78186402e-03, -6.40423852e-04, 9.27033368e-04,
          -6.57550234e-04, -5.49719611e-04, -8.92513315e-04,
          -1.19172048e-03, 2.81238533e-03, -1.57884773e-04,
          3.06025636e-03, -2.54132366e-03, 2.59582128e-04,
          -5.86203358e-04, 1.80297741e-03, 1.83146202e-03,
          -1.76063832e-03, 0., 7.05731160e-04, 0., -1.42620155e-03,
          -1.86543225e-03, 1.45675251e-02, 2.59074790e-04,
          -4.05157276e-04, 6.88850647e-03, -7.03350035e-03,
          -2.64529977e-03, 2.18529813e-03, 1.12334121e-04,
          2.72000302e-03, 1.23561115e-03, 2.71447143e-03,
          -1.94981913e-04, 3.51503585e-03, 9.43740655e-04,
          1.84445898e-03, 7.73382344e-05, 6.42883591e-04,
          -9.47264675e-03, 2.28466187e-03, 1.00718532e-03,
          9.20829989e-05, -4.84836288e-04, -4.71351575e-03,
          2.09703328e-04, -4.85019060e-03, -1.88534337e-04,
          1.17643422e-03, -1.83704589e-03, 5.05518541e-03,
          9.20272898e-03, 0., 7.53856439e-04, 9.68525303e-04,
          1.14966219e-03, 2.10716404e-04, -1.59858377e-03,
          -1.40929216e-04, 3.29651940e-03, 6.82869088e-03,
          2.72539258e-03, 5.32654340e-05, 1.66710769e-03, 0.,
          -3.63263511e-03, 4.78807633e-04, 7.14872917e-03,
          -2.70068366e-03, 9.90634180e-06, -4.78395596e-05,
          -9.94058209e-04, 8.44485385e-06, 4.42605116e-04,
          1.24149912e-04, 3.33581422e-03, -4.86495883e-05,
          3.88171547e-03, 1.15065789e-03, -2.89676734e-03,
          1.07396219e-03, -4.16893512e-03, 3.91046749e-04,
          -2.54724338e-03, 7.96959561e-04, -7.05695304e-04,
          -1.49639463e-03, -1.52108935e-03, 5.54464990e-04,
          -1.67672406e-03, 2.10596918e-04, -3.49458045e-04,
          1.20358643e-04, 2.80205568e-05, -9.38064986e-05,
          -1.92336913e-03, 2.33876030e-03, -2.81943270e-04,
          -1.84441789e-03, -3.02461139e-03, -1.51541736e-03,
          1.30436467e-02, 8.24915152e-03, -5.16066793e-04,
          1.86168938e-03, -1.20389173e-02, 3.48530884e-05,
          -7.19592487e-03, -5.24394214e-04, 4.25950217e-04,
          3.57224327e-03, 5.68366931e-06, -2.37117964e-03,
          1.74975838e-03, 4.50169295e-03, 1.84242390e-02, 1.01018995e-04,
          3.89387860e-04, 1.05996311e-04, 1.16802510e-02, 2.27275814e-04,
          -5.84955281e-03, 4.59344155e-04, -1.06562895e-03,
          1.31933356e-03, -3.71962623e-03, 3.18086502e-04,
          1.88837603e-05, 1.86476186e-02, -8.70212680e-04,
          1.00850753e-04, 4.49349964e-03, 1.02150708e-03,
          -7.31452834e-04, 9.22922161e-04, -1.01694919e-03,
          2.06651376e-03, -8.52027501e-04, 3.91932623e-03,
          -2.96734186e-04, 6.69658184e-03, 3.91097332e-04,
          -6.19272841e-03, 2.43955164e-05, -2.18832618e-04,
          4.60396368e-05, 2.24612770e-03, 2.53675203e-03,
          -3.28705669e-03, -1.58369518e-03, 1.58010862e-05,
          -8.12215148e-04, 7.77108362e-04, 2.26599909e-03,
          8.50203726e-03, 2.07425037e-04, -2.59458460e-03,
          2.81597138e-03, -2.11143331e-03, -1.69456168e-03,
          4.54688957e-03, 9.59426630e-03, -5.28968964e-03,
          8.03997181e-03, -2.78805150e-04, -3.81702953e-03,
          4.19577700e-04, -1.86335333e-02, -1.74714753e-03,
          3.52271425e-04, -1.76481577e-03, 1.37966219e-03,
          -3.49995401e-03, 5.67745743e-03, 1.96440122e-03,
          7.16791861e-03, 2.09052744e-03, -8.77220067e-04,
          -4.93116502e-04, 1.15245103e-03, -1.22039410e-05,
          -2.74895551e-03, 5.96941914e-04, -5.57466083e-05,
          1.81376911e-03, 2.06604996e-03, 1.63919234e-04, 1.80717863e-04,
          -8.96162260e-03, -3.11436335e-04, -6.70103109e-05,
          3.08476249e-03, -8.93022341e-04, 2.02697283e-03,
          2.52247998e-03, 3.18567548e-03, -5.94528113e-03,
          2.98918148e-05, 1.30022680e-02, 2.21397192e-03,
          -2.74141971e-03, 9.76999363e-05, 2.32324027e-03,
          1.14949136e-04, -1.90003950e-04, -4.51751379e-03,
          1.06032309e-03, 4.16232833e-05, -1.48135907e-04,
          -1.35452449e-02, -3.45531298e-05, -2.47543026e-03,
          1.37055249e-04, 6.91527384e-05, 1.09968265e-03,
          -1.98934955e-04, -1.18331448e-03, -3.30398070e-05,
          -4.76355082e-04, -1.05570198e-05, -1.71918795e-03,
          3.20314942e-03, 2.15129301e-04, -5.88088017e-03,
          2.54654582e-03, 7.44484540e-04, -6.06325828e-03,
          -2.68872967e-03, 3.03005709e-05, 1.70938636e-03,
          -6.41537132e-03, 1.96637557e-04, 9.82524361e-03,
          4.68645623e-04, 9.30399052e-04, 7.47159414e-04,
          -1.28407811e-03, 5.10703586e-03, -4.41513397e-03,
          -9.84760045e-05, -6.35390216e-03, 4.32145316e-04,
          4.91180283e-04, 8.47810938e-04, 2.07178574e-03, 2.16517350e-04,
          -5.79895684e-03, 2.83651520e-03, 1.41410608e-04,
          5.06614102e-03, 4.92568035e-03, -1.68996176e-03,
          1.27841979e-02, 2.35635135e-03, 3.42185725e-04,
          -3.22296633e-03, -3.28338880e-04, -1.73502485e-03,
          2.79712403e-04, 2.65207328e-03, -3.46023997e-04,
          2.33478771e-04, 1.86947218e-04, -5.59998211e-03,
          3.38341924e-05, 6.01509493e-03, 1.28567626e-03,
          -3.11717704e-05, 1.52964257e-02, 1.46902329e-03,
          1.11371477e-03, -1.23632802e-02, 2.41596019e-04,
          3.13535295e-02, -7.05912430e-03, -4.23257705e-03,
          -1.02858071e-03, -1.03587176e-04, 5.09536406e-03,
          5.56807150e-04, -2.26318231e-03, 1.72671993e-04,
          -5.24236530e-04, -1.07222557e-04, 3.93103073e-05,
          -8.57538369e-04, -1.56127650e-03, 4.71191132e-04,
          7.41409778e-04, -8.30353529e-04, 3.35920323e-03,
          -8.95324443e-03, -9.15295550e-06, 1.93945784e-03, 0.,
          9.82807670e-03, 1.08935952e-03, 0., -4.32578963e-04,
          2.73099984e-04, 7.21711572e-03, 1.45477348e-03, 2.89495569e-04,
          5.90984942e-04, -1.30820717e-03, 3.56405371e-06, 0.,
          6.39970042e-03, -1.41723489e-03, 2.45851377e-04,
          -2.64178193e-03, 1.44581412e-04, 3.22355481e-04,
          1.46445862e-04, 1.12077956e-04, -9.33675838e-05,
          3.12443054e-03, -2.42782687e-03, 6.24767412e-03,
          -6.27151970e-03, 1.31387802e-04, 2.47694625e-05,
          -1.45792135e-03, -2.51729856e-04, -1.31633529e-03,
          4.02236031e-03, -2.44945531e-05, -5.49444638e-04,
          3.67497341e-05, 1.89798162e-03, 1.99299961e-04, 1.11561187e-03,
          -1.67522929e-03, 2.10528175e-04, 8.94100592e-03,
          -1.94305801e-04, 3.38320853e-03, -7.87454657e-03,
          -3.82989267e-04, -4.97267442e-03, -7.30807369e-04,
          3.06330202e-03, -2.92424316e-04, -1.39650435e-03,
          4.69552004e-04, -1.00786187e-04, 1.74266484e-03,
          -6.03811629e-03, 1.39918149e-04, 7.88974066e-05,
          2.10314104e-03, 2.10478948e-03, -6.10657735e-04,
          6.60409685e-03, -6.57511782e-03, -1.09834911e-03,
          1.21441134e-03, -3.77636193e-03, 3.62062885e-04,
          6.30272459e-03, 3.86942853e-03, 5.87324332e-03, 9.75934672e-05,
          2.58888770e-03, -2.69107586e-05, 1.72457146e-03,
          -1.17100810e-03, 7.42913922e-04, 5.35318628e-03,
          -8.25017050e-04, -4.44450742e-03, -1.56974234e-03,
          -1.14374526e-03, 7.24961516e-04, 5.63153066e-04,
          3.07480397e-04, 2.65725521e-06, 4.01136989e-04, 2.63429154e-03,
          2.55549443e-04, 8.12656945e-04, 2.54143612e-03, 6.79897028e-04,
          3.08929040e-04, 6.69202127e-05, 1.22018196e-02,
          -5.68714342e-04, -1.64881609e-02, -5.08239307e-03,
          2.28312984e-03, -5.60801616e-03, -1.91161889e-04,
          -2.97279243e-04, 7.31632754e-04, -1.93259085e-03,
          4.23274469e-03, 3.93488939e-04, 6.11607451e-04,
          -8.31212196e-03, -3.33246938e-03, -8.32019257e-04,
          -7.00873279e-05, 1.96306687e-03, -2.61587882e-03,
          3.15640098e-03, -2.39228073e-04, 7.95169850e-04,
          -8.03731746e-05, 1.29940524e-03, 1.89231709e-03,
          -2.67422874e-03, 1.20118388e-03, 3.24487896e-03,
          -2.67854302e-05, 1.03912607e-03, -2.54665199e-03,
          7.83743453e-04, 5.70802251e-04, 1.66777289e-04,
          -3.74505995e-03, -1.13117008e-03, -3.71805835e-03,
          1.93336382e-05, -2.16650870e-03, 1.01458356e-02,
          -3.34103825e-04, -8.17531836e-04, -4.55214875e-04,
          -5.41144609e-03, -3.00728832e-03, 6.68851600e-04,
          6.35832874e-03, -5.24565466e-02, -2.23853087e-04,
          -3.86320916e-03, -4.26624436e-03, 1.32645457e-03,
          1.69849955e-02, 1.17886602e-03, 3.83985462e-03, 1.25739200e-04,
          1.77174620e-02, -4.83862218e-03, 3.17902640e-02,
          8.12792277e-05, -2.89300969e-03, 2.15595021e-04,
          -5.08672791e-04, 7.67816731e-04, 6.08484144e-04,
          1.19092998e-04, -7.54253779e-05, 1.55923946e-03,
          2.68362026e-04, -1.04422588e-02, 3.89987108e-04,
          1.80098414e-03, 1.49466889e-03, 5.17017301e-03, 4.93223220e-03,
          2.21720641e-03, -2.19108013e-04, 3.33672948e-02,
          4.98089415e-04, 4.75778797e-05, 8.45234375e-03, 8.52356607e-04,
          1.00082988e-02, 4.95085396e-06, -3.83673040e-07,
          -3.88854602e-03, -3.67046159e-04, 2.41062706e-04,
          2.06466415e-03, 3.98622267e-03, -1.26440020e-03,
          -1.10776781e-03, -1.86357356e-03, 7.55173573e-07,
          -2.18751654e-03, 6.19974104e-04, 4.90654493e-03,
          3.96330422e-03, 1.02724531e-03, 6.75632153e-04, 4.06575273e-05,
          3.24274035e-04, 6.53219968e-03, 9.71095520e-04, 3.39528196e-03,
          -4.35659924e-04, -2.28062127e-04, -2.37302622e-03,
          3.78755014e-03, -1.14121498e-03, -2.28875084e-04,
          8.45073839e-04, -1.12320436e-02, -1.19775743e-03,
          -3.36511526e-03, 1.84572767e-03, -5.17487153e-03,
          -1.47649632e-06, 2.31603815e-04, 2.07000202e-03,
          -4.23299032e-04, 0., -4.08268352e-05, -3.41893290e-04,
          3.50532384e-04, 5.03315707e-04, 4.35849855e-04,
          -3.56795965e-04, 7.13840360e-04, 2.51167058e-03,
          -1.86862104e-04, -1.02616975e-03, 9.02558022e-05,
          2.02372740e-03, -1.45992928e-03, 2.23291144e-02,
          3.86002823e-03, 2.33755607e-04, 2.34396372e-04, 1.03849365e-04,
          9.51937214e-03, -5.63735492e-04, -2.79366359e-04,
          2.11365666e-04, 7.21146259e-03, 5.33616776e-03, 1.24106195e-03,
          -1.94496522e-03, 8.37022788e-04, 2.84488499e-03,
          -1.40903355e-03, 2.17847805e-03, 5.83267654e-04,
          2.33176560e-03, -3.19763063e-03, 1.62948540e-03,
          -6.58091158e-03, 2.28977297e-04, 1.31635666e-02,
          -3.46914586e-03, 9.20487451e-04, 1.86615775e-03,
          2.38188877e-04, 2.18045767e-04, 1.86739708e-04,
          -4.90845414e-04, -1.34119755e-05, 1.86513038e-03,
          -2.47800868e-04, 7.53572164e-03, 7.43494695e-07,
          7.06955674e-04, 3.39913349e-05, -6.76883291e-03,
          1.59607362e-02, 2.96094175e-03, 3.41837702e-04,
          -1.30914394e-02, -6.55331556e-03, -9.06617424e-05,
          1.64443278e-03, -1.70613744e-03, 1.21635885e-03,
          3.19905375e-04, 8.37901200e-04, 3.16231069e-03,
          -1.43011776e-03, -4.64950921e-03, -2.04896060e-04,
          1.42638723e-03, 2.46215425e-03, 7.06508348e-04,
          -1.20285025e-03, -1.83356879e-03, 1.24321808e-03,
          -5.25870477e-04, 1.98381091e-03, 1.51367299e-03,
          1.96648994e-03, -1.73272204e-03, 1.97992122e-05,
          -9.36679280e-05, -7.80467089e-05, 5.03533229e-04,
          8.89496412e-04, 1.64614841e-02, -5.25449150e-06,
          2.68559740e-03, -5.23602721e-05, 1.86897989e-03,
          1.20028875e-04, 4.20121578e-05, -1.97056402e-03,
          5.60654094e-04, 5.10870852e-03, 5.68359625e-03, 4.81967552e-04,
          2.07697530e-03, -2.76190494e-05, 1.17458287e-03,
          1.54840556e-04, -2.08161466e-04, 7.17113027e-04,
          -1.26578694e-03, -1.19130441e-03, -1.06815691e-03,
          6.45088218e-03, 2.64732749e-04, 1.25207361e-02, 3.83050559e-04,
          1.00646257e-05, 3.93086462e-04, 8.22510570e-03,
          -1.24432798e-03, 8.04727373e-04, -8.51475343e-04,
          9.24734492e-03, 8.40709603e-04, 5.71854645e-04, 4.51866799e-04,
          -7.15857022e-04, -6.88334322e-03, -1.40359905e-03,
          4.59625153e-03, 6.19583705e-04, -2.61453737e-04,
          3.15490668e-03, 2.54054059e-04, -4.52355295e-03,
          9.96607170e-03, 9.86492450e-05, -1.21520984e-03,
          2.64257914e-03, -1.40181056e-03, -2.25212355e-03,
          -6.36099576e-05, 2.89262389e-05, 1.54076023e-02,
          -1.24324770e-05, 1.31550222e-03, 6.29380462e-04,
          5.22467381e-05, -2.45191593e-04, 8.97948863e-04,
          -4.87346697e-05, 3.59886690e-05, 1.47798448e-03,
          8.41859262e-04, -1.79624520e-02, 3.80798150e-03,
          6.22417894e-04, 2.10583815e-03, 1.45994499e-03,
          -2.94641388e-04, 6.40409300e-03, 6.52519579e-04,
          -1.68798538e-03, 2.49965204e-04, 8.66793934e-03,
          -1.29010400e-03, 3.99430329e-03, 1.53309247e-03,
          1.38410991e-02, 9.27967764e-03, 4.29549860e-03,
          -2.66038650e-03, -2.87220255e-03, 4.19473145e-05,
          6.87542430e-04, -3.75791965e-03, 1.43581332e-04,
          1.96816563e-03, -2.39543850e-03, 7.11287605e-03,
          5.49019780e-03, 1.28456850e-05, -6.65296102e-04,
          3.04635847e-03, 1.68133539e-03, 2.76642456e-03, 6.16096950e-05,
          3.31128226e-03, 2.03650096e-03, 1.29248155e-03, 2.07385237e-04,
          2.85239005e-03, -1.18506643e-04, 2.66385556e-04,
          -1.38691417e-03, -1.37132779e-03, -2.48938188e-04,
          5.73907921e-04, -3.76675685e-04, 1.58240902e-03,
          -2.23579258e-03, -1.71187730e-03, 9.38873127e-05,
          2.81316985e-04, -5.45438379e-04, -2.59890947e-02,
          3.72805400e-04, -7.71566434e-03, -1.07715459e-04,
          6.00482058e-03, -1.59836225e-02, 3.50789237e-03,
          -1.07903150e-03, 6.23715390e-03, 3.35852522e-03,
          4.96427296e-03, -2.68249400e-03, -1.68028136e-03,
          -1.69131125e-03, 0., 2.96314433e-03, 7.09561305e-03,
          -1.27706747e-03, 6.21214567e-04, -1.05738756e-03,
          8.56889354e-04, 5.58507862e-04, 2.73004407e-04, 8.46687530e-04,
          1.33879324e-02, 2.94464384e-03, 1.46078947e-03, 2.61592376e-03,
          -8.96423776e-03, 1.69451803e-03, -1.18502846e-03,
          -1.34107005e-03, 9.64700186e-04, 1.02117041e-03,
          -2.92305576e-05, 5.13685751e-04, -1.74841007e-05,
          1.17417239e-03, 3.61862622e-04, 4.70603190e-05,
          -5.06203680e-04, 2.32435344e-03, 6.48501271e-04,
          3.83880385e-03, 2.56844593e-04, 2.65127560e-03,
          -5.90948839e-05, 6.51141512e-04, 2.25302158e-03,
          -4.45578899e-03, 2.08081887e-03, 6.00450985e-05,
          -3.34219221e-04, 2.45984469e-04, 1.24913917e-04,
          -1.18894211e-03, 1.75331093e-04, 7.61732808e-04,
          1.40144199e-03, -2.47453980e-04, 8.75467993e-03,
          3.05990427e-04, -1.18556817e-03, -6.71677000e-04,
          -1.15853595e-03, 2.59215867e-05, -6.01169327e-03,
          -5.08725177e-04, -4.90488112e-03, 3.38836340e-04,
          4.70743485e-04, 8.51772609e-04, -9.42592334e-04,
          -1.57855765e-03, -3.30078532e-03, 3.57353974e-06,
          -1.12338064e-04, -5.45329312e-05, -1.43801968e-03,
          1.69641338e-02, -1.13957282e-03, 6.96194125e-04,
          -7.32695567e-04, -4.63979784e-04, -3.40403896e-03,
          -4.06489562e-04, -2.49411142e-03, 1.42607535e-03,
          2.29216312e-04, 1.40741644e-02, 1.06228504e-03, 0.,
          -5.47386124e-04, 4.49314713e-03, 2.64339935e-04,
          2.65851395e-05, -6.37939142e-04, -8.06301105e-05,
          3.97406006e-03, 1.44471938e-04, -3.29263578e-03,
          2.79499940e-03, 7.80534465e-04, -4.80539020e-05,
          -2.25468961e-04, 2.36152540e-04, 1.12932932e-04,
          7.54019769e-04, 8.97138380e-03, -4.82031237e-03,
          -4.20627417e-03, 1.29519685e-04, 2.87483539e-03,
          6.11274372e-05, 4.79725917e-04, -4.59505664e-03,
          -6.49817928e-04, -1.58344377e-02, -9.58848759e-05,
          -2.60761217e-03, -1.56229915e-04, -4.73922119e-03,
          5.89885691e-04, -3.20036372e-04, 9.52483714e-03,
          3.59160593e-04, -5.36130683e-04, -1.50288497e-05,
          -2.64741131e-03, 3.17122089e-03, 1.16302934e-03,
          -2.08977330e-03, -4.99856324e-05, -3.63864179e-04,
          3.71344201e-03, -3.30302841e-03, 5.05688076e-04,
          2.06377445e-04, -4.64797165e-04, 1.08006143e-03,
          1.35654618e-05, -1.30805548e-03, 1.68853963e-04,
          -1.07176823e-03, -4.74299863e-03, -7.61442469e-04,
          1.14806408e-05, 8.57968349e-04, -1.93759869e-03,
          -1.09324302e-03, -3.43425374e-04, 8.16568790e-04,
          3.45717208e-03, -1.53509039e-03, 1.27233984e-03,
          1.02890590e-02, -6.37519115e-05, -1.48208742e-03,
          6.98079884e-06, 0., 7.26820901e-03, 2.02965733e-04,
          4.01815586e-03, 4.75928420e-04, -2.80874578e-04,
          -2.99575477e-04, 2.45698786e-04, 2.92025204e-03,
          1.55877415e-03, 1.62518595e-03, 2.71159952e-04,
          -3.41096218e-03, -9.55807324e-03, 2.02426381e-04,
          -7.51938438e-04, 8.40620953e-04, -4.02029400e-04,
          1.84810609e-02, -5.56614541e-04, 2.41168775e-03,
          -7.17299918e-06, 4.61488671e-05, -3.51047865e-03,
          1.19658862e-03, 5.37010601e-05, -2.15863157e-03,
          9.50178690e-03, 3.86018597e-04, -4.13060363e-04,
          -1.04044680e-03, 2.17478679e-04, -8.94489858e-06,
          -3.01518198e-03, 1.39612495e-03, -4.06905921e-04,
          -3.97231015e-05, -8.53417616e-04, 1.89956021e-03,
          2.08342215e-03, 7.18695868e-04, 1.58320821e-03, 1.00023730e-03,
          -1.48594507e-03, 5.32977656e-03, 6.11555937e-04,
          2.04024138e-04, -3.39727523e-03, -1.30593951e-03,
          -7.70587067e-04, -1.63720525e-03, 9.05812019e-04,
          3.24614439e-03, 8.48671887e-03, -1.25913881e-03,
          1.49079273e-03, 1.39760989e-04, 6.38041238e-05,
          -3.07398295e-06, 4.88309248e-04, 3.19450744e-03,
          9.41458915e-04, -2.94184982e-04, 1.23094544e-02,
          5.46061026e-04, -1.40713109e-02, -4.22850542e-04,
          6.76779833e-04, 1.66567396e-02, 1.30917924e-02,
          -9.76155061e-05, -3.18629376e-04, -2.08800938e-02,
          -4.26599036e-05, 6.83018100e-03, 1.88178994e-04,
          1.19049884e-02, 1.77659001e-02, -1.09415036e-03,
          1.91681465e-04, 5.04720677e-03, -7.00408345e-05,
          1.23946797e-04, -9.17076541e-04, -3.61935492e-03,
          2.76246225e-03, -2.43130824e-04, -5.33693645e-04, 0.,
          1.08303630e-03, 8.19754263e-04, 1.32016174e-03,
          -8.45951086e-04, 3.60172731e-03, 8.48441210e-04,
          3.86665110e-04, -1.41025963e-03, 3.31419259e-02,
          4.42589735e-05, -2.22746472e-04, 8.95633420e-04,
          8.86240043e-04, 3.63275385e-03, -3.89448251e-04,
          8.51388439e-04, -5.75934164e-03, 1.66895930e-04,
          -1.24163867e-03, -5.31269843e-03, 1.31095375e-03,
          5.09292493e-03, 3.61020095e-04, 4.65168414e-04,
          -1.41515548e-03, -7.39417388e-04, 8.17439053e-04,
          8.38012155e-03, 8.65741516e-04, 5.96680678e-03, 4.38760221e-03,
          4.92888248e-05, 1.15229771e-03, 2.92354933e-04,
          -1.43709767e-04, -1.59967894e-04, -3.52019048e-03,
          1.67475417e-02, -1.16117252e-03, 4.89550410e-03,
          -2.88873684e-06, 8.44425056e-03, 3.54043877e-05,
          -6.14160951e-03, 1.28935906e-03, 1.33245357e-03,
          1.13718701e-03, -8.51905812e-03, 0., 1.06067304e-03,
          2.13475883e-04, 1.35151131e-04, -6.53500762e-03,
          -2.39246991e-03, 2.40209702e-04, 1.15451624e-03,
          -5.99547406e-04, 2.24661722e-04, 1.45638420e-04,
          -6.49902644e-03, 4.45038592e-03, -1.63843646e-03,
          -3.71915266e-05, 7.17867151e-05, -4.43215668e-03,
          -1.12779133e-04, 8.12353974e-05, -5.25559415e-04,
          -3.60416670e-05, 2.63113668e-03, -2.99525651e-04,
          -1.53753077e-04, 1.58342777e-03, 6.16729911e-03,
          5.81476615e-06, 7.57752161e-04, 6.81556094e-06, 0.,
          1.19241558e-04, 6.60774764e-04, 1.68942695e-03,
          -5.17321751e-04, 0., -2.21743458e-03, 1.65783422e-05,
          6.01202529e-03, 3.57387944e-05, 0., 2.55193701e-03,
          2.90306774e-03, 6.65751006e-03, 1.55562011e-04, 1.26968720e-03,
          1.23911351e-03, -3.54342093e-03, -5.34157408e-03,
          -1.08800521e-02, -8.27976130e-03, -4.36939241e-04,
          -1.63407985e-03, -2.89729534e-04, 1.41679237e-04,
          3.37800710e-03, 1.26275816e-03, 1.55041445e-04, 6.96033430e-06,
          -2.12798966e-03, 9.26457997e-03, 1.01232727e-03,
          -2.33438122e-03, 5.07268087e-05, 2.69070384e-04,
          2.36665318e-03, -1.22715801e-03, 2.15099985e-03,
          2.05738866e-03, -6.76205498e-04, 4.16355254e-03,
          3.78616271e-04, -6.62020815e-04, -5.00175694e-04,
          3.11758253e-04, -1.11204910e-03, 1.19271304e-03,
          1.19534694e-03, 2.83214264e-04, 2.08664802e-03,
          -1.24537956e-03, 1.63203813e-02, 8.85398686e-03,
          2.55636266e-03, -7.06313935e-04, 1.43278856e-03,
          1.48538402e-05, -3.45867919e-03, -1.70911862e-05,
          -1.14518905e-03, 7.80735817e-03, 1.51545489e-02, 0.,
          2.16709013e-05, 5.45686716e-03, 8.43526854e-04, 2.26663888e-05,
          -2.74216221e-03, 2.87677278e-03, 1.23136407e-02,
          -5.50161989e-04, 1.06202224e-02, -6.10161386e-03,
          -8.71133339e-03, 2.15185038e-03, 1.00951729e-04,
          8.13153631e-04, 2.12559802e-03, -2.42018330e-04,
          -8.98081751e-04, 1.55750825e-03, 2.69371225e-03,
          4.44328412e-03, 1.86706986e-03, -3.21643485e-04,
          -9.60790552e-04, 1.13321387e-03, -5.24020335e-03,
          1.36079849e-03, -5.13232779e-04, 5.50303026e-04,
          -3.66241089e-03, -8.18238419e-04, 5.40991954e-04,
          1.65655254e-03, 3.69209191e-03, -1.20020029e-03,
          -5.39167158e-05, 1.76816457e-03, 3.42461513e-04,
          1.33555122e-02, -2.39784620e-03, 4.69987048e-03,
          -5.77353546e-03, 6.94181013e-04, 7.52663182e-05,
          4.34488850e-03, 8.15503858e-03, 6.80512094e-05,
          -3.21437081e-04, 1.07122767e-04, -5.63655281e-04,
          2.99721461e-04, -1.84106128e-03, 7.89572252e-04,
          6.02442445e-03, -1.05311442e-03, 8.31637532e-04,
          -6.46271557e-03, 2.68445280e-03, -1.03653350e-03,
          6.16580667e-03, -3.81276868e-02, -3.91208148e-03,
          -7.41364842e-04, -1.94673217e-03, -7.84973148e-03,
          2.26484565e-03, 3.67801578e-04, -6.44384243e-04,
          2.58882507e-03, -3.35095683e-05, -7.48638340e-05,
          -9.07607500e-07, -2.01398483e-03, 7.18117924e-04,
          -3.73061310e-04, 3.34345736e-04, -1.36959157e-03,
          6.53869472e-03, 1.01666451e-02, 5.32876328e-03, 4.75982059e-04,
          3.13516619e-04, -3.62184219e-04, -6.83478080e-04,
          5.76497696e-04, -1.71486544e-03, -1.22679421e-03,
          -2.06781994e-03, 8.92390870e-03, 5.38854999e-03,
          1.14707364e-04, 1.22244016e-03, 2.61867157e-04, 2.31703022e-03,
          -1.32531428e-03, -6.19373471e-03, 1.94588071e-03,
          -4.45548532e-04, -3.13836196e-03, 0., -9.44407482e-04,
          1.19084038e-03, -6.82965433e-03, -4.56235139e-03,
          2.60927179e-03, -2.13844795e-03, 3.84779996e-03, 0.,
          1.80906281e-04, -2.49194942e-04, 1.22998692e-02,
          1.08675088e-03, -2.10262428e-04, 4.50239191e-03,
          3.46415356e-04, -1.65146647e-03, -2.31217942e-03,
          8.33418511e-04, 6.66669293e-05, -2.33104627e-04,
          -8.02824070e-05, 3.01333726e-04, 0., -5.91713877e-04,
          8.37952539e-04, 1.46770326e-03, -2.62577496e-02,
          -1.25848735e-02, 6.66736043e-04, 8.38083157e-04,
          -2.36438145e-03, 1.64484314e-03, 2.20254599e-03,
          8.42445996e-03, 0., 2.14664987e-03, -3.36309204e-05,
          5.52083831e-04, 1.39718642e-03, -1.49849232e-03,
          1.27219642e-03, 4.82997239e-05, 1.62611192e-04, 2.09534177e-04,
          -6.87495631e-04, -3.87639715e-03, -8.05223454e-03,
          3.11296862e-02, 1.37807557e-03, -7.81540666e-03,
          1.17207812e-02, -1.39668048e-03, 5.22708287e-04,
          1.59752322e-04, -1.96148860e-04, 0., 8.50887503e-03,
          1.30498304e-03, -5.12027909e-05, 2.82315165e-03,
          1.50160908e-04, 9.86792584e-05, 2.06787209e-03, 1.26217469e-03,
          1.36070140e-03, -4.95595718e-03, -2.66154064e-03,
          -4.32915427e-02, 2.84155481e-04, 4.94970707e-03,
          5.49922185e-03, 6.42704638e-03, 3.90379899e-03, 4.09789063e-04,
          1.55235932e-04, 4.39909723e-04, -6.03320601e-04,
          -1.79517418e-04, -2.48488458e-03, -8.25103270e-05,
          -2.57654791e-03, 1.33115085e-04, 2.07362464e-03,
          -4.37642029e-03, 1.52835259e-04, 2.11298908e-03,
          -2.14467128e-03, 3.13467882e-03, 4.11129091e-04,
          4.27993061e-03, 3.68151464e-03, -2.42953647e-05,
          -9.75583462e-05, -2.36606481e-03, -2.20779781e-04,
          2.60615197e-04, -3.95580078e-04, 1.74338964e-03,
          -1.03918801e-03, 1.63366692e-03, 2.89869844e-04,
          9.32252849e-04, -2.98114696e-06, 2.49919947e-04,
          8.73400597e-04, 1.50782056e-03, -3.78046068e-04,
          1.16391559e-04, 0., 3.19403061e-03, 9.99899567e-05, 0.,
          2.07059318e-03, 2.72024306e-03, 5.56500861e-03,
          -2.65903393e-04, -1.90501465e-04, 2.65262579e-03,
          1.19199813e-03, 3.13785829e-04, 1.44803198e-03, 6.75695541e-04,
          -2.59958702e-04, -6.94399176e-04, 1.26850407e-03,
          1.49397482e-03, -7.41766207e-03, 3.27034286e-05,
          -1.95533247e-03, 2.37279944e-03, 4.12302464e-03,
          1.36255665e-04, 2.24428906e-04, -2.40108091e-03,
          7.41906697e-04, -1.00832777e-02, -2.84088281e-04,
          1.87465036e-03, 3.64157557e-03, 1.15999184e-03, 9.07403417e-04,
          -5.05826974e-05, 1.44952364e-05, 2.35069869e-03,
          7.65915553e-04, 2.83436733e-03, 3.82989150e-04,
          -6.41248043e-05, -2.07008957e-03, 1.65036850e-04,
          -1.55174916e-04, 4.09540720e-03, -8.09547026e-03,
          1.95767527e-04, 3.31687718e-03, 2.10593524e-03, 2.58382689e-03,
          4.00542049e-04, -1.00807063e-02, -4.08445718e-03,
          1.88365746e-02, 7.93675147e-03, 6.01345324e-04,
          -3.66279091e-05, 5.95595106e-04, 3.71090515e-04,
          -6.66028401e-03, 9.90772620e-04, 4.89433936e-04,
          6.62371865e-04, 1.15032550e-02, -4.90788778e-04,
          -4.87305364e-03, -2.05490738e-04, 5.58074506e-04,
          2.45874375e-03, -7.64041124e-06, 5.56253362e-04,
          6.92873728e-04, 3.10519990e-03, -2.06796220e-04,
          3.40778060e-05, 5.79545667e-05, 4.01369762e-04,
          -1.74066797e-03, 4.03270569e-05, 1.59059372e-03,
          5.40253893e-03, -5.76861342e-03, 1.04265823e-03,
          6.24694210e-03, 5.17755165e-04, 1.04376313e-03, 3.74152041e-05,
          8.21074762e-04, -1.78687717e-03, 1.00769158e-02,
          -2.50164513e-03, -6.15826284e-05, -3.39202001e-04,
          4.33858251e-03, -1.39352214e-02, -2.24232185e-03,
          3.78813851e-03, 4.40000120e-04, -6.37305260e-04,
          1.54269836e-03, 2.57451960e-04, 2.59138278e-06,
          -3.66182794e-04, -4.92841995e-04, 2.43572009e-04,
          4.02577361e-03, -6.22340245e-04, 7.53069064e-03,
          2.21609553e-05, 8.34685285e-04, -1.95220800e-05,
          8.09147386e-05, 6.28143642e-03, 1.73875678e-03,
          -2.26347387e-04, 6.05225842e-03, 3.11360369e-03,
          2.88313837e-03, 6.95487397e-05, 1.86818035e-03, 1.00784306e-03,
          4.88976424e-04, 6.90777693e-03, -2.60534557e-03,
          2.36586807e-03, 6.77352682e-06, 1.89966941e-03,
          -3.49537528e-04, 2.65604374e-03, 1.50598194e-02,
          8.27361189e-04, 1.81726664e-02, 3.04267771e-04, 1.27348420e-03,
          4.98356239e-04, -2.41653412e-03, 1.96035695e-03,
          -2.57225451e-03, -8.18170665e-05, 1.75396170e-04,
          1.03510334e-04, 3.28980424e-02, 2.27815704e-04,
          -2.99055059e-03, 2.02627518e-04, 2.37914101e-05,
          -7.45307480e-05, 2.09337426e-03, 2.87879468e-03,
          -1.59842928e-03, 7.35984009e-04, -7.40515348e-03,
          1.07509800e-06, 9.42026600e-05, -6.08682865e-03, 0.,
          1.19242654e-03, 9.51355509e-03, 4.77161026e-04, 9.70612187e-03,
          1.30731566e-03, 9.37503472e-04, 2.86962418e-03,
          -1.27539446e-04, 3.61866783e-03, -9.21185187e-04,
          1.23793283e-03, -4.39853873e-03, 2.21298658e-03,
          -2.36254069e-03, 3.27507919e-03, 1.47213403e-03,
          -3.11883097e-03, 1.31344860e-02, -1.50261307e-03,
          7.54118300e-05, 4.90944367e-04, 9.81076737e-05,
          -4.73885657e-03, 9.54583302e-05, 5.91487733e-05,
          2.00368022e-03, -3.50346440e-03, 2.05682270e-04,
          -5.71752316e-04, 1.63040488e-04, -8.22707196e-04,
          1.89105002e-03, 5.14333043e-03, 1.34567905e-03,
          -2.28559249e-04, 3.56528792e-03, -3.85553489e-04,
          1.61696444e-04, 3.08054470e-04, -1.77004132e-02,
          2.09514145e-03, -8.06749985e-03, 6.14247704e-03,
          5.42505586e-04, -1.30749596e-02, 1.49303512e-03,
          1.03964051e-03, 9.58901146e-05, -5.01104537e-03,
          -8.99210107e-04, 1.75644422e-03, -9.32508521e-03,
          -1.10107812e-03, 3.55264638e-04, 2.58585392e-03,
          -4.43007331e-04, 8.03142227e-03, 9.26296413e-03,
          3.74931609e-04, 1.34954811e-03, 1.69690454e-03,
          -6.47768029e-04, -4.15685587e-03, 9.62902326e-04,
          -2.62389367e-04, 1.11521815e-03, 3.85293062e-03,
          5.17773791e-04, -1.41600403e-03, 3.71562154e-03,
          2.36410109e-04, -7.63493998e-04, -2.18887159e-04,
          -4.80168965e-03, 8.57539102e-03, 6.96324641e-05,
          4.02681826e-06, -1.74145494e-03, 1.93889264e-03,
          -1.60551909e-03, -6.23917533e-03, 3.01363552e-03,
          1.23171993e-02, 2.18089554e-03, 1.38248011e-04, 8.67603831e-06,
          5.79038096e-05, 1.73894316e-03, 2.23683790e-04, 5.04488475e-04,
          7.54690904e-04, -3.12123611e-03, -4.10349760e-03,
          2.16804934e-03, -5.85462083e-04, 2.00827024e-03,
          -1.37227165e-04, -4.79059201e-03, 8.61651788e-04,
          -2.75576464e-03, 1.30895665e-03, -6.57637604e-03,
          2.89294552e-02, -2.60770624e-03, -7.76685192e-04,
          4.68161749e-03, 2.95069767e-03, 9.20754042e-04, 9.40353144e-04,
          -6.56512129e-05, -3.28091905e-04, -6.91314635e-05,
          5.29634999e-03, 1.07730157e-03, 1.20943594e-04, 5.14459156e-04,
          -8.19011778e-03, -2.82547644e-05, -6.96873292e-04,
          9.33867064e-04, 1.69138703e-03, -1.95421642e-04,
          -5.52003796e-04, -2.59858585e-04, -4.60312935e-03,
          -1.97172314e-02, -5.65750197e-05, -1.95300709e-02,
          1.56288806e-04, 1.85093109e-03, -7.56804179e-03,
          -7.72936619e-04, 2.37115863e-04, -2.89600372e-04,
          -9.63868108e-04, 3.93451983e-03, -3.84942250e-04,
          1.54539157e-04, -1.33092573e-04, -6.35755248e-03,
          -9.75857780e-04, 1.52764638e-04, 6.17987826e-04,
          1.55442604e-03, -4.43596859e-03, 1.81004684e-03,
          -1.87434547e-03, -5.90777257e-04, 2.17059674e-03,
          1.18186383e-03, -4.58234455e-03, 0., 8.96213693e-04,
          7.84367207e-04, 1.10247063e-04, 3.68167530e-03, 1.19598431e-03,
          9.50953923e-04, -4.38300287e-03, 3.94998258e-03,
          1.00997699e-04, 2.18064850e-03, -2.48527969e-03,
          -2.66908581e-04, 1.11505278e-05, 1.01418365e-02,
          5.73870353e-03, -7.36832665e-03, -2.61671143e-04,
          -7.25227846e-06, -6.16279384e-03, 1.39705749e-04,
          1.11484015e-03, -1.10687420e-03, 2.50679932e-05, 0.,
          4.35254211e-03, 2.16839649e-03, 8.06539902e-05,
          -1.52576074e-03, 8.59747699e-04, -7.76691188e-04,
          1.01151329e-03, 1.18960359e-03, 5.26986411e-03, 9.77371121e-04,
          1.53676927e-04, 2.39339960e-03, 0., 2.87368108e-04,
          3.26913712e-03, -2.74182414e-04, 7.85236247e-03,
          4.58442926e-04, 5.68353198e-03, -7.81914423e-05,
          -6.06582267e-04, 1.28069622e-02, 1.76735912e-02,
          7.85984666e-05, -1.22573960e-03, -3.15072387e-03,
          1.58178026e-03, -1.76236045e-03, 2.39314698e-03,
          -9.66880179e-04, 2.66567827e-03, 8.36292165e-05,
          -2.61575868e-03, 5.60525630e-04, -1.68858405e-05,
          1.24015834e-03, -2.83783255e-03, 1.32075162e-03,
          5.22936415e-03, 3.97677347e-03, -3.28875077e-03,
          2.03160685e-04, 2.28094263e-03, -1.92344934e-03,
          5.08685829e-03, 1.59860228e-03, 1.68623137e-05,
          -8.25355109e-03, 3.95648567e-06, 6.63343910e-03,
          -2.96889139e-05, 3.71973620e-05, 4.36942652e-03,
          2.76425667e-03, 4.44740872e-04, 1.19894724e-02,
          -6.27493428e-04, 8.99750914e-04, -1.00485946e-03,
          1.82381691e-03, -1.18099933e-05, 8.78805481e-03,
          -8.52181693e-05, 1.49204703e-02, 1.19300094e-02,
          -1.70900917e-03, -3.92564433e-03, 4.37642867e-03,
          -2.22773734e-03, 1.88495265e-04, 1.90483279e-05,
          -4.71931230e-03, -1.76300717e-04, -3.35219112e-04,
          5.61870911e-05, 5.69714102e-05, 2.51749269e-04,
          -2.06190092e-03, 2.49265600e-03, 1.60583016e-03,
          -8.19140987e-04, 4.42852965e-03, 3.13083222e-03,
          -7.93358777e-04, 2.15200428e-03, 3.41098232e-04,
          9.18040238e-03, -6.52399438e-04, 2.22048233e-03,
          -1.05768200e-02, 7.09914323e-03, 6.11382944e-04,
          -8.59821099e-04, -2.59085093e-04, 1.85807468e-04,
          6.61064580e-04, -8.41470435e-03, 8.85810368e-06,
          8.35438186e-05, -2.19481488e-04, 3.06599494e-02,
          1.25215311e-05, -1.67261634e-03, 3.66869289e-03,
          -2.40829084e-02, -1.54692056e-02, -1.71376771e-04,
          3.26653972e-05, 1.99911045e-03, 7.83861105e-05, 3.55783326e-04,
          -6.35364908e-04, 3.05540074e-04, 3.10940505e-03,
          4.61593154e-04, 6.68854511e-04, 2.28010607e-03, 5.04231174e-03,
          4.53802175e-04, 9.06009300e-05, 1.72781525e-03,
          -2.90349562e-04, -3.17515281e-04, -1.67833327e-03,
          6.26336457e-03, 1.48040312e-03, 1.14797382e-02,
          -9.37438381e-05, -3.77433351e-03, -5.33638429e-03,
          -8.08716504e-05, 2.40102410e-03, -5.74246980e-04,
          -1.07113982e-03, -1.18849264e-03, 2.46096891e-03,
          -5.43216884e-04, 2.02705618e-03, 7.51960106e-05,
          6.90722431e-04, 2.89915316e-03, 4.00525372e-04,
          -1.03195038e-04, -4.15455608e-04, -3.70766502e-03,
          -4.77816240e-04, 1.53005670e-03, -3.25468776e-04,
          -1.28520431e-03, 3.85307940e-04, 6.21052412e-03,
          3.22930398e-03, 1.04376802e-03, -6.05527870e-03,
          5.09466336e-04, 6.71616581e-04, -1.24765991e-03,
          -8.10255471e-04, -2.76086479e-03, 1.38080923e-03,
          -1.92339416e-03, 3.27822543e-03, -5.17571112e-03,
          4.65948142e-05, 5.53163583e-04, 2.49469769e-03,
          -3.68219684e-04, -1.80500490e-03, 3.77140520e-03,
          1.42246382e-02 ]
   uncompressed_sv_total: 18
   uncompressed_support_vectors:
      - [ 5.75624049e-01, 2.04113740e-02, 8.82979810e-01, 2.09561978e-02,
          2.35895868e-02, 5.67834042e-02, 6.14927053e-01, 0.,
          2.75950104e-01, 6.32999241e-01, 6.44880012e-02, 0., 0.,
          1.07235968e+00, 1.45929196e-04, 3.97626221e-01, 2.45339394e-01,
          0., 1.26298759e-02, 0., 3.02027971e-01, 2.70211212e-02,
          3.82745355e-01, 1.61543906e-01, 0., 1.31056949e-01,
          1.60137132e-01, 1.15854479e-01, 0., 1.58107412e+00,
          4.13293624e-03, 1.77259549e-01, 1.44661352e-01, 0.,
          2.10594729e-01, 1.31991744e+00, 4.40998852e-01, 1.90042704e-01,
          6.26541734e-01, 4.98076230e-02, 8.56438577e-02, 8.71579289e-01,
          2.69964981e+00, 0., 3.02475065e-01, 6.44639552e-01, 0.,
          9.82045159e-02, 3.58078592e-02, 0., 7.03980252e-02,
          2.65785873e-01, 2.72630081e-02, 3.19036782e-01, 2.29544938e-02,
          1.12985909e-01, 2.44234905e-01, 3.21277171e-01, 9.36711580e-02,
          1.03871167e-01, 2.03873768e-01, 6.06652675e-03, 2.88571447e-01,
          6.92589104e-01, 1.33471587e-03, 9.75083709e-02, 3.57557803e-01,
          1.74294487e-01, 4.66152877e-02, 9.36460122e-02, 2.87773371e-01,
          4.80371952e-01, 0., 2.44332775e-01, 3.07918012e-01, 0.,
          2.65882933e-03, 1.58587486e-01, 4.27918509e-03, 3.44439433e-03,
          4.02999014e-01, 3.92875880e-01, 1.35181382e-01, 9.94728029e-01,
          3.35445553e-01, 0., 1.49902910e-01, 0., 0., 2.03474998e+00,
          2.26913840e-01, 1.78552794e+00, 3.67445290e-01, 7.63957351e-02,
          2.86803637e-02, 2.40742356e-01, 1.97443530e-01, 0.,
          3.27958345e-01, 2.54235178e-01, 3.03867936e-01, 1.76497638e-01,
          1.89737938e-02, 5.21354675e-01, 3.58532548e-01, 1.43283093e-02,
          5.86142540e-01, 0., 5.96884847e-01, 1.41759491e+00,
          1.27947301e-01, 3.49488676e-01, 1.72663368e-02, 0.,
          1.67211509e+00, 1.08580105e-01, 3.89470786e-01, 4.43304330e-02,
          3.98671389e-01, 1.00731999e-01, 3.31452973e-02, 1.21630795e-01,
          8.17883760e-02, 6.03866465e-02, 8.08963031e-02, 0.,
          1.13630116e-01, 1.94901571e-01, 1.59529641e-01, 5.41026220e-02,
          2.85090297e-01, 2.88222283e-01, 0., 4.25573260e-01,
          2.10734069e-01, 1.79329112e-01, 7.95757532e-01, 9.08403993e-02,
          2.13855505e-01, 6.53900672e-04, 8.71089399e-01, 1.01759553e-01,
          3.82742546e-02, 5.88739738e-02, 0., 5.99862635e-02,
          5.92553094e-02, 3.81580472e-01, 4.69394326e-02, 2.10257864e+00,
          1.58159569e-01, 5.91625795e-02, 6.71666712e-02, 6.42055035e-01,
          9.63650495e-02, 1.62674561e-02, 0., 4.50790405e-01,
          7.55944401e-02, 5.19253969e-01, 2.02563778e-01, 2.04910599e-02,
          7.25331604e-01, 2.15966523e-01, 1.28001380e+00, 0.,
          2.71311998e-01, 4.63891067e-02, 1.04451710e-02, 4.92704511e-02,
          1.71209186e-01, 0., 3.40582170e-02, 4.72471341e-02, 0.,
          5.84357858e-01, 3.16867590e-01, 4.66120273e-01, 6.23051226e-02,
          1.03680396e+00, 0., 1.71376586e-01, 0., 0., 1.38926834e-01,
          3.79345685e-01, 1.31500149e+00, 9.19745982e-01, 0.,
          1.50977647e+00, 2.90067820e-03, 9.66023207e-02, 0., 0., 0.,
          8.99113417e-01, 1.49990991e-01, 1.08267240e-01, 2.60599732e+00,
          6.52870119e-01, 1.58645049e-01, 1.44864511e+00, 2.65738573e-02,
          2.53339100e+00, 0., 4.50553846e+00, 1.71320771e-05,
          3.79229456e-01, 4.05530073e-03, 6.61807060e-01, 1.30785978e+00,
          0., 4.47587252e+00, 7.07439244e-01, 3.81810851e-02,
          7.00828992e-03, 1.79585349e-02, 3.88715714e-02, 7.29751050e-01,
          0., 7.23980784e-01, 6.79622233e-01, 2.11236072e+00,
          8.99367034e-02, 3.00320506e-01, 9.37439740e-01, 1.34965897e-01,
          4.63821322e-01, 3.95070821e-01, 1.02343410e-01, 8.48807454e-01,
          0., 3.45217496e-01, 3.14028382e-01, 2.19141897e-02,
          1.05220270e+00, 9.71995108e-03, 9.56677020e-01, 1.10030580e+00,
          5.81196785e-01, 1.32537007e-01, 0., 0., 1.47323264e-02,
          3.35048884e-02, 1.06678331e+00, 5.02898246e-02, 8.71459022e-02,
          6.93197966e-01, 1.40460700e-01, 4.13353965e-02, 1.92643348e-02,
          2.52704918e-01, 5.13527811e-01, 1.02999620e-01, 1.57747433e-01,
          5.32023013e-01, 3.71902511e-02, 2.32983604e-01, 7.91377947e-02,
          1.38895027e-02, 2.66581684e-01, 5.15996590e-02, 1.92131400e-01,
          1.26907289e-01, 0., 0., 0., 0., 1.82141691e-01, 3.64186215e+00,
          0., 1.80504873e-01, 5.10627937e+00, 3.63454461e+00,
          1.20724475e+00, 8.10697496e-01, 5.28331287e-02, 4.98368084e-01,
          2.86745787e-01, 4.34941471e-01, 2.27612555e-01, 4.46541309e-01,
          8.47221091e-02, 5.19027526e-04, 5.91299295e-01, 2.36376703e-01,
          1.75784719e+00, 3.38234425e-01, 5.18760495e-02, 4.38431129e-02,
          0., 5.04020214e-01, 2.17837647e-01, 8.68268204e+00,
          2.38258436e-01, 8.92177597e-02, 1.14593701e-02, 1.00855291e+00,
          1.77610815e+00, 0., 1.36170343e-01, 2.54103448e-02,
          1.96515769e-02, 4.02133092e-02, 2.29782283e-01, 6.31266907e-02,
          1.73916683e-01, 1.27620733e+00, 4.52162564e-01, 0.,
          2.44790226e-01, 0., 3.76191378e+00, 9.31004286e-01,
          1.67569113e+00, 5.68181753e-01, 0., 0., 0., 0., 7.11917803e-02,
          0., 1.18603177e-01, 0., 1.73329279e-01, 5.55232048e-01,
          3.38127732e-01, 1.33227244e-01, 3.57425988e-01, 7.89044499e-01,
          5.75663447e-02, 2.08767829e-03, 7.70243824e-01, 1.05560400e-01,
          1.29123461e-02, 1.90098286e-02, 2.57169106e-03, 4.52362280e-03,
          3.45369369e-01, 2.31356919e-02, 0., 2.75760144e-01,
          1.76468089e-01, 3.73588949e-02, 3.29668485e-02, 3.30225676e-02,
          0., 5.76395810e-01, 2.59424353e+00, 3.67719126e+00,
          4.30892035e-02, 6.67665064e-01, 7.51596272e-01, 0.,
          1.67356759e-01, 0., 7.45409876e-02, 7.64807165e-01, 0.,
          4.27207410e-01, 2.12836787e-01, 8.89118254e-01, 1.38569391e+00,
          9.97791253e-03, 5.85585795e-02, 1.41125590e-01, 1.58005029e-01,
          4.74966727e-02, 3.53496760e-01, 1.43165737e-02, 4.28443328e-02,
          2.50326395e-01, 1.89631951e+00, 2.10432112e-02, 0.,
          5.21244860e+00, 5.50697267e-01, 3.93338827e-03, 3.75709534e-01,
          1.41686352e-03, 3.96061152e-01, 1.36163443e-01, 1.47346854e-01,
          1.01825915e-01, 2.13417225e-03, 1.86996269e+00, 0.,
          1.52625668e+00, 0., 8.24440777e-01, 0., 0., 0., 4.04173106e-01,
          2.80191898e-01, 8.46534491e-01, 2.50616431e-01, 7.15701953e-02,
          1.09071106e-01, 0., 6.28789216e-02, 6.97151124e-01,
          5.78896217e-02, 2.23854631e-01, 7.96897046e-04, 1.12464149e-02,
          2.16511548e-01, 1.28583395e+00, 2.14881063e+00, 4.49848652e-01,
          4.47908211e+00, 6.48186281e-02, 1.56783104e-01, 7.45321363e-02,
          1.20036018e+00, 2.08547488e-01, 0., 2.17118666e-01,
          1.52144060e-01, 1.31838664e-03, 3.80979300e-01, 2.68505871e-01,
          3.10373604e-01, 4.93560992e-02, 2.23908257e-02, 6.96320310e-02,
          5.88264346e-01, 4.41600084e-01, 2.05662459e-01, 2.43430194e-02,
          3.21069057e-03, 3.61220390e-02, 2.22867116e-01, 0.,
          1.22606015e+00, 4.72180516e-01, 4.87334728e-02, 0.,
          3.80093038e-01, 4.70754027e-01, 1.13921069e-01, 2.20889711e+00,
          2.89979219e-01, 9.30577874e-01, 0., 6.80516839e-01,
          2.42991783e-02, 2.64791727e-01, 1.09588178e-02, 5.83411515e-01,
          1.75577588e-02, 0., 4.28221792e-01, 1.64943784e-02, 0.,
          1.60074547e-01, 3.02113354e-01, 1.91452950e-02, 4.56018239e-01,
          3.59632790e-01, 0., 1.20306358e-01, 0., 5.93955517e-02, 0.,
          7.01237842e-02, 0., 5.62397718e-01, 4.87194568e-01,
          4.07836914e-01, 3.14005107e-01, 4.66522551e+00, 0.,
          1.74045038e+00, 3.56146753e-01, 1.84002832e-01, 1.53959900e-01,
          5.82739174e-01, 4.90859836e-01, 3.83925080e-01, 4.52122502e-02,
          2.18157440e-01, 1.88101009e-01, 4.56418484e-01, 7.78941333e-01,
          1.54744625e+00, 0., 2.87103510e+00, 5.40469289e-02,
          2.27377359e-02, 5.11907995e-01, 0., 4.15622182e-02,
          1.65003896e-01, 3.24275076e-01, 0., 8.61254573e-01,
          2.23565921e-01, 6.67535305e-01, 9.55076814e-01, 0.,
          3.08126817e-03, 6.47999495e-02, 1.54649079e-01, 1.00734782e+00,
          0., 3.19483191e-01, 2.14456367e+00, 2.57578073e-03,
          3.32030088e-01, 2.26844534e-01, 0., 1.03781474e+00,
          1.62460923e-01, 0., 1.15361774e+00, 8.57606977e-02,
          2.80938268e-01, 3.31372857e+00, 3.40987533e-01, 1.02722139e+01,
          1.31530237e+00, 3.21073234e-01, 1.71272978e-01, 0.,
          8.10521245e-01, 1.60469130e-01, 1.13964751e-01, 0., 0.,
          1.15631474e-02, 2.51278818e-01, 3.94511372e-01, 1.95882931e-01,
          1.52430147e-01, 0., 5.72165966e-01, 7.95404792e-01,
          6.21522188e-01, 0., 1.01183787e-01, 0., 1.64453793e+00,
          3.91140729e-01, 0., 3.42507809e-02, 0., 2.63169289e+00,
          5.55363968e-02, 0., 4.23076190e-03, 1.64889991e-02,
          2.95144096e-02, 0., 4.79654700e-01, 3.03237498e-01,
          1.20647597e+00, 2.18693137e-01, 5.44438546e-04, 0., 0., 0., 0.,
          2.96614915e-01, 9.33253825e-01, 4.56473261e-01, 1.72488853e-01,
          0., 3.90181303e-01, 0., 2.11551905e-01, 0., 4.89424467e-01,
          7.17933336e-03, 2.19759420e-01, 0., 1.12169638e-01,
          5.56837618e-01, 9.02746767e-02, 4.09554303e-01, 3.70525196e-02,
          1.81984138e+00, 0., 3.48581821e-01, 1.40526927e+00, 0.,
          1.16176859e-01, 4.71889451e-02, 2.76679009e-01, 4.40573215e-01,
          2.23415330e-01, 0., 0., 1.68226790e-02, 3.14715147e-01,
          1.67315882e-02, 5.47519978e-03, 2.92355604e-02, 6.48456514e-01,
          0., 5.01035988e-01, 3.43247235e-01, 2.80188769e-01,
          8.19730107e-03, 9.74068999e-01, 8.82517546e-02, 1.34362352e+00,
          5.25646191e-03, 5.19516706e-01, 0., 1.01949282e-01,
          6.04801178e-02, 2.04967856e-01, 4.03054170e-02, 0.,
          5.91281176e-01, 3.70494068e-01, 1.42197192e-01, 3.59758586e-02,
          3.41423675e-02, 8.86173844e-02, 3.08296811e-02, 3.54570523e-03,
          0., 3.37850869e-01, 5.48762262e-01, 9.85303149e-02,
          2.91260421e-01, 5.92776418e-01, 7.71358088e-02, 9.72456578e-03,
          0., 1.17300940e+00, 3.92907634e-02, 1.47272491e+00,
          2.96172708e-01, 8.67437124e-02, 1.53323734e+00, 0., 0.,
          3.70828109e-03, 3.48411918e-01, 1.48758709e-01, 3.87604497e-02,
          1.30252717e-02, 7.20326006e-01, 5.66379070e-01, 2.56598473e-01,
          1.22643627e-01, 2.64267594e-01, 1.00687385e-01, 1.46380872e-01,
          1.16534987e-02, 3.20395529e-01, 1.19124996e-02, 3.22567612e-01,
          4.27999288e-01, 2.23164067e-01, 5.56372702e-02, 5.84077053e-02,
          1.87969785e-02, 6.67154863e-02, 2.49167934e-01, 4.43089902e-01,
          3.56368363e-01, 5.45798726e-02, 6.05040073e-01, 1.12985419e-02,
          5.55684328e-01, 0., 9.75808594e-03, 5.29733598e-01, 0.,
          2.19740212e-01, 6.88523194e-03, 8.46623480e-01, 3.01548749e-01,
          0., 1.80770218e+00, 5.94254780e+00, 4.39840174e+00,
          3.43436271e-01, 3.82398307e-01, 9.66603607e-02, 7.76747167e-01,
          2.60212988e-01, 1.37608573e-01, 1.98286586e-02, 9.42125916e-01,
          2.72951812e-01, 2.94623041e+00, 0., 5.96257001e-02, 0.,
          3.59730683e-02, 6.78606257e-02, 4.23681885e-02, 0.,
          2.71423645e-02, 3.73678058e-01, 0., 1.10089505e+00, 0.,
          3.37970471e+00, 1.58882037e-01, 5.05780697e-01, 6.93023086e-01,
          4.48107541e-01, 0., 2.46809459e+00, 3.18127908e-02, 0.,
          1.49776292e+00, 0., 1.68699360e+00, 0., 2.08386965e-02,
          5.71665347e-01, 0., 0., 6.43317461e-01, 9.06293809e-01,
          9.89246145e-02, 1.18912780e+00, 1.15224576e+00, 2.39404128e-03,
          5.39111942e-02, 1.68949552e-02, 3.45736086e-01, 1.28383651e-01,
          5.30660748e-02, 3.59199047e-02, 0., 4.74303514e-02,
          2.11989260e+00, 6.87382758e-01, 7.45642781e-02, 3.81969288e-02,
          0., 1.19145550e-01, 2.24995509e-01, 2.43946508e-01,
          8.19076300e-02, 0., 5.72938025e-01, 7.81886101e-01,
          7.21001551e-02, 5.18244505e-01, 5.62297881e-01, 0., 0.,
          3.33364941e-02, 2.27757767e-02, 0., 0., 1.29727614e+00,
          8.06370229e-02, 1.45850763e-01, 1.03573546e-01, 0.,
          6.90348772e-03, 2.10002586e-01, 2.36878657e+00, 8.09088126e-02,
          0., 5.12281001e-01, 1.49732223e-02, 9.51537490e-01,
          6.31343126e+00, 3.30931365e-01, 0., 0., 1.05836761e+00,
          3.26015987e-03, 1.15378469e-01, 2.59948343e-01, 1.19991851e+00,
          2.16120934e+00, 0., 2.03201607e-01, 3.85085167e-03,
          8.82890299e-02, 5.57887852e-01, 2.49283224e-01, 6.29093051e-02,
          1.98808741e-02, 3.57920617e-01, 1.66922718e-01, 1.71957374e-01,
          5.47937334e-01, 3.35455918e+00, 9.53265131e-01, 3.12095255e-01,
          6.62022054e-01, 3.97766847e-03, 2.59711742e-02, 0.,
          3.91276143e-02, 0., 6.85833573e-01, 6.03152037e-01,
          7.10327923e-01, 0., 1.86314523e-01, 0., 8.10238481e-01,
          2.07308984e+00, 8.49343061e-01, 4.07756157e-02, 5.78713751e+00,
          4.53748673e-01, 7.11048961e-01, 0., 3.99958372e-01,
          1.02334833e+00, 3.63716781e-01, 8.90073776e-02, 7.60710835e-02,
          2.05851570e-01, 2.40533397e-01, 3.24717872e-02, 4.30489071e-02,
          3.03602040e-01, 1.98566890e+00, 1.13292925e-01, 1.91980064e+00,
          2.34427080e-01, 4.82769832e-02, 4.88197118e-01, 4.52382296e-01,
          9.35082361e-02, 1.23172030e-01, 0., 0., 1.40334219e-02,
          9.27143544e-03, 3.73562090e-02, 1.39323771e+00, 0.,
          2.52605528e-01, 0., 1.81879640e+00, 0., 0., 6.97392797e+00, 0.,
          1.27499506e-01, 1.95211399e+00, 1.13046966e-01, 3.56664121e-01,
          5.36462711e-03, 8.52923393e-01, 3.29546779e-02, 1.01840552e-02,
          2.46996544e-02, 1.42074227e-01, 4.22687829e-01, 4.78888527e-02,
          2.12978601e+00, 1.73469737e-01, 9.54413414e-01, 9.64291766e-03,
          4.69892353e-01, 3.56230931e-03, 1.24023402e+00, 2.18063995e-01,
          8.85058418e-02, 3.57173048e-02, 5.04788160e-01, 4.05055992e-02,
          2.86212601e-02, 1.42532471e-03, 2.06681743e-01, 1.47516584e+00,
          1.08158231e-01, 2.70706825e-02, 0., 0., 2.42739111e-01,
          8.32503885e-02, 3.21042389e-01, 1.23875690e+00, 1.27605110e-01,
          6.31747782e-01, 4.66321796e-01, 6.63253963e-02, 4.97442447e-02,
          1.57193735e-01, 8.04569048e-04, 1.49425042e+00, 2.03842545e+00,
          4.03871775e-01, 0., 2.14481521e-02, 4.16594883e-03,
          1.94467753e-01, 0., 3.34753422e-03, 3.26142359e+00,
          7.70640597e-02, 2.98181653e-01, 4.05868366e-02, 6.85733557e-01,
          1.04548417e-01, 7.25842416e-02, 9.42699164e-02, 2.63956285e+00,
          3.20225269e-01, 3.57930362e-02, 0., 5.00405252e-01,
          5.26888788e-01, 1.77830696e-01, 3.26387346e-01, 8.78171623e-01,
          1.21903777e+00, 2.49036938e-01, 3.40538025e-01, 5.43393791e-01,
          0., 3.04750711e-01, 8.05821240e-01, 5.85531211e-03,
          4.85058755e-01, 2.47581244e+00, 1.62980640e+00, 7.00097919e-01,
          0., 1.61606651e-02, 4.24332082e-01, 4.17398810e-02,
          2.13875026e-01, 0., 2.65718013e-01, 7.09258258e-01,
          1.31711915e-01, 2.91361976e-02, 6.20151386e-02, 3.36097219e-06,
          0., 2.21325612e+00, 5.87502792e-02, 6.92731962e-02,
          6.07566535e-01, 3.42769086e-01, 4.30628955e-02, 1.28917053e-01,
          9.51541401e-03, 0., 4.45413552e-02, 5.97475469e-01,
          8.18131638e+00, 2.39632390e-02, 2.00758606e-01, 6.24265969e-02,
          8.40764165e-01, 1.68719852e+00, 2.12893933e-01, 0.,
          1.03518605e+00, 9.68923509e-01, 3.21414471e-01, 8.46500695e-02,
          8.81603658e-02, 7.17883527e-01, 0., 7.09470630e-01,
          1.12838984e+00, 2.70383656e-02, 2.23678723e-02, 4.12285239e-01,
          1.49931371e-01, 1.12216063e-01, 2.34938785e-02, 4.79106605e-02,
          4.01445508e-01, 5.73381297e-02, 3.66598144e-02, 1.64768904e-01,
          7.23672509e-01, 7.96074867e-01, 8.96747261e-02, 1.53160142e-02,
          0., 1.21681795e-01, 0., 0., 2.47046500e-02, 1.43559147e-02,
          3.94622348e-02, 0., 4.19082269e-02, 1.61927029e-01, 0.,
          1.45796847e+00, 0., 1.61619172e-01, 0., 5.23304045e-02, 0.,
          7.72338435e-02, 6.90682977e-02, 4.07922529e-02, 4.63912496e-03,
          0., 0., 4.42673732e-03, 5.33305645e-01, 6.53760135e-02,
          2.56880164e-01, 4.83175546e-01, 1.88341558e+00, 5.38008250e-02,
          1.84702516e-01, 3.22374664e-02, 2.03587079e+00, 0.,
          5.39602757e-01, 4.46783975e-02, 8.37959528e-01, 3.93519178e-02,
          1.17027916e-01, 7.94688463e-01, 3.78195316e-01, 1.68960497e-01,
          6.05841339e-01, 2.07174513e-02, 1.64944865e-02, 0.,
          6.77069128e-02, 6.82795227e-01, 5.81511371e-02, 3.51833478e-02,
          4.00492251e-01, 0., 1.12642109e+00, 2.50366420e-01,
          2.68873990e-01, 2.89156199e-01, 2.08368171e-02, 1.36201012e+00,
          8.57757986e-01, 0., 3.01097125e-01, 5.57421863e-01,
          5.40316105e-01, 0., 2.68108368e-01, 0., 2.10871190e-01, 0.,
          1.16769624e+00, 3.01646851e-02, 3.91583964e-02, 4.30621803e-02,
          4.97872569e-02, 2.92989761e-01, 5.41899353e-02, 0.,
          5.71884573e-01, 1.21079676e-01, 9.41809654e-01, 0., 0.,
          8.01559091e-02, 5.23504689e-02, 2.71565467e-01, 3.33156697e-02,
          4.29803878e-01, 2.00324748e-02, 1.25203943e+00, 2.00945407e-01,
          5.92181683e-01, 9.74932015e-02, 0., 4.59052265e-01, 0.,
          2.83629388e-01, 0., 2.67242581e-01, 3.44301343e-01,
          1.07319191e-01, 1.02591801e+00, 9.36028063e-02, 0.,
          3.96142215e-01, 4.82456833e-01, 2.87483372e-02, 1.69970185e-01,
          2.31160432e-01, 8.10824260e-02, 9.12882388e-03, 2.72367209e-01,
          0., 4.93318066e-02, 8.42172876e-02, 0., 1.76326603e-01,
          2.95505263e-02, 1.07064344e-01, 9.42350999e-02, 1.19328171e-01,
          7.89271235e-01, 3.52584988e-01, 5.54012805e-02, 2.64067590e-01,
          4.66824770e-01, 4.39644940e-02, 6.98733568e-01, 0., 0.,
          1.18460941e+00, 0., 1.92606747e+00, 2.39170287e-02, 0.,
          1.44989099e-02, 4.40518856e-02, 7.61413991e-01, 1.31502703e-01,
          2.40184944e-02, 8.65809202e-01, 5.42555332e-01, 7.82839656e-02,
          2.74727531e-02, 2.99303085e-01, 3.48268718e-01, 2.76742518e-01,
          1.39388061e+00, 1.26120359e-01, 1.62955627e-01, 6.97778821e-01,
          1.72684282e-01, 4.63382512e-01, 2.26580855e-02, 0.,
          8.51030871e-02, 7.16487706e-01, 4.27289642e-02, 0.,
          5.16359806e-02, 0., 1.12384781e-02, 7.95517147e-01,
          6.13784976e-02, 1.65636629e-01, 0., 1.29482582e-01,
          2.77761251e-01, 1.33734852e-01, 1.06614105e-01, 2.92052537e-01,
          1.97978511e-01, 5.55977762e-01, 2.89327532e-01, 5.78290462e-01,
          3.02114077e-02, 4.53239642e-02, 1.16250411e-01, 1.79568395e-01,
          7.19679832e-01, 5.88615894e-01, 7.64040291e-01, 1.77854806e-01,
          1.54937491e-01, 1.89356104e-01, 0., 2.15378683e-02,
          2.27156784e-02, 7.28604733e-04, 5.44005930e-01, 2.06101723e-02,
          0., 1.02399194e+00, 2.31484734e-02, 6.04970455e+00,
          1.01294897e-01, 3.66297849e-02, 1.79785502e+00, 1.50876069e+00,
          2.15712227e-02, 0., 3.45578885e+00, 0., 8.30305040e-01, 0.,
          9.56375837e-01, 1.51192832e+00, 3.34307611e-01, 1.06309950e-01,
          6.11164533e-02, 0., 0., 0., 2.95596629e-01, 8.83636379e+00,
          5.88352308e-02, 2.42901996e-01, 0., 8.64852965e-02,
          2.53930122e-01, 5.18579185e-01, 1.86382681e-01, 3.14004332e-01,
          8.02952889e-03, 2.92650089e-02, 2.37834975e-01, 7.07399368e+00,
          0., 8.20016265e-02, 1.03947237e-01, 0., 3.20956409e-02, 0.,
          2.35335842e-01, 6.79581165e-01, 0., 9.02372003e-01,
          6.73510671e-01, 7.09624469e-01, 2.61304438e-01, 0., 0., 0.,
          6.89307228e-02, 3.59123573e-02, 1.50907278e+00, 2.89150625e-02,
          7.58881629e-01, 1.52651727e-01, 1.68017950e-02, 1.24334298e-01,
          4.39960837e-01, 4.08699475e-02, 7.05009043e-01, 1.14211404e+00,
          2.80276918e+00, 1.31490594e-02, 7.43557394e-01, 0.,
          8.01924109e-01, 1.17588777e-03, 1.23585093e+00, 5.06252702e-03,
          4.43756431e-02, 1.46943986e-01, 2.10234404e-01, 0.,
          2.64845472e-02, 3.31621140e-01, 5.52478433e-02, 1.03333259e+00,
          1.01089442e+00, 0., 8.85176137e-02, 3.30930650e-02,
          4.40158658e-02, 7.63378367e-02, 8.61051500e-01, 1.41510278e-01,
          8.42081308e-02, 1.89268608e-02, 3.30491550e-02, 2.27347469e+00,
          9.04467143e-03, 9.15479288e-02, 5.71162552e-02, 7.80161528e-04,
          2.20375106e-01, 5.23318071e-03, 1.50543386e-02, 1.64162572e-02,
          5.24488747e-01, 6.61007827e-03, 7.45342433e-01, 0., 0.,
          4.67944033e-02, 0., 5.17722964e-01, 3.03270873e-02, 0.,
          6.02097332e-01, 3.37812454e-01, 1.84419143e+00, 0., 0.,
          3.22228670e-01, 6.71279430e-01, 4.64566916e-01, 6.30777469e-03,
          4.81719598e-02, 4.85279933e-02, 3.92576337e-01, 3.55182618e-01,
          6.27911329e-01, 9.47812080e-01, 6.05795495e-02, 1.01881921e-01,
          0., 9.64456871e-02, 2.21221137e+00, 0., 0., 0., 1.57047427e+00,
          6.67038500e-01, 1.28564630e-02, 9.04480517e-02, 4.15852480e-03,
          8.47772360e-02, 6.22863948e-01, 1.88019201e-02, 8.07464600e+00,
          1.21545970e+00, 4.80864942e-01, 3.05103034e-01, 0.,
          7.65485913e-02, 4.14456457e-01, 0., 0., 0., 0., 8.78053010e-02,
          2.04164624e+00, 3.39439925e-04, 2.10328293e+00, 2.85150319e-01,
          8.05359781e-02, 3.72089505e-01, 1.40188297e-03, 0.,
          6.06976032e-01, 0., 2.96648979e-01, 3.59415203e-01,
          1.69813657e+00, 0., 0., 7.00850964e-01, 1.80838928e-02,
          1.07027963e-02, 4.96823072e-01, 1.47761539e-01, 2.87524629e+00,
          3.17396402e-01, 1.66159463e+00, 1.51414955e+00, 2.54123378e+00,
          0., 0., 1.06620984e-02, 1.11020811e-01, 1.11299409e-02,
          2.62993872e-02, 8.44055787e-02, 4.04290855e-01, 6.52193487e-01,
          9.72798988e-02, 0., 6.77939504e-02, 3.66718829e-01,
          5.38264036e-01, 5.74114561e-01, 5.67333363e-02, 0.,
          1.84587866e-01, 1.21240936e-01, 0., 1.01441741e-02,
          1.12242496e+00, 4.94660065e-02, 1.38887195e-02, 1.91974208e-01,
          0., 1.58009434e+00, 3.79436344e-01, 5.22688448e-01,
          1.62081826e+00, 2.52515376e-01, 8.61178935e-02, 2.50724316e-01,
          1.42602205e-01, 2.96564642e-02, 2.17428990e-03, 3.24754059e-01,
          5.24762347e-02, 1.45236552e-01, 2.73798406e-01, 0.,
          5.67213118e-01, 6.21937066e-02, 2.93519646e-01, 7.88567305e-01,
          5.86741388e-01, 2.50336621e-02, 3.47599238e-01, 2.38704515e+00,
          1.72502115e-01, 1.26182791e-02, 2.39636421e-01, 3.21792912e+00,
          4.34177428e-01, 4.25767414e-02, 9.32962447e-02, 8.77383575e-02,
          0., 0., 0., 9.01043788e-02, 5.04993908e-02, 6.40801620e-03,
          2.01014746e-02, 1.00847173e+00, 2.86645293e-01, 1.44190836e+00,
          6.95607722e-01, 1.10944562e-01, 1.17906943e-01, 3.69308591e-02,
          4.94178496e-02, 6.62074517e-03, 4.30227250e-01, 7.45535567e-02,
          1.00876436e-01, 4.30804789e-01, 5.58038533e-01, 0., 0., 0.,
          6.59846842e-01, 2.35522509e-01, 9.85846594e-02, 2.07838550e-01,
          4.14289273e-02, 9.43034530e-01, 0., 0., 3.14795710e-02,
          6.29488051e-01, 3.73013794e-01, 3.45566273e-01, 7.26171806e-02,
          2.00168222e-01, 0., 2.09819470e-02, 0., 6.19029582e-01, 0.,
          1.45296706e-02, 1.57909349e-01, 1.79017052e-01, 1.80087924e-01,
          5.44839650e-02, 3.85614596e-02, 0., 0., 0., 6.19343162e-01, 0.,
          0., 8.71369898e-01, 5.35578728e-01, 6.47415829e+00,
          4.74741071e-01, 1.17517911e-01, 0., 4.26291019e-01,
          3.56282145e-01, 4.22256559e-01, 2.56887227e-01, 0.,
          3.77107590e-01, 1.24760640e+00, 1.09794433e-03, 3.77426773e-01,
          6.86037183e-01, 2.47736946e-01, 1.21048205e-01, 6.46019205e-02,
          3.55276689e-02, 5.35713911e-01, 6.19226456e-01, 6.94507062e-01,
          1.78813279e+00, 9.06766020e-03, 4.87705469e-01, 2.57722282e+00,
          2.00187135e-02, 1.46564975e-01, 0., 9.42521766e-02, 0.,
          9.53992665e-01, 1.03689425e-01, 0., 2.26496488e-01, 0.,
          2.66728997e+00, 3.44511010e-02, 2.04108313e-01, 7.92010725e-02,
          6.13928080e+00, 1.26938593e+00, 9.71275139e+00, 0.,
          7.36261547e-01, 6.00007355e-01, 4.57970589e-01, 1.06146264e+00,
          0., 7.70964622e-02, 1.17216833e-01, 1.23786218e-02, 0.,
          4.46088463e-02, 0., 3.60136509e-01, 6.94462433e-02,
          8.63848999e-02, 1.42838085e+00, 1.66682065e-01, 4.68242802e-02,
          2.66103502e-02, 9.05146122e-01, 7.48728728e-03, 7.26705432e-01,
          1.83430493e-01, 0., 0., 0., 1.16818324e-02, 8.95242766e-03,
          2.34491944e-01, 6.58535063e-02, 3.02330106e-01, 7.34834254e-01,
          2.39616747e-05, 1.56224649e-02, 0., 0., 9.05999392e-02,
          1.48188341e-02, 5.39482273e-02, 1.39662437e-02, 0.,
          4.68003064e-01, 1.15967263e-02, 0., 1.00997165e-01,
          2.73410261e-01, 2.94704646e-01, 0., 1.71338562e-02,
          4.26112860e-01, 1.76685140e-01, 9.78583321e-02, 6.91237092e-01,
          3.16886604e-03, 0., 1.56616509e+00, 6.21773422e-01,
          1.98824301e-01, 1.62739170e+00, 0., 3.31533432e-01,
          6.97499096e-01, 3.68909985e-01, 1.10429756e-01, 1.41665312e-02,
          8.06543045e-03, 3.59180989e-03, 8.21030259e-01, 1.44699514e-01,
          5.28764874e-02, 3.76006097e-01, 1.31291044e+00, 3.64611417e-01,
          5.64774334e-01, 1.77193806e-02, 6.14551485e-01, 0.,
          1.90828279e-01, 0., 2.62290500e-02, 0., 8.95164907e-02,
          1.06767550e-01, 6.92031860e-01, 4.05086726e-01, 0.,
          5.00904620e-01, 3.08261395e-01, 7.83206299e-02, 3.56723040e-01,
          1.15529191e+00, 2.07057381e+00, 4.04297543e+00, 1.08527541e+00,
          1.26337409e-01, 0., 2.81193525e-01, 1.58532798e-01,
          5.46054721e-01, 6.12984896e-01, 4.96304221e-02, 1.71547420e-02,
          3.05633068e+00, 0., 2.69458055e-01, 4.65845317e-03,
          1.14198662e-01, 3.09172511e-01, 4.17365372e-01, 2.24529430e-02,
          2.53673404e-01, 4.99098361e-01, 5.71187198e-01, 0., 0.,
          5.56061929e-03, 1.78979471e-01, 0., 6.80767447e-02,
          6.44130766e-01, 2.23106694e+00, 1.91234097e-01, 2.33343053e+00,
          1.88849233e-02, 6.01869881e-01, 0., 9.56447795e-03,
          4.16893625e+00, 1.12798369e+00, 1.73145145e-01, 1.28509223e+00,
          4.28706370e-02, 2.47944260e+00, 2.86369026e-01, 1.60032451e-01,
          2.87791312e-01, 2.90395878e-02, 8.68018270e-02, 1.88639939e-01,
          6.36158651e-03, 0., 1.35428250e-01, 3.34670365e-01, 0.,
          1.70837390e+00, 2.93099694e-02, 7.95504749e-01, 0.,
          7.19512999e-02, 0., 0., 9.93289351e-01, 4.81646389e-01, 0.,
          5.87344944e-01, 2.52679288e-01, 2.10757971e-01, 4.54318486e-02,
          5.04581749e-01, 5.26148491e-02, 1.47672892e-02, 2.32266903e+00,
          1.78490169e-02, 2.25072935e-01, 0., 2.59735489e+00,
          9.64455009e-02, 4.88904208e-01, 2.87109613e+00, 0.,
          8.81635666e+00, 1.88588314e-02, 1.23047575e-01, 4.53637308e-03,
          6.27700090e-02, 3.83728519e-02, 2.12970421e-01, 2.27951212e-03,
          0., 1.46659225e-01, 1.05964601e+00, 1.80404231e-01,
          2.94886261e-01, 1.45566268e-02, 1.90833993e-02, 0.,
          2.64802307e-01, 3.92577618e-01, 4.87096682e-02, 1.69387944e-02,
          5.95373392e-01, 1.07267974e-02, 0., 1.56681567e-01, 0.,
          2.57719100e-01, 8.28715503e-01, 2.55285716e-03, 8.36091161e-01,
          2.69782871e-01, 0., 1.63306415e-01, 1.22753410e-02,
          8.97232354e-01, 2.12744221e-01, 1.00418970e-01, 5.26999116e-01,
          3.09934109e-01, 2.59994197e+00, 3.86892557e-01, 7.50462562e-02,
          9.70044792e-01, 3.89164639e+00, 2.65121841e+00, 0.,
          2.11753836e-03, 1.59590587e-03, 5.77888668e-01, 1.93275407e-01,
          0., 4.37152088e-02, 7.23749757e-01, 3.15544724e-01, 0., 0.,
          1.26939583e+00, 2.17685723e+00, 7.85815120e-01, 9.98934507e-02,
          6.40820265e-02, 6.90631330e-01, 2.21714482e-01, 0.,
          6.91604859e-04, 1.43920052e+00, 2.14971229e-02, 8.95776331e-01,
          5.69830239e-01, 2.16429159e-01, 9.66042340e-01, 4.33323771e-01,
          2.83811480e-01, 0., 4.10492539e-01, 1.98168345e-02,
          3.07642907e-01, 3.75882506e-01, 1.67003787e+00, 3.57653666e-03,
          1.12738766e-01, 7.56226659e-01, 9.05102789e-01, 7.74351954e-01,
          5.33043504e-01, 1.45506570e-02, 1.05210268e+00, 2.00898543e-01,
          1.86762154e+00, 2.11871445e-01, 0., 5.23492157e-01,
          8.00543502e-02, 1.29497290e-01, 3.55524987e-01, 3.25253546e-01,
          0., 2.04249576e-01, 2.91990992e-02, 2.26036921e-01,
          1.37140942e+00, 0., 0., 8.03002995e-03, 4.36783969e-01,
          3.30460250e-01, 5.62488437e-01, 2.51307100e-01, 1.77228606e+00,
          5.68828396e-02, 0., 0., 0., 5.16045213e-01, 0., 2.65899301e-01,
          1.30140543e-01, 2.63422430e-01, 3.57002616e-01, 8.42469811e-01,
          9.66925919e-02, 1.72330305e-01, 1.83321501e-03, 3.71120214e-01,
          0., 4.78958726e-01, 2.90206410e-02, 8.77376795e-01,
          8.03986645e+00, 8.94611999e-02, 1.20762087e-01, 2.99587220e-01,
          1.09028891e-01, 6.89956322e-02, 2.04696730e-02, 9.22354460e-02,
          0., 3.37131232e-01, 1.17715108e+00, 0., 2.63441093e-02,
          1.36037052e-01, 6.43323720e-01, 0., 5.66327712e-03,
          1.92891777e-01, 2.00627699e-01, 6.60775155e-02, 2.31710207e-02,
          9.40361060e-03, 2.48903200e-01, 1.89903760e+00, 8.89886729e-03,
          1.71448052e+00, 0., 1.03899471e-01, 2.40176439e+00,
          2.84471929e-01, 0., 5.43996738e-03, 2.44941022e-02,
          2.57506222e-01, 1.03717726e-02, 7.53028169e-02, 0.,
          8.75386223e-02, 2.34365910e-01, 1.51628526e-02, 2.13755877e-03,
          5.28399013e-02, 1.74636200e-01, 1.27569258e+00, 9.72171966e-03,
          1.36352703e-01, 0., 0., 1.61174878e-01, 0., 8.33279848e-01,
          2.26419523e-01, 0., 3.52838635e-01, 1.30601451e-01,
          5.08055210e-01, 7.50869989e-01, 1.22061455e+00, 1.41573735e-02,
          8.33710015e-01, 1.36109563e-02, 6.62331656e-03, 2.07725633e-02,
          1.93063211e+00, 1.89962506e+00, 7.90653944e-01, 0., 0.,
          8.76266241e-01, 3.73924710e-02, 9.06462148e-02, 6.09596074e-02,
          5.16903341e-01, 0., 7.23503411e-01, 1.52175322e-01, 0.,
          7.41945952e-03, 1.84999239e-02, 5.52074751e-03, 7.79799223e-02,
          3.13805431e-01, 5.08434832e-01, 1.15036136e-02, 0.,
          3.83972675e-02, 0., 0., 4.50116917e-02, 3.83793302e-02,
          3.66768509e-01, 4.48292196e-02, 2.52542853e-01, 4.43837404e-01,
          1.95577002e+00, 5.82841992e-01, 2.43350911e+00, 0.,
          3.34875360e-02, 6.27631664e-01, 5.91756403e-01, 6.38870478e-01,
          3.53689096e-03, 4.62071121e-01, 1.17021874e-01, 3.21853012e-02,
          4.07962166e-02, 8.75380933e-02, 0., 2.35257447e-01, 0.,
          5.80507994e-01, 2.86026883e+00, 5.32656193e-01, 2.87643909e-01,
          1.20220864e+00, 2.69015288e+00, 3.89882289e-02, 2.34846741e-01,
          1.69131383e-02, 0., 1.19935058e-01, 0., 1.14126779e-01, 0., 0.,
          4.53903407e-01, 8.05655047e-02, 5.20097278e-02, 1.60607445e+00,
          8.63680169e-02, 9.99960974e-02, 1.29358470e-01, 2.40734946e-02,
          0., 8.52970660e-01, 0., 8.61880064e-01, 1.03798914e+00,
          7.06868758e-03, 6.00544333e-01, 5.54894686e-01, 1.79153875e-01,
          2.57099550e-02, 0., 2.10799742e+00, 1.37157030e-02,
          3.97348106e-01, 3.50910068e-01, 1.52760502e-02, 0.,
          3.91957253e-01, 2.87556112e-01, 1.24634556e-01, 3.39955324e-03,
          2.98931658e-01, 3.13175941e+00, 5.54943345e-02, 6.22377209e-02,
          0., 7.23873734e-01, 0., 4.61887330e-01, 8.29543531e-01,
          1.57689047e+00, 2.24120952e-02, 3.36805470e-02, 0., 0.,
          1.20619901e-01, 9.75799370e+00, 0., 6.32900000e-02,
          9.30699520e-03, 3.33419108e+00, 0., 7.02951625e-02,
          2.75833845e-01, 1.31153929e+00, 5.14000416e+00, 1.59406085e-02,
          0., 6.67558089e-02, 2.92560719e-02, 4.55646217e-02,
          4.29942161e-02, 0., 0., 4.08692174e-02, 7.27739260e-02,
          4.63969260e-01, 6.80853248e-01, 0., 3.41865569e-02,
          7.40343407e-02, 1.84962936e-02, 2.52579665e+00, 4.15038094e-02,
          1.14825654e+00, 3.43840778e-01, 7.37146556e-01, 5.20011559e-02,
          2.23361015e-01, 3.78230810e-01, 0., 6.56137526e-01,
          3.35465968e-02, 3.24535102e-01, 0., 1.59941435e-01, 0.,
          3.02598119e-01, 0., 9.06892121e-02, 1.81702936e+00,
          3.61581962e-03, 3.56451683e-02, 8.34672898e-02, 6.63667977e-01,
          2.26738989e-01, 1.50331154e-01, 1.12688653e-02, 1.89595377e+00,
          7.25811347e-03, 7.10495472e-01, 1.84757426e-01, 2.52766311e-01,
          1.30727395e-01, 2.55366862e-02, 1.46276876e-02, 3.25931869e-02,
          0., 1.47140980e+00, 6.82957113e-01, 9.40291137e-02,
          1.24779418e-01, 5.75248659e-01, 2.28843093e-01, 5.84720783e-02,
          6.27540886e-01, 3.57665010e-02, 3.26845832e-02, 9.37310457e-01,
          1.38997364e+00 ]
      - [ 7.30689943e-01, 3.30869287e-01, 1.20131874e+00, 0.,
          1.40695602e-01, 2.89137870e-01, 1.21564782e+00, 9.26767290e-02,
          6.88121915e-02, 1.05216897e+00, 1.52973741e-01, 0., 0.,
          1.57082283e+00, 9.29253083e-03, 4.88638341e-01, 1.15344904e-01,
          4.67583463e-02, 1.82299823e-01, 1.08310424e-01, 2.23362893e-02,
          7.31160566e-02, 8.40204582e-02, 4.15084094e-01, 9.89358313e-03,
          4.65149209e-02, 3.72209817e-01, 1.12429246e-01, 7.66334832e-02,
          1.85184693e+00, 2.44313404e-02, 1.61443651e-01, 0., 0.,
          5.17055094e-01, 1.55621433e+00, 1.20887458e+00, 6.04260974e-02,
          4.03491259e-01, 4.85839657e-02, 0., 3.00913900e-01,
          1.62030911e+00, 0., 3.63484234e-01, 6.71802044e-01,
          3.04818302e-02, 2.10816339e-01, 8.83182287e-02, 0.,
          8.87703430e-03, 6.32456169e-02, 6.29697507e-03, 2.64259487e-01,
          6.42606765e-02, 5.13145268e-01, 4.68359113e-01, 6.69607460e-01,
          4.47343998e-02, 2.14563310e-01, 3.06186099e-02, 0.,
          4.62982833e-01, 4.68591571e-01, 0., 4.61352915e-01,
          7.85694718e-02, 1.07490055e-01, 6.96584582e-02, 1.75116599e-01,
          2.48891532e-01, 1.38364404e-01, 9.25924350e-03, 2.01616809e-01,
          4.66855645e-01, 0., 2.77490035e-05, 0., 6.75932989e-02,
          4.52795401e-02, 3.59003872e-01, 3.41173172e-01, 9.20639560e-02,
          1.30999231e+00, 6.73675537e-01, 1.26463380e-02, 1.84963405e-01,
          0., 3.46387140e-02, 4.95892048e-01, 9.11686242e-01,
          2.19855618e+00, 1.56963602e-01, 3.58171426e-02, 1.69309787e-03,
          2.61478901e-01, 4.58457649e-01, 0., 8.50473702e-01,
          7.54296362e-01, 2.91290253e-01, 1.72356352e-01, 1.22861508e-02,
          3.64470392e-01, 2.88965762e-01, 0., 5.42683840e-01,
          2.43000790e-01, 3.50285679e-01, 1.41501379e+00, 5.69603741e-01,
          2.51395464e-01, 1.10330775e-01, 1.46382414e-02, 7.34073818e-01,
          2.76187897e-01, 1.68428972e-01, 1.26292035e-01, 2.86619425e-01,
          1.64805040e-01, 1.17710857e-02, 4.15794253e-02, 2.04635754e-01,
          8.29502661e-03, 7.74516523e-01, 1.16583277e-02, 2.40833610e-01,
          1.97082758e-01, 3.67150903e-02, 0., 2.43746936e-01,
          2.31283084e-01, 0., 4.15647119e-01, 8.08051825e-02,
          2.52433687e-01, 2.35555634e-01, 8.00383687e-02, 4.44943786e-01,
          1.07605077e-01, 4.86416340e-01, 0., 1.58370081e-02,
          4.66990285e-02, 5.35090128e-03, 1.53614923e-01, 2.25075454e-01,
          1.54889733e-01, 5.57721332e-02, 1.69788980e+00, 1.19082198e-01,
          1.80618912e-01, 5.18579856e-02, 2.38169461e-01, 6.90234900e-02,
          1.33624271e-01, 0., 1.48399591e+00, 1.09356433e-01,
          3.85255158e-01, 5.66877574e-02, 6.63196817e-02, 2.79881984e-01,
          7.43504763e-02, 2.27680326e+00, 0., 3.49858850e-01,
          8.35609064e-02, 1.69966239e-02, 8.85319412e-02, 3.42223763e-01,
          0., 1.39695719e-01, 0., 6.79237917e-02, 7.30872303e-02,
          2.74987947e-02, 7.56338954e-01, 4.10064720e-02, 1.49416149e+00,
          0., 3.74263525e-01, 1.23784341e-01, 0., 8.27329308e-02,
          1.37354225e-01, 1.18215144e+00, 7.99957871e-01, 2.53121313e-02,
          2.38932014e+00, 0., 1.69466790e-02, 0., 4.19296557e-03, 0.,
          8.48847628e-01, 1.61974177e-01, 5.03249049e-01, 1.65875852e+00,
          4.13502157e-01, 1.81428954e-01, 2.67365336e+00, 1.58363283e-02,
          2.66741014e+00, 0., 4.75676823e+00, 0., 1.40999749e-01,
          5.20185009e-02, 4.06818271e-01, 8.93630981e-01, 3.59884351e-02,
          4.45614958e+00, 2.61490226e-01, 0., 4.12966460e-02,
          3.12960669e-02, 1.79772705e-01, 8.16213667e-01, 3.12688857e-01,
          1.37598798e-01, 2.44589344e-01, 2.10509062e+00, 3.21353786e-02,
          3.23734760e-01, 1.15888047e+00, 2.08391115e-01, 3.12044978e-01,
          3.46876413e-01, 1.89517543e-01, 5.07708073e-01, 7.63528869e-02,
          3.84033471e-01, 2.21037403e-01, 1.12767657e-02, 1.01291788e+00,
          2.61104498e-02, 6.20202243e-01, 6.94003463e-01, 7.33456075e-01,
          0., 2.64366362e-02, 0., 1.43928360e-02, 0., 1.81382966e+00,
          3.17805827e-01, 1.24840327e-01, 4.04942542e-01, 5.80160469e-02,
          0., 4.62955311e-02, 1.27100348e-01, 2.51196891e-01,
          1.30738378e-01, 3.56213711e-02, 3.72448832e-01, 1.38417795e-01,
          2.73771077e-01, 4.52222466e-01, 0., 1.92903653e-01,
          7.39900544e-02, 8.71875510e-02, 3.65806557e-02, 0., 0., 0.,
          2.87550598e-01, 2.80147016e-01, 4.53773308e+00, 0., 0.,
          4.82681656e+00, 4.14691877e+00, 5.32174051e-01, 1.12286031e+00,
          2.18508877e-02, 2.87791491e-01, 1.90563843e-01, 2.03228116e-01,
          4.64797616e-01, 2.13932365e-01, 1.25587478e-01, 1.44925043e-01,
          2.22373694e-01, 1.92987338e-01, 6.88356876e-01, 3.74111980e-01,
          1.61584854e-01, 3.66951600e-02, 0., 2.54090846e-01,
          4.74578977e-01, 8.13082981e+00, 1.78344414e-01, 9.58987251e-02,
          1.11863114e-01, 1.00232017e+00, 1.30706191e+00, 0.,
          1.20499514e-01, 2.63514936e-01, 3.51587497e-02, 0.,
          3.53390932e-01, 4.34779704e-01, 2.88966775e-01, 1.65334523e+00,
          2.84345955e-01, 9.24590454e-02, 6.71612695e-02, 0.,
          2.59353971e+00, 7.02770174e-01, 1.18085957e+00, 3.65983665e-01,
          0., 0., 8.57034773e-02, 2.03993855e-04, 6.31942749e-02,
          8.12908076e-03, 2.14718834e-01, 0., 6.56939149e-01,
          3.54918063e-01, 1.02477483e-01, 4.41817231e-02, 1.43606812e-01,
          8.83674920e-01, 1.68087810e-01, 5.05920574e-02, 1.37294278e-01,
          2.41788011e-02, 0., 1.01886138e-01, 1.21631827e-02, 0.,
          1.08525082e-01, 0., 0., 5.27481269e-03, 5.09960651e-01,
          1.43589616e-01, 9.29320082e-02, 6.74399287e-02, 3.12628180e-01,
          3.62979978e-01, 2.74656296e+00, 3.56688547e+00, 3.07062238e-01,
          3.18904877e-01, 6.20708287e-01, 0., 2.62369543e-01,
          4.07682583e-02, 3.49365212e-02, 3.20402414e-01, 0.,
          5.37709519e-02, 4.67761368e-01, 6.09224260e-01, 1.43229568e+00,
          9.16581042e-03, 1.53696295e-02, 7.15989992e-02, 6.10382259e-01,
          0., 4.17659163e-01, 1.52176106e-02, 1.30150393e-01,
          9.40210372e-02, 1.04716885e+00, 6.63685575e-02, 0.,
          6.24284935e+00, 2.20859036e-01, 0., 1.51563212e-01,
          3.50648351e-02, 2.67837107e-01, 6.04431261e-04, 1.40851676e+00,
          1.18695922e-01, 6.42588213e-02, 8.21894109e-01, 0.,
          1.08254862e+00, 7.82039203e-03, 7.36105084e-01, 0., 0.,
          2.46653403e-03, 8.57768357e-02, 1.49536565e-01, 6.49159253e-01,
          1.27746433e-01, 0., 1.02949431e-02, 0., 4.72475402e-02,
          6.05471075e-01, 7.81706423e-02, 2.34388784e-01, 2.66192645e-01,
          1.18632615e-01, 2.38482654e-01, 1.35509694e+00, 1.16733766e+00,
          5.74688673e-01, 3.06794167e+00, 0., 5.09344220e-01,
          6.12150878e-02, 1.85820377e+00, 2.92576641e-01, 3.72342467e-02,
          4.08554167e-01, 6.71970993e-02, 0., 5.11188209e-01,
          7.82022253e-02, 4.15559679e-01, 8.60758219e-03, 2.93780249e-02,
          4.71924841e-02, 4.19441462e-01, 1.34210261e-02, 2.53339618e-01,
          1.42363399e-01, 5.19257970e-02, 2.24137474e-02, 3.07084292e-01,
          1.15880296e-02, 1.51512146e+00, 2.59156704e-01, 1.44541666e-01,
          0., 3.66559833e-01, 1.05321661e-01, 6.28488138e-02,
          3.00160456e+00, 3.72336656e-02, 1.29339814e+00, 0.,
          8.07034314e-01, 1.82533920e-01, 1.46854699e-01, 5.96917793e-02,
          8.20320904e-01, 2.80386377e-02, 0., 5.69963813e-01,
          1.81228459e-01, 0., 4.16090526e-02, 7.25075603e-01, 0.,
          4.37198371e-01, 2.78329343e-01, 0., 3.46605815e-02, 0.,
          4.73897066e-03, 6.35098740e-02, 0., 5.71912713e-02,
          7.51623750e-01, 1.17111757e-01, 2.09386334e-01, 2.62523025e-01,
          5.71222401e+00, 1.27500638e-01, 1.84188962e+00, 1.21871598e-01,
          3.25379744e-02, 1.43780500e-01, 8.78474653e-01, 9.19512194e-03,
          9.12834480e-02, 0., 3.09599996e-01, 7.75466338e-02,
          3.63597602e-01, 6.55412197e-01, 2.01456714e+00, 2.24387879e-03,
          2.23370433e+00, 3.23244743e-03, 2.33265292e-02, 1.17937408e-01,
          2.26252750e-01, 3.63510810e-02, 1.88231971e-02, 2.00546280e-01,
          2.32796045e-03, 9.41121638e-01, 2.58900244e-02, 6.46685064e-01,
          8.13964367e-01, 2.49426048e-02, 7.32856691e-02, 3.14127952e-01,
          4.97023128e-02, 1.45914507e+00, 0., 6.86032549e-02,
          1.71253932e+00, 1.29951805e-01, 1.84325457e-01, 3.07064831e-01,
          1.85507208e-01, 6.34014606e-01, 2.44852871e-01, 2.21554772e-03,
          1.35148013e+00, 1.71354394e-02, 3.39476496e-01, 3.44849324e+00,
          5.86498737e-01, 1.20065546e+01, 1.56833935e+00, 5.14602423e-01,
          1.13377787e-01, 0., 3.61605078e-01, 0., 2.24815998e-02, 0.,
          1.12313725e-01, 4.30206861e-03, 3.73441041e-01, 1.06941029e-01,
          6.07939661e-02, 1.38805434e-01, 2.80239396e-02, 6.37785137e-01,
          6.80818498e-01, 8.64860356e-01, 0., 1.61010593e-01, 0.,
          1.48224628e+00, 4.06384379e-01, 0., 2.52212472e-02, 0.,
          3.58627224e+00, 3.75786312e-02, 5.97008020e-02, 7.09298439e-03,
          1.01945087e-01, 4.68932604e-03, 0., 2.18453810e-01,
          5.46052098e-01, 3.96951824e-01, 4.06628191e-01, 0.,
          5.85545087e-03, 0., 0., 0., 6.95331469e-02, 8.87161791e-01,
          6.72361553e-01, 2.01805517e-01, 1.46990987e-02, 2.88441271e-01,
          2.20860168e-01, 2.28490634e-03, 9.59206969e-02, 4.36645657e-01,
          3.03697884e-02, 7.52644837e-02, 9.73328762e-03, 3.08265239e-02,
          4.15293515e-01, 1.61201641e-01, 2.90406942e-01, 0.,
          2.66747046e+00, 7.14454707e-03, 3.81450683e-01, 1.10797942e+00,
          0., 2.65632689e-01, 8.57797414e-02, 1.20591551e-01,
          1.98264018e-01, 1.58089414e-01, 4.38069813e-02, 7.88583793e-03,
          2.55562544e-01, 1.32334697e+00, 0., 0., 1.27259493e-01,
          7.70518243e-01, 0., 6.25393748e-01, 5.46146214e-01,
          4.42838162e-01, 3.66216227e-02, 5.86021841e-01, 3.07239704e-02,
          4.80436742e-01, 3.59206021e-01, 6.15713835e-01, 3.99907259e-03,
          2.00904414e-01, 5.05901933e-01, 3.07253093e-01, 1.19481049e-01,
          6.16492063e-04, 1.66855440e-01, 3.64371091e-01, 6.30922243e-02,
          1.20336851e-02, 3.59987915e-02, 0., 4.22950921e-04,
          1.89123489e-02, 0., 3.99751246e-01, 1.41305059e-01,
          5.54794595e-02, 3.20900157e-02, 7.22814918e-01, 1.54237263e-02,
          5.12869470e-02, 1.18338335e-02, 1.51224601e+00, 0.,
          2.04443789e+00, 2.75559872e-01, 1.32318541e-01, 8.41519177e-01,
          3.32349055e-02, 4.43442985e-02, 2.48162411e-02, 1.63556248e-01,
          1.25821188e-01, 0., 2.86143459e-02, 5.33968568e-01,
          2.37431020e-01, 2.31878087e-01, 1.67326093e-01, 1.27286947e+00,
          6.54532313e-02, 1.86686948e-01, 2.52084597e-03, 3.29998404e-01,
          0., 5.51900446e-01, 6.22933842e-02, 1.50150374e-01,
          6.52793646e-02, 3.64218056e-01, 0., 3.01819623e-01,
          1.79358736e-01, 3.70742500e-01, 9.73131776e-01, 9.26514808e-03,
          7.83837676e-01, 9.21827275e-03, 4.39698249e-01, 7.11245183e-03,
          4.01267894e-02, 4.25341934e-01, 0., 1.65642798e-02,
          4.73036095e-02, 1.32820165e+00, 1.82615176e-01, 6.64859787e-02,
          1.59215248e+00, 6.58366728e+00, 3.11984229e+00, 4.00633276e-01,
          1.39189452e-01, 1.09619237e-01, 1.31776595e+00, 7.62262717e-02,
          2.67275810e-01, 6.12945668e-02, 1.66464019e+00, 3.77445996e-01,
          3.58068132e+00, 0., 8.06012526e-02, 0., 0., 1.37721643e-01,
          2.64446083e-02, 2.45589633e-02, 3.73501889e-02, 1.49950922e-01,
          1.10795468e-01, 1.03981411e+00, 1.66354864e-03, 2.98308921e+00,
          2.62032330e-01, 4.41871434e-01, 1.33555770e+00, 4.08692807e-01,
          0., 2.48506784e+00, 1.69575170e-01, 0., 9.31762218e-01, 0.,
          9.26970124e-01, 0., 0., 3.00676376e-01, 0., 0., 7.45355785e-01,
          5.41144490e-01, 3.17953408e-01, 8.53286147e-01, 1.49339557e+00,
          0., 6.33170679e-02, 5.91921322e-02, 2.31962904e-01,
          2.45256022e-01, 5.10640536e-03, 8.23876932e-02, 0., 0.,
          1.31675553e+00, 1.05971432e+00, 5.80849171e-01, 1.15077466e-01,
          1.58492308e-02, 1.10586919e-01, 0., 2.50435531e-01,
          1.05755530e-01, 2.98816767e-02, 1.51959348e+00, 4.52783465e-01,
          2.55764555e-02, 1.12565666e-01, 6.95331275e-01, 0., 0.,
          2.47046709e-01, 1.35065570e-01, 0., 0., 8.54100466e-01,
          2.67869215e-02, 3.52005661e-02, 9.90485474e-02, 7.80205289e-03,
          6.82546198e-02, 1.49558917e-01, 1.97203612e+00, 7.52135217e-02,
          3.89241092e-02, 3.73339415e-01, 3.15284252e-01, 6.61774516e-01,
          5.53139687e+00, 2.17967927e-01, 0., 0., 1.27612519e+00, 0.,
          5.74804917e-02, 8.52685869e-02, 8.29197228e-01, 2.05199623e+00,
          1.37063544e-02, 3.28010052e-01, 5.83472885e-02, 0.,
          2.74709851e-01, 5.85561953e-02, 4.83351834e-02, 2.68392086e-01,
          5.51847339e-01, 1.55314177e-01, 4.63483185e-01, 8.69946837e-01,
          3.55876493e+00, 6.91791773e-01, 2.43938848e-01, 4.55410898e-01,
          1.38681024e-01, 1.19473264e-01, 0., 0., 6.51798397e-02,
          1.02637351e+00, 7.09842384e-01, 3.26598316e-01, 0.,
          7.30619133e-02, 0., 9.58644390e-01, 1.79642928e+00,
          3.88601154e-01, 1.60662681e-02, 5.17819691e+00, 8.66601825e-01,
          6.17140234e-01, 4.24874634e-01, 6.38223529e-01, 1.24805307e+00,
          2.37389237e-01, 1.18516468e-01, 1.22080289e-03, 2.95261383e-01,
          6.49985522e-02, 0., 8.89971294e-03, 2.12063327e-01,
          1.60985446e+00, 2.32959867e-01, 1.85378158e+00, 2.60700762e-01,
          0., 4.34836805e-01, 3.93521041e-02, 1.12485133e-01,
          3.75443429e-01, 0., 0., 4.65626735e-03, 1.16868012e-01,
          2.09675401e-01, 9.30381536e-01, 3.04868072e-02, 2.13417381e-01,
          0., 1.84094441e+00, 3.82813476e-02, 0., 7.72542858e+00,
          5.95141435e-04, 2.28118703e-01, 1.03594589e+00, 7.87809398e-03,
          3.26092362e-01, 0., 5.81776619e-01, 0., 4.18134704e-02,
          6.06387965e-02, 5.83995841e-02, 3.81568372e-01, 1.69805035e-01,
          1.84527183e+00, 0., 7.74971008e-01, 0., 4.20216650e-01,
          6.71735927e-02, 1.34281409e+00, 7.12920213e-03, 3.55147645e-02,
          1.07171662e-01, 1.04106557e+00, 1.07323520e-01, 6.73151389e-02,
          9.44277495e-02, 1.71981707e-01, 9.60828364e-01, 4.40238528e-02,
          2.89544910e-01, 0., 9.20018833e-03, 5.55524409e-01,
          1.21278159e-01, 5.78722477e-01, 1.50703990e+00, 6.00656681e-02,
          1.29263175e+00, 1.40969962e-01, 0., 1.58905804e-01,
          5.01108654e-02, 1.81729943e-02, 1.67258799e+00, 2.86509466e+00,
          1.42337501e-01, 3.91253494e-02, 0., 2.46609584e-03,
          4.29933757e-01, 0., 4.54636151e-03, 2.21373487e+00,
          8.28850269e-03, 7.72771358e-01, 1.12375647e-01, 1.27351969e-01,
          1.86411664e-01, 1.13870911e-01, 3.19806561e-02, 2.85680747e+00,
          6.98716938e-02, 8.74919817e-02, 3.11633404e-02, 4.54821169e-01,
          2.62521029e-01, 4.01238471e-01, 1.91554472e-01, 1.69664752e+00,
          4.58410770e-01, 2.48907134e-01, 2.25933060e-01, 5.63427329e-01,
          0., 1.31306406e-02, 1.59128630e+00, 0., 6.64869189e-01,
          2.16227078e+00, 1.03152406e+00, 8.35279524e-01, 5.36512351e-03,
          3.67277116e-02, 3.12887669e-01, 4.58203740e-02, 1.76826075e-01,
          0., 4.97805268e-01, 3.14549804e-01, 9.02685821e-02, 0.,
          4.78020906e-01, 0., 6.30056038e-02, 9.40863490e-01,
          1.50673240e-01, 4.58050240e-03, 6.62529245e-02, 5.95642984e-01,
          2.05406040e-01, 2.64518052e-01, 0., 0., 1.97703931e-02,
          2.00855300e-01, 7.06397915e+00, 0., 3.42849016e-01,
          1.25873789e-01, 4.31582689e-01, 1.03078341e+00, 1.82554692e-01,
          0., 1.57982326e+00, 5.23796320e-01, 4.82510149e-01,
          3.60322416e-01, 1.98891893e-01, 4.07137126e-01, 0.,
          5.86825199e-02, 9.76060808e-01, 0., 1.53943466e-03,
          1.42830357e-01, 5.39482385e-02, 2.37223491e-01, 3.42786461e-02,
          4.79964130e-02, 9.02422547e-01, 3.33080798e-01, 4.75535393e-02,
          2.01092251e-02, 5.27361751e-01, 9.12569940e-01, 5.99810332e-02,
          1.22981727e-01, 8.10599327e-03, 1.21706925e-01, 1.51514243e-02,
          0., 3.20919417e-02, 8.48302096e-02, 2.94035543e-02, 0.,
          2.19734386e-01, 1.63807571e-01, 0., 1.12270904e+00, 0.,
          3.10550272e-01, 0., 1.82965726e-01, 4.94266152e-02,
          8.41807425e-02, 2.16802031e-01, 2.22072075e-03, 0.,
          2.93558720e-03, 4.90267668e-03, 0., 3.22173536e-01,
          4.83672284e-02, 4.09490317e-01, 5.93320966e-01, 1.03104281e+00,
          0., 5.05413771e-01, 3.21159482e-01, 1.51094162e+00,
          1.11841280e-02, 4.05479133e-01, 0., 8.29713106e-01,
          7.32597755e-03, 1.54564068e-01, 6.34396017e-01, 3.75950724e-01,
          0., 5.44071138e-01, 0., 1.26651088e-02, 0., 0., 1.04108870e+00,
          4.20968346e-02, 1.32107720e-01, 2.35890210e-01, 2.75060944e-02,
          8.27539146e-01, 1.67516500e-01, 5.07023811e-01, 2.90770866e-02,
          1.60354450e-02, 9.35263991e-01, 7.16281474e-01, 0.,
          3.16114962e-01, 5.69799840e-01, 8.31409469e-02, 0.,
          3.59875500e-01, 0., 3.10895383e-01, 0., 6.10828578e-01,
          6.44423068e-02, 1.36385113e-01, 5.05091138e-02, 5.40545583e-02,
          1.02825284e+00, 9.34972093e-02, 0., 1.28682828e+00,
          1.63189515e-01, 9.42669749e-01, 0., 7.13765100e-02, 0.,
          2.56944261e-02, 9.29898247e-02, 0., 5.10652840e-01,
          3.99996489e-02, 1.55460310e+00, 4.11688685e-02, 3.68270159e-01,
          1.02568701e-01, 2.36631706e-02, 8.80261958e-01, 6.73300996e-02,
          2.16794699e-01, 0., 3.19962531e-01, 7.86545351e-02,
          2.15949655e-01, 9.17621315e-01, 0., 3.05921491e-02,
          4.04733747e-01, 8.46725941e-01, 2.37987012e-01, 1.92466751e-02,
          0., 1.30760834e-01, 0., 3.74731869e-01, 3.73338163e-02,
          3.47603075e-02, 3.30509573e-01, 7.68877566e-02, 1.45260366e-02,
          3.11916322e-02, 5.68637192e-01, 6.94026873e-02, 2.22005276e-03,
          7.69509792e-01, 4.05960858e-01, 6.96742758e-02, 2.02264935e-01,
          8.27944100e-01, 6.34774938e-02, 1.04556394e+00, 0., 0.,
          7.40408897e-01, 4.09335038e-03, 2.37023282e+00, 7.65392259e-02,
          0., 2.95253340e-02, 1.96284521e-02, 4.21691895e-01,
          2.54556596e-01, 0., 3.54291946e-01, 2.48655781e-01,
          5.28741658e-01, 4.11964245e-02, 4.33300734e-01, 3.92277867e-01,
          4.45964456e-01, 1.41002595e+00, 0., 2.03244701e-01,
          7.34361708e-01, 6.44914433e-02, 3.70244354e-01, 8.68391152e-03,
          0., 7.37224817e-02, 1.63144314e+00, 8.28373954e-02,
          1.25441961e-02, 7.27742612e-02, 5.61480708e-02, 0.,
          5.65405250e-01, 1.92373142e-01, 6.48439527e-02, 0.,
          1.95796967e-01, 4.32406127e-01, 1.16229653e-01, 1.43221602e-01,
          1.52275637e-02, 7.90724754e-02, 9.51583326e-01, 3.73398185e-01,
          1.50862202e-01, 0., 1.01567194e-01, 1.09779984e-02,
          3.72024029e-02, 8.71878624e-01, 2.99690098e-01, 6.28692448e-01,
          9.20333266e-01, 8.90804380e-02, 2.01195210e-01, 1.77459028e-02,
          0., 0., 0., 2.34126300e-01, 0., 0., 1.38712060e+00,
          2.01952513e-02, 6.55442095e+00, 6.25602007e-02, 1.99472666e-01,
          2.02909994e+00, 5.42071223e-01, 2.69582365e-02, 0.,
          2.85440040e+00, 0., 7.60244966e-01, 4.13791239e-02,
          8.98626745e-01, 2.08125925e+00, 2.56022483e-01, 2.32716873e-02,
          2.10648641e-01, 0., 0., 4.40259948e-02, 6.17897332e-01,
          8.62017918e+00, 1.15393642e-02, 1.57746226e-01, 0.,
          1.70740724e-01, 2.16322750e-01, 1.52009651e-01, 1.39462113e-01,
          1.18005939e-01, 4.31914516e-02, 0., 2.89541900e-01,
          6.21813583e+00, 0., 6.15515038e-02, 3.37393954e-02,
          1.05625018e-01, 2.45372027e-01, 3.56906950e-02, 5.80665879e-02,
          1.58519757e+00, 0., 3.44169915e-01, 6.37587190e-01,
          1.05295110e+00, 1.77786335e-01, 0., 3.79980952e-02,
          5.70032634e-02, 1.10423885e-01, 0., 2.35697436e+00,
          6.71719313e-02, 8.79358411e-01, 1.63144305e-01, 0.,
          5.26787788e-02, 9.20355260e-01, 0., 6.46316588e-01,
          1.25972605e+00, 3.90739226e+00, 4.05124456e-01, 5.00232875e-01,
          0., 6.00564539e-01, 0., 1.12573397e+00, 9.07675773e-02,
          1.17746063e-01, 1.78708911e-01, 4.29535925e-01, 0.,
          2.70390026e-02, 5.39133370e-01, 2.39971668e-01, 5.61582267e-01,
          2.29757100e-01, 0., 6.87749982e-02, 1.09486617e-02, 0., 0.,
          9.76546705e-01, 5.45905471e-01, 6.09520376e-01, 0., 0.,
          1.25675261e+00, 0., 2.33169928e-01, 1.39269277e-01, 0.,
          9.72463191e-02, 1.04669463e-02, 0., 9.29173455e-02,
          6.31583154e-01, 0., 4.86206710e-01, 9.64957848e-02, 0.,
          7.90820718e-02, 2.99818665e-02, 2.46659428e-01, 0., 0.,
          9.42092240e-02, 1.56168774e-01, 1.30914903e+00, 0., 0.,
          2.71980166e-01, 1.20420650e-01, 1.20161831e+00, 0.,
          4.67682630e-02, 5.69775254e-02, 2.85126299e-01, 6.90964520e-01,
          1.10582888e+00, 1.85117424e+00, 3.23810279e-02, 3.94606411e-01,
          0., 4.31714999e-03, 1.31028152e+00, 0., 0., 0., 1.59500086e+00,
          1.20393872e+00, 1.89251497e-01, 2.44617447e-01, 1.55590335e-02,
          5.63791730e-02, 1.66813806e-01, 6.85517415e-02, 8.49445915e+00,
          1.12465680e+00, 7.96113610e-01, 6.42648220e-01, 4.23484594e-02,
          6.00791276e-02, 3.01304400e-01, 0., 5.79091832e-02,
          3.95017490e-02, 0., 0., 2.03461075e+00, 8.14579055e-02,
          1.59368694e+00, 6.95223212e-01, 2.23722644e-02, 3.78604263e-01,
          0., 0., 4.09919888e-01, 6.48777094e-03, 2.54892260e-02,
          5.74693620e-01, 1.83343065e+00, 0., 0., 7.24964976e-01,
          6.69284686e-02, 0., 2.55545639e-02, 2.41202101e-01,
          2.65000129e+00, 3.14557403e-01, 1.36780334e+00, 1.26266193e+00,
          1.01907337e+00, 1.02445856e-01, 9.36891604e-03, 3.81325707e-02,
          3.26585956e-02, 1.08251981e-01, 1.12502262e-01, 4.37338687e-02,
          0., 4.54120994e-01, 9.10348818e-03, 0., 0., 8.15124989e-01,
          5.04553139e-01, 4.36526775e-01, 6.73395991e-02, 0.,
          3.46392930e-01, 1.13255031e-01, 0., 1.94165722e-01,
          1.84408116e+00, 5.54938912e-02, 4.20784461e-04, 7.78888445e-03,
          0., 1.43060100e+00, 2.80286044e-01, 6.37088954e-01,
          3.16225266e+00, 5.28924346e-01, 0., 8.64113450e-01,
          7.58482873e-01, 0., 0., 4.01074104e-02, 0., 1.87552392e-01,
          2.43349120e-01, 0., 1.46224761e+00, 8.82632583e-02,
          3.16572458e-01, 1.05552006e+00, 4.20881540e-01, 1.67810898e-02,
          5.07843435e-01, 9.78620589e-01, 2.61344194e-01, 1.27212152e-01,
          4.80493084e-02, 3.42708158e+00, 4.73911017e-01, 7.43249012e-03,
          2.49386773e-01, 4.38027948e-01, 0., 4.95320000e-02, 0.,
          2.10409224e-01, 1.68150514e-02, 1.14232190e-02, 0.,
          8.13980877e-01, 2.38022104e-01, 8.44153881e-01, 7.98538804e-01,
          6.52117804e-02, 1.04299121e-01, 0., 1.26739983e-02, 0.,
          4.06546563e-01, 3.67589414e-01, 3.61195117e-01, 1.21556866e+00,
          4.38107818e-01, 0., 3.09612248e-02, 5.56948707e-02,
          6.76483154e-01, 3.66696231e-02, 1.32204682e-01, 8.68749246e-02,
          0., 5.48862219e-01, 0., 8.44948180e-03, 5.16127288e-01,
          2.64934927e-01, 5.18817008e-01, 6.28671288e-01, 1.06913567e-01,
          1.40174225e-01, 0., 1.17437690e-02, 0., 8.26922953e-01,
          5.18625118e-02, 4.32988033e-02, 1.29616141e-01, 0.,
          7.62697011e-02, 0., 1.50606647e-01, 2.74507813e-02,
          4.78609242e-02, 0., 2.83223063e-01, 0., 0., 1.79397389e-01,
          3.79461378e-01, 8.94819450e+00, 3.38002801e-01, 7.15868250e-02,
          0., 5.11150479e-01, 3.41009170e-01, 9.71865878e-02,
          6.03001475e-01, 0., 4.69743460e-01, 9.73049104e-01,
          4.37273048e-02, 2.57110037e-02, 4.16062713e-01, 5.68084776e-01,
          2.53936529e-01, 7.59222433e-02, 8.89057443e-02, 2.68738627e-01,
          1.23932862e+00, 4.20326829e-01, 2.72933578e+00, 5.12910187e-02,
          6.46680236e-01, 1.98594260e+00, 1.40804783e-01, 3.41260642e-01,
          0., 4.19097133e-02, 0., 1.04511142e+00, 1.23651147e-01, 0.,
          2.32147843e-01, 5.02219945e-02, 2.34999633e+00, 1.19316779e-01,
          2.18400136e-01, 7.01388493e-02, 5.85455656e+00, 1.90607607e+00,
          9.69991398e+00, 5.99367805e-02, 3.51537973e-01, 3.01290661e-01,
          2.47103095e-01, 2.26760983e-01, 5.99282905e-02, 0.,
          1.39599472e-01, 0., 4.20961576e-03, 1.28274426e-01, 0.,
          1.69093966e-01, 1.99782755e-02, 1.83843791e-01, 7.79751897e-01,
          1.93459913e-01, 6.67680651e-02, 9.41280648e-02, 1.68220568e+00,
          2.50192750e-02, 8.55186224e-01, 3.18262249e-01, 0.,
          9.21225082e-03, 1.77636407e-02, 3.12996889e-03, 3.80459614e-03,
          8.70794337e-03, 1.38041377e-01, 2.97982186e-01, 1.22451091e+00,
          1.73054710e-02, 1.16307706e-01, 0., 0., 1.14769842e-02,
          7.76176825e-02, 2.18294691e-02, 2.28445861e-03, 0.,
          6.31761968e-01, 0., 0., 3.39977771e-01, 8.87587667e-02,
          5.37219167e-01, 1.08521050e-02, 2.18885276e-03, 3.99037421e-01,
          1.95413515e-01, 4.36428726e-01, 2.45581299e-01, 1.10432617e-02,
          6.29714131e-02, 1.42515862e+00, 2.82068342e-01, 3.23516339e-01,
          2.87138653e+00, 0., 1.42420650e+00, 7.26535171e-02,
          7.55725324e-01, 1.08614497e-01, 6.34932294e-02, 6.63167909e-02,
          1.03643596e-01, 2.77068973e-01, 4.03015167e-01, 5.58136225e-01,
          1.07133782e+00, 6.76603973e-01, 5.20751514e-02, 1.40517032e+00,
          1.78470905e-03, 3.88398200e-01, 0., 5.47463894e-01,
          6.82949573e-02, 0., 1.32618612e-02, 1.12351151e-02,
          3.69416401e-02, 4.86699939e-01, 1.16453037e-01, 0.,
          3.67496371e-01, 1.41030043e-01, 5.07140160e-02, 7.95795858e-01,
          9.16270971e-01, 1.92727947e+00, 2.92083454e+00, 1.39359450e+00,
          5.25317907e-01, 0., 1.09622508e-01, 8.77816528e-02,
          7.73337305e-01, 5.76013446e-01, 0., 2.52929516e-02,
          1.63677061e+00, 0., 2.04315498e-01, 5.58708655e-03, 0.,
          4.24282700e-01, 1.10288672e-01, 1.67214330e-02, 6.90571666e-01,
          5.56150749e-02, 5.25395572e-01, 0., 0., 1.83223505e-02,
          5.78533232e-01, 7.28590880e-03, 4.45864081e-01, 2.58301813e-02,
