%YAML:1.0
---
opencv_ml_svm:
   format: 3
   svmType: C_SVC
   kernel:
      type: LINEAR
   C: 5.6699999999999999e+00
   term_criteria: { epsilon:1.1920928955078125e-07, iterations:1000 }
   var_count: 2048
   class_count: 2
   class_labels: !!opencv-matrix
      rows: 2
      cols: 1
      dt: i
      data: [ 0, 1 ]
   sv_total: 1
   support_vectors:
      - [ -2.03537126e-03, -9.86067299e-03, -1.90344464e-03,
          2.60085235e-05, -1.35482708e-03, 2.43415660e-03,
          4.36430005e-03, 4.23889942e-05, -2.85322953e-04,
          5.24680968e-03, -7.36998918e-04, -2.23662973e-05,
          -2.15464279e-05, 7.38872821e-03, 3.75192380e-04,
          -4.07932472e-04, -5.44581235e-05, 2.87295319e-03,
          -3.71042377e-04, -6.90358167e-04, -6.49722497e-05,
          -1.69377355e-03, 8.09893943e-03, 3.88508663e-03,
          -9.95456823e-04, 6.53792988e-04, 7.81420385e-04,
          2.09376682e-04, 1.77565822e-03, -3.64279514e-03,
          7.03590980e-04, 1.29796506e-03, 2.32431150e-04, 0.,
          -6.04215357e-03, -4.26969910e-03, 6.94665452e-03,
          5.67393363e-05, -2.63013272e-03, -4.65055695e-04,
          -6.14842516e-04, -5.95601182e-03, -3.84412846e-03, 0.,
          7.60167278e-03, 7.05870474e-03, 1.57409144e-04,
          -4.01564920e-03, -1.04523881e-03, 1.64596044e-04,
          -1.17341732e-03, -1.11421349e-03, -6.47278939e-05,
          3.56016215e-04, 1.98181879e-05, 3.46249482e-03,
          -1.74788095e-03, -2.88681197e-03, -9.72640468e-04,
          -3.14342964e-04, 3.86401633e-04, -3.31485426e-05,
          4.39496152e-03, 2.57708807e-03, 1.35488604e-04, 2.78250058e-03,
          3.25985457e-04, -4.03992570e-04, -6.73994364e-04,
          -8.63508438e-04, 3.46616097e-03, -4.31034807e-03,
          -4.55142697e-03, 1.14015816e-03, -4.84261569e-03,
          -3.10108553e-05, -2.33138489e-04, 2.59968685e-04,
          9.56716540e-04, 4.52141867e-05, -2.82434933e-03,
          -2.78110662e-03, -3.09158675e-03, -3.84653406e-03,
          5.77137573e-03, 0., 1.31382805e-03, -5.41545160e-05,
          -6.20661594e-05, -6.73149573e-03, 1.67301297e-03,
          1.41627081e-02, -1.25686848e-03, 2.32664810e-04,
          -3.69259011e-04, 1.31695950e-03, -1.60816754e-03,
          1.71796182e-05, -5.24234551e-04, -2.04743422e-03,
          -2.17588572e-03, -1.12129049e-03, -2.77334184e-05,
          -8.92120821e-04, -1.74928538e-03, 0., 1.30808435e-03,
          4.31966223e-03, -6.04099734e-03, -1.69175456e-03,
          -1.61720626e-03, 1.38196663e-03, -7.96615670e-04,
          1.03647099e-03, 5.46022272e-03, 1.00925313e-02, 4.51376909e-05,
          1.32219959e-03, -1.21553533e-03, 4.02135134e-04,
          2.27186283e-05, -1.29128387e-03, 3.83599167e-04,
          5.82630219e-06, -4.87475831e-04, -1.97831414e-05,
          4.48193110e-04, -1.81305717e-04, -4.22718207e-04,
          -4.11150744e-04, 1.50567712e-03, 6.61226397e-04,
          -1.13502632e-04, -2.41321931e-03, 7.43998273e-04,
          -4.77655703e-04, -1.27810496e-03, -2.45563616e-03,
          2.09755241e-03, -1.12750371e-04, -1.08517206e-03,
          -1.76032278e-04, 6.29929127e-04, 1.08118817e-04,
          -4.81334486e-04, 9.06147761e-05, 3.98262637e-03,
          -2.08742847e-03, -2.06537734e-05, 4.69996361e-03,
          1.45153375e-03, -8.34900362e-04, 1.24580774e-03,
          5.98328596e-04, -3.32665571e-04, -1.20445027e-03,
          2.56784388e-05, 9.64530930e-03, -8.59450447e-05,
          4.88967448e-03, -5.71175711e-03, 1.24172703e-03,
          -3.59942531e-03, -4.19839704e-03, 4.69944533e-03,
          -4.51573636e-04, -2.36257329e-03, -1.25093374e-03,
          -1.81051102e-04, -6.70867448e-05, -5.48857031e-04,
          -4.70706553e-04, 9.14131117e-04, 7.17661530e-03,
          -5.35114159e-05, -6.33944431e-03, 3.24010500e-03,
          6.80321082e-03, -7.15783099e-04, -4.10144945e-04,
          -5.90649317e-04, -1.33918700e-04, -1.86994803e-04,
          -3.70287330e-06, -3.93733848e-04, 7.50632025e-03,
          1.93852535e-03, -2.95692065e-04, 0., 5.60877612e-03,
          -9.89252585e-05, 7.73071486e-04, 2.00540453e-04,
          -3.86294472e-04, -9.78756088e-06, 4.26642783e-03,
          2.13524024e-03, 5.11239748e-03, -9.60896350e-03,
          5.93098346e-03, 1.20097760e-03, -1.72448419e-02,
          -5.73535181e-05, 3.82880634e-03, -5.36616596e-07,
          -2.52059195e-03, 6.78007200e-04, -2.73623643e-03,
          1.34507613e-03, -4.54044389e-03, -5.08209132e-03,
          2.16539530e-03, -8.08776170e-03, -1.72801933e-03,
          6.12311126e-08, -9.70704568e-05, -5.17312018e-03,
          4.19921998e-04, 8.29845294e-03, 5.33570582e-03,
          -1.76816725e-03, -5.36200590e-03, -5.24417637e-03,
          -6.83730032e-05, -1.92760630e-03, -8.52094498e-03,
          5.22827962e-04, 3.52399494e-03, -2.31560995e-03,
          1.54874949e-02, 6.66048611e-03, -1.28500717e-04,
          1.96237579e-05, 3.75097501e-03, 2.82371911e-05,
          -6.66853739e-04, -4.99756352e-05, -5.28249750e-03,
          4.56108060e-03, -5.91438496e-04, -4.20820754e-04,
          7.05657818e-04, -5.57808671e-04, -4.49823237e-05, 0.,
          -1.38914892e-02, 6.87625143e-04, 1.54678826e-04,
          3.05775506e-03, -4.97764908e-03, 0., -4.73612308e-04,
          -3.38619202e-03, 1.52282315e-04, 1.33682473e-03,
          2.76700058e-03, -3.39927990e-03, 2.38650609e-04,
          2.67201278e-04, -4.15491732e-03, 2.38572175e-05,
          -1.39799115e-04, -2.19646469e-03, -1.07715500e-03,
          1.77727023e-03, -1.20014985e-04, 8.10473866e-04, 0.,
          -4.46067686e-04, 3.19541548e-04, -2.00826321e-02,
          -3.60045779e-05, -9.75331350e-04, 8.65181442e-03,
          1.00390231e-02, 1.05707590e-02, -1.70574989e-03,
          9.50410104e-05, 7.95132473e-06, 8.99504928e-04, 2.88583047e-04,
          1.32263091e-03, -1.36314472e-03, -3.75557619e-07,
          -2.69372249e-04, -3.62344523e-04, 2.11637164e-03,
          1.14315171e-02, 8.15725594e-04, -5.04334178e-03,
          8.00656853e-05, -8.56942381e-04, 3.69691476e-03,
          -4.17680014e-03, 1.36968994e-03, -7.99372850e-04,
          -2.10733459e-04, 1.29992341e-05, -7.53620034e-03,
          -2.81296740e-03, 0., -1.95611478e-03, -7.48918683e-04,
          -1.83150137e-03, 1.57352799e-04, 1.80852367e-04,
          -6.47892419e-04, 2.31346977e-03, 2.22202390e-03,
          -4.87372372e-03, 1.02756720e-03, -3.11599462e-03,
          5.12437837e-04, 5.49649936e-04, -6.54356845e-04,
          -7.38449511e-04, -6.88157510e-04, -5.43425675e-04,
          -1.50713691e-04, 6.44204032e-04, 1.13888273e-04,
          -7.68116268e-04, 4.97375622e-05, -7.55908142e-04,
          1.40654171e-04, -2.91777262e-03, -1.14640896e-03,
          2.57133599e-03, -4.17213375e-03, 2.91090086e-03,
          -3.37244291e-03, 1.77320291e-03, -5.34526189e-04,
          2.90500320e-04, 4.67024132e-04, 5.24703646e-04,
          -8.29939730e-04, 2.33938714e-04, -1.61980439e-04,
          3.20442603e-03, -6.05428941e-05, 1.94345688e-04,
          2.09553851e-04, 4.12047288e-04, -1.44360107e-04,
          -1.98898138e-03, 3.46230809e-03, 1.52462244e-03,
          4.03965591e-03, -2.05752589e-02, 6.24142587e-03,
          1.16115459e-03, -3.85204656e-03, 1.88617781e-02,
          -4.97800705e-04, 2.34456477e-03, -6.62226579e-04,
          -6.17552141e-04, -7.71067571e-03, -4.52422000e-06,
          2.94616999e-04, 1.81137398e-03, -1.02096749e-02,
          -3.60468449e-03, -1.55484013e-04, -1.14628412e-04,
          -2.03843648e-03, -9.84098576e-03, -1.27819367e-03,
          1.06767965e-02, 3.61382845e-04, 1.36280456e-03,
          -1.33742904e-03, -3.72929731e-03, -2.25434342e-04,
          -1.55703921e-03, -1.52540421e-02, 7.00377626e-04,
          -9.61559199e-05, -1.65728468e-03, -1.81182491e-04,
          -2.99722626e-04, -9.31367220e-04, 4.09778673e-03,
          1.29736110e-03, 1.42152829e-04, -7.58118695e-03,
          3.19825311e-04, -6.62861113e-03, -2.36171909e-04,
          7.84759503e-03, -6.90074739e-05, 1.75780884e-03,
          -2.15158588e-03, -5.60246175e-03, -6.28117181e-04,
          -5.01452573e-03, -1.84398727e-03, 3.55789016e-05,
          1.81489049e-05, -3.93489725e-04, -1.04960322e-03,
          -6.52201381e-03, 1.79986050e-03, 5.47286915e-03,
          -1.58675723e-02, -4.62207099e-04, 1.71655254e-03,
          2.76467344e-03, -1.54957306e-02, 6.20693667e-03,
          -3.84951988e-03, -1.21569855e-03, 1.97645137e-03,
          4.86687823e-05, 6.67620683e-03, -8.62473316e-05,
          4.33087116e-05, 1.28293002e-03, -5.85700269e-04,
          3.78773868e-04, -6.59975270e-03, 1.76170503e-03,
          6.79443692e-05, -7.32989656e-03, -2.34586201e-04,
          -5.42360242e-04, -6.88866759e-03, -5.93500072e-03,
          2.98315077e-03, -2.68055219e-03, 9.69150627e-04,
          -6.10129815e-03, -2.91179889e-03, -9.09939758e-04,
          2.04832922e-03, 5.44750178e-03, -4.38195071e-04,
          -5.05031385e-05, -2.06063665e-03, -4.02857731e-05,
          -1.35688961e-03, 9.49622411e-03, -2.94357934e-03,
          1.01580587e-03, -2.08151338e-04, -2.96679186e-03,
          -3.68403707e-04, 1.49256398e-03, 4.36035043e-05,
          -3.96031048e-03, -9.13111318e-04, 8.44930008e-04,
          3.22729559e-03, -7.41898722e-04, -3.05608904e-04,
          -3.69788555e-04, 1.20093552e-02, -1.35287177e-03,
          1.17835570e-02, 1.01676921e-03, -6.30792414e-08,
          -2.72855093e-03, 5.04920754e-05, 6.07697351e-04,
          1.92343086e-05, 2.71572312e-03, -1.38087536e-03,
          8.68615098e-06, -2.38113501e-03, -9.29966941e-03,
          6.20515435e-04, 1.91147043e-03, -2.26507010e-03,
          3.66203953e-04, 1.54630712e-03, -3.27982561e-04,
          -2.81566405e-03, 2.41542188e-03, -7.22751895e-04,
          -5.06048696e-03, -8.43955029e-04, -2.26086332e-03,
          -2.53419392e-04, 4.88752872e-03, 5.48451615e-04,
          1.13465618e-02, -4.78801412e-05, -2.65826588e-03,
          7.06194260e-04, -2.82779336e-03, -2.09283456e-03,
          -1.55017735e-03, -3.55860066e-05, 5.03548305e-04,
          -1.04216661e-03, 2.74471298e-04, 1.47748273e-03,
          -1.06587511e-04, 4.20997292e-03, -1.69188865e-02,
          -9.34325450e-04, 5.84047521e-05, 2.32718419e-03,
          2.16529658e-03, -2.82467413e-03, -8.76535123e-05,
          -1.36895035e-03, -2.07586540e-03, -1.04786921e-02,
          -4.24795877e-03, 1.39938062e-02, -6.56917051e-04,
          -1.92588224e-04, -9.32457042e-04, 2.70714972e-05,
          -1.39817537e-03, -8.26097021e-05, 4.29669570e-04,
          1.71962939e-02, 1.00071113e-04, -8.66889860e-03,
          9.51657910e-03, 4.93797567e-03, 1.87753540e-05, 2.07166813e-05,
          -5.24263829e-03, 1.79782312e-03, -6.28982161e-06,
          8.07665696e-04, 3.84271378e-03, -8.69911037e-06,
          2.36090418e-04, -7.95051892e-05, -1.70708037e-04,
          -4.95688943e-03, -3.02550092e-04, 3.51394177e-04,
          -9.26921610e-03, 5.05321519e-03, 3.34081793e-04,
          -3.25095898e-04, 3.66669818e-04, -8.36777780e-03,
          -4.80101723e-03, 9.21902247e-04, -5.48380485e-04, 0.,
          9.31430236e-03, -1.94682230e-04, 2.50509969e-04,
          2.60072393e-05, 7.58177077e-04, 1.61527016e-04,
          -1.17109984e-03, -4.28494206e-03, 7.65559915e-03,
          2.97872000e-03, 1.21334735e-02, -1.19217183e-03,
          9.02494492e-07, 2.40980207e-05, -2.20728829e-03,
          -1.32374393e-04, 6.83013175e-04, -2.25941394e-03,
          -7.64687872e-03, 6.62929565e-03, -1.54037308e-03,
          1.90412498e-03, 2.37211143e-03, 4.04403618e-05, 2.67611176e-04,
          3.72971670e-04, -3.01438384e-04, -2.85849994e-04,
          -6.32022973e-04, 2.59470171e-03, -3.29853571e-03,
          1.00282021e-03, -1.45614496e-03, -5.29297140e-05,
          4.60605632e-04, 2.42401307e-04, -1.96327660e-02,
          8.89244583e-03, 1.56869952e-04, -2.07235164e-04,
          2.94355396e-03, -1.77062326e-03, 1.06735143e-03,
          1.31808070e-03, 3.98815871e-04, -1.10936096e-04,
          -2.51225458e-04, 1.26829036e-02, 2.28126868e-04,
          1.69607825e-04, -1.27813953e-03, 7.88130215e-04,
          -3.05961044e-06, -4.89920657e-03, 3.76766012e-03,
          -1.91428873e-03, -2.59194034e-03, -6.56131003e-03,
          1.54700992e-03, -1.48171361e-03, 3.04101524e-03,
          -6.54445030e-04, 4.53622624e-06, -2.34057941e-03,
          7.28529831e-03, -5.55172912e-04, 2.00999086e-03,
          -3.13900127e-05, -9.49919783e-03, 1.28593366e-03,
          2.29838770e-03, 1.34621200e-03, 1.29447537e-04,
          -4.31106833e-04, -6.99844852e-04, -9.35817196e-04,
          7.10409309e-04, 2.25765072e-03, -2.31293627e-04,
          2.84908427e-04, 1.51962321e-03, -1.46519737e-02,
          4.40939330e-04, 2.78111169e-04, -1.09925249e-03,
          -2.12197262e-03, 7.13952119e-04, 1.20704249e-02,
          8.33141990e-03, -2.50861957e-03, -4.51735826e-03,
          7.89418875e-04, 5.51883923e-03, -1.96328911e-04,
          4.00215108e-03, -1.98957766e-03, -2.60447297e-04,
          -4.44091274e-04, 6.68832101e-03, -3.32371355e-03,
          -5.17944014e-03, 4.22540540e-03, -1.07717365e-02,
          -1.02463353e-03, 8.01997201e-04, -9.84009122e-04,
          -1.51691260e-03, -1.67091348e-05, 2.03176122e-03,
          -1.93684758e-03, 8.18578701e-05, -4.67702933e-03,
          -8.19293899e-04, -6.00672094e-03, 1.31574646e-03,
          -3.04544112e-04, -1.92625001e-02, -1.03027560e-02,
          -8.84206616e-04, 1.48953423e-02, 3.48321884e-03,
          2.44135223e-03, 2.76205974e-04, 3.16187434e-05,
          -1.10917818e-03, 2.48684781e-03, -4.66686860e-03,
          5.76402352e-04, 3.34028155e-03, -3.87188222e-04,
          -2.24629301e-04, -3.35360318e-03, 4.88487594e-02,
          -1.14292465e-02, 4.35090763e-03, 3.08122742e-03,
          -2.41820206e-04, -1.27349421e-02, 3.62040999e-04,
          -2.37264019e-03, 2.31544018e-05, -2.64268927e-02,
          1.40000752e-03, -3.45813856e-02, 1.08255990e-04,
          1.08810724e-03, -8.21688795e-04, 3.67324217e-04,
          -1.81584898e-03, -9.00155923e-04, 1.85560333e-04,
          1.21454161e-03, 7.36952759e-04, 5.78174484e-04, 5.57228131e-03,
          -2.50140001e-04, -1.44212146e-03, -4.67711175e-03,
          -1.53342320e-03, 1.14337192e-03, -4.06127365e-04,
          -4.55173373e-04, -1.69179849e-02, 4.18517535e-04,
          -5.32503764e-04, -5.83661301e-03, -1.60333281e-03,
          8.68171803e-04, 2.47550110e-04, -4.77466674e-04,
          3.79481469e-03, -3.84583000e-05, -8.06195894e-04,
          -1.16290674e-02, 1.13628758e-03, 5.47534972e-03,
          -1.41308003e-03, 2.89438339e-03, -5.58511063e-04,
          9.42778297e-06, -8.09781952e-04, 5.73324796e-04,
          -1.84617995e-03, 2.59860331e-04, -1.48317413e-04,
          -4.90375794e-03, -6.13695418e-04, -9.01998207e-03,
          -4.72123174e-05, -1.98834576e-04, -5.47493389e-03,
          -3.14188073e-05, 2.50134472e-04, -8.01040325e-03,
          -3.91189056e-03, 1.94325682e-03, -4.19467175e-03,
          4.84937150e-03, 2.91762664e-03, 2.40735570e-03, 5.46662661e-04,
          -2.06935476e-03, -8.72930759e-05, -1.98071706e-03,
          -1.20090193e-03, -8.83758548e-05, 2.19318554e-05,
          2.83488800e-04, 4.25175211e-04, -3.54739197e-04,
          -4.18000063e-03, 9.62885388e-04, 2.40344089e-03,
          -3.83417530e-04, -8.90185838e-05, -8.62400164e-04,
          6.48760179e-04, -8.78096791e-04, -7.25516002e-04,
          1.31546985e-02, -8.69923551e-03, 2.30700430e-03,
          7.79871945e-04, -3.82165483e-04, 9.21838975e-04,
          -1.25057623e-03, -6.03216613e-05, 1.40851713e-03,
          -3.11125536e-04, -1.74481992e-03, 1.77194783e-03,
          -3.28732858e-05, 5.62186493e-03, -1.06639323e-04,
          1.57977120e-04, 2.40057730e-03, 7.60190247e-04,
          -5.74980280e-04, -2.76279170e-03, 4.69500758e-03,
          2.10070098e-03, 8.50883604e-04, -1.44450134e-03,
          -1.31306350e-02, 2.01489878e-04, -1.01543043e-03,
          -1.25649036e-03, 8.76504404e-04, 1.18759833e-03,
          -1.03270821e-03, -7.12468871e-04, 9.36767901e-05,
          4.02918458e-03, 2.64332979e-03, -3.76999239e-03,
          -9.86160831e-06, -1.55071705e-03, 3.82139493e-04,
          5.09445742e-03, -1.46615226e-02, -1.70602824e-03,
          -3.85766689e-05, 1.27184661e-02, 3.79502564e-03,
          6.85759122e-04, 1.19269465e-03, 2.70637404e-03,
          -1.35064498e-02, 9.42813349e-04, -4.17876145e-04,
          -1.90107734e-03, 1.52808963e-03, 5.26107542e-05,
          -6.88898799e-05, -2.00885278e-03, -4.36750753e-03,
          8.46643280e-03, -5.84376685e-04, -1.03838872e-02,
          -1.72410172e-03, 1.99316768e-03, 5.34104533e-04,
          1.47981208e-03, -1.24487327e-03, 1.75544596e-03,
          -3.02916269e-05, -5.59108867e-06, -2.29285579e-04,
          -1.80524010e-02, -5.95162215e-04, -1.55487051e-02,
          -1.39157200e-04, -1.55221947e-04, 6.12417643e-05,
          1.43149891e-03, -5.54028957e-04, 5.13150553e-06,
          1.18912747e-02, -2.99349886e-05, -6.73614815e-03,
          -5.76312048e-03, -3.44631355e-03, -2.44418229e-03,
          -3.53598525e-03, -6.44618587e-04, -6.40717684e-04,
          2.28377030e-04, -3.41658422e-04, 6.41662627e-04,
          5.04115643e-03, 5.32218139e-04, 7.19687343e-03,
          -8.45852483e-04, -6.71950448e-03, 6.21446350e-04,
          3.03867483e-03, -1.00267980e-05, -1.03142858e-03,
          3.07743641e-04, -3.31006409e-03, 1.27895514e-03,
          3.86658590e-04, -1.21668202e-03, -8.62263492e-04,
          -1.01146591e-03, -6.63952495e-04, 5.28878300e-03,
          -2.60503544e-03, -1.16561381e-02, -5.90150421e-06,
          -6.93341193e-04, -1.34469871e-03, 7.81216077e-05,
          -2.32791272e-03, -2.95436569e-03, -1.36557745e-03,
          8.46897624e-03, -3.67996260e-03, 3.42584727e-03,
          8.84185079e-04, -2.94654444e-03, -1.23464759e-03,
          -1.96054764e-02, 1.00983474e-02, -1.47733279e-03,
          -2.10672064e-04, -3.52966657e-04, -7.29079766e-04,
          -2.55735678e-04, -1.09668399e-07, -7.29936932e-04,
          4.63638641e-03, -1.67280075e-03, 1.01723848e-02,
          -1.98809383e-03, -3.76310945e-03, 3.04360554e-04,
          -3.13193793e-03, 2.01659184e-03, -6.89660525e-03,
          3.57570662e-03, 1.65580626e-04, 2.86529918e-04,
          -9.58799850e-04, -8.39989167e-04, 1.24649203e-03,
          -2.07317687e-04, -1.65239896e-03, -5.60831418e-03,
          -4.67122882e-05, 8.02634563e-03, 2.11271062e-03,
          -1.10753790e-05, -1.00791885e-03, 1.22434704e-03,
          -2.72314734e-04, -2.12753820e-03, -2.03862414e-03,
          -2.41250754e-03, -3.12197627e-03, -3.99909331e-05,
          1.80711024e-04, -7.38783332e-04, 1.56065193e-03,
          -5.16412896e-04, -2.26899174e-05, -3.16839316e-04,
          -4.33879206e-03, -7.12195470e-05, -6.25522342e-04,
          -6.43842807e-03, 1.35141599e-04, 3.77729244e-04,
          -4.19349875e-03, 3.56480922e-03, 3.95800045e-04,
          -1.95343327e-03, 2.41492107e-03, 4.80158429e-04,
          -2.24775542e-03, 1.01154007e-03, -2.52921134e-04,
          -1.02845137e-03, 2.57864222e-03, 2.22917423e-02,
          -1.15846204e-04, 5.48647577e-03, 8.06535885e-04,
          -2.46839901e-03, 3.23340413e-03, 6.20319217e-04,
          3.85851899e-06, -3.72735485e-02, -3.40332510e-04,
          1.41815530e-04, 3.13565973e-03, 4.22637444e-04,
          -4.70069099e-05, 0., -4.88302996e-03, -3.02732433e-03,
          1.20136980e-03, -5.92503813e-04, 3.61699262e-04,
          -1.10933855e-04, -3.13375058e-04, -2.35607545e-03,
          -8.37154337e-04, -7.95144029e-03, 5.05436258e-03,
          -1.97101641e-03, -3.60837905e-04, 1.16918981e-02,
          -8.54947232e-03, 3.73740710e-04, -1.52201857e-03,
          -1.22477452e-03, 2.38574750e-04, -6.58940582e-04,
          8.43615999e-06, -4.94638225e-04, -3.07396054e-03,
          6.39802951e-04, -6.01381689e-05, 1.53964222e-03,
          1.38015195e-03, -4.13005037e-04, 1.19405531e-03, 0.,
          5.66602721e-05, -4.02144273e-04, 5.02032810e-04,
          -3.71224666e-03, 1.02341769e-03, -5.37598226e-03,
          -1.46056773e-04, 1.34224037e-03, -8.59986394e-05,
          -2.96648330e-04, 1.34839804e-03, -3.93540220e-04,
          -9.09030263e-04, 5.09886362e-04, 6.37896964e-03,
          -6.88358955e-03, 8.15125008e-04, 1.06014067e-03,
          -6.35340257e-05, 1.50484475e-03, -1.42513886e-02,
          2.61362875e-03, -6.30162976e-05, 1.36184355e-03,
          -8.79573403e-04, -5.20106079e-03, -8.68563447e-03,
          4.91749914e-03, 1.80962333e-03, 4.43532132e-04,
          -1.23452046e-03, -5.22149312e-05, -1.19019060e-04,
          1.89173443e-03, -2.31584790e-03, 3.31471232e-03,
          1.26436935e-03, 1.02351571e-03, 1.66145750e-04, 2.91874539e-03,
          2.40671285e-03, -1.77923543e-03, -4.31503588e-03,
          2.78451043e-04, 4.39918181e-03, 6.59656827e-04,
          -6.91715541e-05, -6.35566481e-04, -3.08304024e-03,
          -3.77251743e-03, -2.50813522e-04, 1.20604353e-03,
          -2.70380348e-04, -2.12217157e-04, 6.25262692e-05,
          -1.08692050e-03, -4.49999730e-04, -6.75328251e-04,
          -2.13852967e-04, -4.52812201e-05, 1.09751569e-03,
          -6.02737477e-04, -3.00607389e-05, -1.36846455e-03,
          1.19941868e-03, 1.26336631e-03, -3.13159078e-04,
          -3.01474938e-03, -1.36823312e-03, -8.12645303e-04,
          4.20392677e-03, 1.41021865e-03, 1.89904834e-03,
          -8.34976308e-05, 6.61382312e-03, 5.58094238e-04,
          3.33318207e-03, 5.57896099e-04, -9.09225375e-04,
          -1.70362939e-03, -3.57226538e-03, 4.18997183e-03,
          -1.32425441e-06, 1.38293020e-03, -4.37096599e-03, 0.,
          1.01064472e-03, -2.06402605e-04, 1.12197455e-03,
          7.11166067e-04, 6.37695845e-03, -1.21543603e-03,
          -4.08538152e-04, -9.54820018e-04, -6.75401371e-03,
          -1.17616401e-06, -1.94485870e-03, -9.98815987e-04,
          1.06191996e-03, -1.16670365e-03, 1.17785938e-03,
          -2.85953446e-03, -2.49784935e-05, 1.82110502e-03,
          2.45550327e-05, 1.35001529e-03, 3.69028770e-03, 1.59384240e-03,
          -3.84397426e-05, -1.06725120e-03, -8.94236378e-03,
          5.34777995e-04, 1.61163788e-03, 0., 0., -9.66288790e-05,
          -4.14215348e-04, -3.76047078e-03, -6.94317045e-04,
          -6.23369648e-04, 6.01897249e-04, -2.20182497e-04,
          -2.78904010e-03, -1.16458943e-03, -1.94409964e-04,
          -1.11606249e-04, 9.63903219e-03, 1.94665580e-03,
          1.42443314e-04, -1.53381890e-03, 1.94062930e-04,
          6.09875016e-04, -1.52744288e-02, -1.00739126e-03,
          -8.94594588e-04, 3.11444484e-04, 3.51729686e-04,
          -6.48137357e-04, -4.92221618e-04, -3.65551357e-04,
          7.07137689e-04, -2.97522526e-02, -1.16624447e-04,
          -1.10773556e-03, 1.44370555e-04, -1.66572689e-04,
          -3.43131178e-05, 1.92774169e-03, -1.86659116e-02,
          1.59920251e-03, 3.42593266e-05, 8.69432057e-04, 7.14772381e-04,
          -2.97848863e-04, -7.58990471e-04, 8.69045383e-04,
          -8.81883665e-04, 1.25853391e-03, -4.49400541e-04,
          -1.94918178e-03, -3.68737354e-04, 5.76071162e-03,
          9.73788614e-04, -1.07984152e-03, 7.07853958e-03,
          -2.22413582e-04, -2.20087729e-03, -3.58020118e-03,
          2.12065759e-03, -7.64670549e-05, -4.51168511e-04,
          -7.62018099e-05, -1.42658886e-04, 1.51233620e-03,
          -3.89576005e-03, -1.78343034e-05, -1.41451228e-03,
          -8.43000226e-03, -3.56172997e-04, 6.19082758e-03,
          5.09264995e-04, -2.09629841e-04, -1.96802989e-03,
          -5.26834652e-03, 5.13748848e-04, -2.88450315e-06,
          1.42165739e-02, -3.18446662e-04, -5.44388220e-03,
          -2.34293228e-04, -9.75019578e-03, -2.38410048e-02,
          8.67911847e-04, -4.74766549e-03, -1.00407302e-02,
          5.50452887e-06, -5.34817264e-05, 2.51066429e-03,
          7.58055784e-03, 6.55034231e-03, -2.55248597e-04,
          1.02999911e-03, 6.25396147e-04, -7.05238013e-03,
          2.29580654e-03, -3.06595629e-03, -4.17003175e-03,
          -4.16405406e-03, -4.13752976e-04, -1.87078502e-03,
          4.10239492e-03, -1.47340465e-02, -5.29239114e-05,
          4.10620036e-04, 1.28468324e-03, -1.42156077e-03,
          -6.62605511e-03, -1.68372376e-03, -2.35740538e-03,
          3.36120138e-03, -1.44275511e-03, 2.22705747e-03,
          1.93674921e-03, -3.15427058e-03, -8.11541744e-04, 0.,
          4.51523199e-04, -2.56008963e-04, 5.77034894e-04,
          -2.97810329e-04, -9.84502677e-03, -1.40850071e-03,
          1.21358957e-03, -9.37350967e-04, -8.44852766e-04,
          -2.94933037e-04, 1.53073855e-03, 2.12356117e-05,
          2.97824317e-03, 4.32969024e-03, -1.32954344e-02,
          2.70688836e-03, -8.73229094e-03, 1.34210059e-04,
          -4.70713899e-03, 2.15223977e-07, 7.81972893e-03,
          -2.00115470e-03, -5.42474794e-04, -4.00035083e-03,
          7.80363148e-03, -5.16200489e-05, -1.65929273e-03,
          3.34060518e-03, 1.11692341e-03, 2.52709561e-03, 8.93370816e-06,
          -6.52247458e-04, -3.29011166e-03, -6.42426021e-04,
          -4.30634536e-05, -7.86991441e-04, 3.77455773e-03,
          -1.04391051e-03, 1.11347377e-04, 1.08557280e-04,
          2.41676134e-05, 7.29879178e-03, 1.05338567e-03,
          -1.27534149e-03, 8.06157244e-04, 1.75591529e-04,
          -2.00819061e-03, -8.98597995e-04, 7.97625835e-05,
          -6.63832005e-04, -2.54740450e-03, -6.29729650e-04,
          -2.48652650e-03, -1.38558273e-03, -3.11238409e-06,
          -9.21619299e-04, -1.47054123e-03, -3.37174977e-03,
          1.45863858e-03, -9.35582430e-05, -6.15592347e-04,
          -1.36237079e-03, 7.46662205e-04, -4.94490132e-06, 0.,
          7.45992502e-03, -4.07650275e-03, -2.52046133e-03,
          -2.03920907e-04, -8.85521353e-04, -1.04554417e-03,
          4.36739856e-03, 2.39068340e-03, 6.00587111e-03, 8.51697009e-03,
          4.32404340e-04, -5.50715718e-04, -5.78919025e-05,
          -8.01219547e-04, -1.96868950e-03, -3.82209866e-04,
          1.73230164e-05, 2.79480708e-04, 5.87407674e-04,
          -1.44143635e-02, -1.51731085e-03, 3.52853374e-03,
          -2.90879165e-04, 1.40954053e-03, -2.01554038e-03,
          1.65506644e-04, -1.12126246e-02, -1.28423953e-02,
          -2.08066267e-04, -7.95702823e-03, -7.45468515e-06,
          1.50296534e-03, 1.79175485e-03, 2.60950706e-04, 1.08167657e-03,
          -1.22772716e-03, -1.39113120e-03, -1.19659363e-03,
          4.53119352e-03, 1.16736605e-03, 8.29639554e-04,
          -1.85380690e-03, -1.20739487e-03, -7.46165577e-04,
          -5.77861618e-04, -8.79455358e-04, -2.12418637e-03,
          -1.88792968e-04, -1.09495176e-03, -1.76687795e-03,
          6.60957652e-04, -1.69882248e-03, 1.33005437e-04,
          -5.66427771e-04, -8.42644749e-06, -5.50766163e-05,
          6.19361119e-04, 1.02275691e-03, 4.87964926e-03, 1.98710780e-03,
          -2.04136362e-03, 6.39432063e-03, 5.63029945e-03,
          -2.37411889e-03, -3.03464651e-04, -4.11645393e-04,
          -8.18682020e-04, -2.58927676e-03, 2.56719184e-03,
          1.06109546e-04, -1.89976906e-03, -2.26302096e-03,
          2.36687614e-04, -6.20513165e-04, 4.49623447e-03,
          1.86731655e-03, 9.61319194e-04, -2.61027948e-03,
          1.08697533e-03, -5.55440383e-05, 3.54275992e-03,
          3.10361898e-03, -7.49512226e-04, -5.85512770e-03,
          -4.29982203e-04, 6.04490750e-04, 1.52267894e-04,
          -3.10068764e-03, -4.64245240e-04, -1.06932987e-02,
          3.37694306e-03, 3.22160916e-03, 2.68775830e-03,
          -1.21103385e-02, 2.11784878e-04, -3.95564083e-03,
          -1.07169980e-02, 1.25913043e-03, 5.06661716e-04,
          -9.32959374e-04, 3.44225834e-03, 2.46971613e-03,
          4.91543033e-05, -3.77525466e-05, -8.42872355e-03,
          1.91588805e-03, 1.95463351e-03, 1.12433573e-02,
          -2.57327524e-03, 2.29799934e-03, -7.04367505e-03,
          2.46649850e-02, 4.90140449e-03, 8.14851548e-04,
          -5.33358136e-04, 8.44395161e-03, -6.35618111e-04,
          -2.04254035e-03, -7.46369595e-04, 2.92143115e-04,
          4.30819164e-05, -3.37813544e-04, 0., 3.26996529e-03,
          -7.14918424e-04, -3.73867806e-03, 3.53536801e-04,
          -1.24332344e-03, -1.50580108e-02, -4.72726673e-03,
          -1.22234772e-03, -2.38194712e-03, -2.97973776e-04,
          4.42825985e-04, 1.28400221e-03, -1.43742116e-04,
          7.09973276e-04, 5.63180307e-03, 2.55814521e-04, 3.06123693e-04,
          -3.11388774e-03, 2.06525248e-04, -7.80993782e-04,
          -4.29309701e-04, -4.38273279e-03, 2.33603874e-03,
          7.25185405e-03, -2.70671590e-04, -2.81575281e-04,
          -3.27094749e-04, -6.72619763e-07, 1.72408763e-04,
          -4.44127992e-03, 5.66674443e-03, 4.03647125e-03,
          7.26147729e-04, 4.48942068e-04, -2.66426173e-03,
          -1.17522304e-05, 3.57606390e-04, -6.08619885e-04,
          -4.20207065e-03, -5.49225428e-04, -1.18052459e-03,
          -2.28663860e-03, -5.64839400e-04, -2.19068350e-03,
          -8.16768734e-04, -4.60394425e-04, -4.10730194e-04,
          -3.03510547e-04, -8.89843286e-05, 3.79590667e-04, 0.,
          -2.22097413e-04, -2.15900713e-03, 1.07663986e-03,
          3.36909518e-02, 4.24150238e-03, 1.13744854e-05,
          -7.73873238e-04, 8.54466576e-03, -3.58928880e-03,
          -1.33487129e-05, -9.04695876e-03, -2.43949634e-03,
          1.49285246e-04, 2.33126688e-03, -3.46541870e-04,
          -5.74550999e-04, 1.85805548e-03, -5.48770325e-03,
          3.70418280e-03, 1.12278550e-03, 5.11667691e-04, 3.32007388e-04,
          -2.21537659e-03, 3.60479509e-03, -2.22780108e-02,
          -2.22188607e-03, 9.29721724e-03, -4.65613371e-03,
          3.36371304e-04, -1.66867953e-03, -1.25883357e-03,
          5.35198922e-07, -1.92210835e-03, -1.60576229e-03,
          -8.51985242e-04, 1.05736253e-04, -1.31553574e-03,
          -2.81569827e-03, 6.75898453e-04, -2.01151543e-03,
          4.23686439e-03, -5.57412510e-04, 7.74003332e-03,
          -6.03375665e-04, 2.98527014e-02, -1.26649486e-03,
          -5.97687264e-04, -9.55889933e-03, -6.49205456e-03,
          -4.38880495e-04, -2.14922358e-03, 1.88175682e-03,
          2.29739337e-04, 3.32075666e-04, 9.78720491e-05, 9.24055174e-04,
          1.60133844e-04, -4.37387079e-03, -6.62398990e-04,
          -2.02023541e-03, -5.80765540e-04, 3.08991614e-04,
          -3.58386169e-04, 3.03102355e-03, -3.46355839e-03,
          -4.91561295e-05, 1.00230926e-03, -1.37884205e-03,
          -4.16271214e-05, 2.03649834e-05, -1.10374531e-03,
          1.61926146e-04, -1.15954422e-03, -2.49521015e-03,
          -6.14478858e-03, 1.51876791e-03, -6.68431749e-04,
          -4.29955171e-03, -3.41255130e-04, -3.51556082e-07,
          -2.82110006e-04, -3.87441670e-03, -2.78439140e-03,
          6.63559767e-04, -5.80102242e-05, -8.68409700e-07,
          3.18036415e-04, -4.83841926e-04, -5.45758739e-05,
          -4.76690987e-03, -6.97260676e-03, 5.08538971e-04,
          7.22188968e-04, -2.38964116e-04, -1.28127390e-03,
          -3.76175810e-03, 2.29657744e-04, -7.00102013e-04,
          -2.22311309e-03, 2.21551945e-05, 3.11934669e-03,
          7.63922508e-05, 1.16890203e-03, 1.31619135e-02, 1.20685168e-03,
          4.32540663e-03, 2.02386593e-03, -2.59008305e-03,
          -1.18029825e-02, 6.64225081e-04, -3.89311672e-03,
          -2.85734539e-03, 4.07138548e-04, 3.55704222e-03,
          -1.40402745e-03, 4.41587856e-03, 7.68556492e-04,
          -1.33182126e-04, 1.23789383e-03, -7.92046103e-06,
          -2.61334749e-03, -3.83123959e-04, 7.39928859e-04,
          -8.54770769e-04, -1.79365091e-03, 3.60912154e-03,
          4.31207649e-04, 1.30880566e-04, -4.30340460e-03,
          3.33003723e-03, -9.96193194e-06, -4.17533005e-03,
          -9.00323852e-04, -1.49798347e-03, -4.55195783e-03,
          6.03948813e-03, 7.21326971e-04, -2.89387233e-03,
          -2.50195013e-03, -1.42897386e-03, -1.35014125e-05,
          -2.09787418e-03, -2.38743960e-03, 1.16079662e-03,
          -4.88418154e-04, -1.03486702e-03, 6.35507458e-04,
          -3.61370924e-03, 8.26512260e-05, 2.70643010e-04,
          -2.09904800e-04, 7.31564127e-04, -2.47291871e-04,
          -7.40757491e-03, -5.64200105e-03, 2.15365575e-03,
          -7.13869173e-04, 6.13957923e-03, -4.24978265e-04,
          -1.03124017e-04, -1.73483940e-03, 3.05055920e-03,
          -4.76677924e-05, -1.01979263e-03, -5.62327588e-03,
          1.50889568e-02, -1.27092586e-03, -6.55206852e-03,
          -6.70215304e-05, 2.08232948e-03, -3.58663565e-05,
          6.09232520e-04, 1.16944860e-03, -1.40424836e-02,
          1.02719292e-03, 2.16878438e-03, -3.28102894e-03,
          1.77758490e-03, 1.09433718e-02, -6.23816275e-04,
          -6.86577568e-03, 6.16628449e-06, 4.49411396e-04,
          7.18347554e-04, 5.66414907e-04, 1.97691596e-04,
          -1.12974180e-04, 1.60587195e-03, 1.13743074e-04,
          -7.17299758e-03, -3.97211261e-04, -3.16294702e-03,
          -7.28002633e-04, -4.31953726e-04, 8.11335849e-05,
          -1.85090088e-04, -8.45825300e-03, 1.26972969e-03,
          1.52366905e-04, -6.94566173e-03, -9.11218594e-05,
          -4.32894623e-04, -6.17397716e-04, -2.46998551e-03,
          8.82889290e-05, -1.84621313e-04, -4.63437103e-03,
          2.33840127e-03, 4.61756950e-04, -1.36625546e-04,
          -1.21958824e-02, 3.18817981e-03, 1.29424047e-03,
          -1.28699942e-02, 5.09403588e-04, -1.53480787e-02,
          -1.00525016e-04, -4.41941852e-03, -6.90370623e-04,
          5.18125575e-03, -9.12556134e-05, 1.10911625e-03,
          3.89765104e-04, -3.40546685e-04, -3.51847557e-05,
          -5.74341416e-03, 8.98056533e-05, 4.03073849e-03,
          -4.40621749e-04, 1.99828111e-03, -8.92500830e-05,
          -8.83421954e-03, -8.61836306e-04, 6.22169289e-04,
          1.41974175e-04, 2.32205354e-03, 9.49300957e-05, 1.27047912e-04,
          2.78126699e-05, -4.11546644e-05, 7.57462461e-04,
          -2.87580932e-03, 3.35198973e-04, -4.72912472e-03,
          5.81313903e-03, -4.15895542e-04, -3.02607706e-03,
          1.84414850e-04, -8.30557849e-03, -1.58319506e-03,
          -7.90064223e-05, 4.31092875e-03, -5.33224193e-05,
          1.22976734e-03, -4.04023012e-04, -7.69287435e-05,
          2.41263350e-03, -1.96700427e-03, 7.77043961e-03,
          -4.08872584e-05, -6.72212429e-03, 3.66251654e-04,
          4.98343725e-03, -2.10572523e-03, -2.88345414e-04,
          -9.74286668e-05, 3.09353555e-03, -4.32697198e-05,
          -3.04844067e-03, 1.66668702e-04, 7.91520439e-03,
          -4.04686062e-03, -2.53084669e-04, -3.66946869e-03,
          -1.68645522e-03, -8.79620016e-03, -4.63730743e-04,
          6.40848739e-05, -2.67605600e-03, -7.01116922e-04,
          -6.92410744e-04, 4.05193213e-03, -6.75565272e-04,
          -1.52966706e-03, 6.60140393e-03, 2.91065429e-03,
          -1.83662027e-03, -1.04463939e-03, 2.03950261e-03,
          5.99046180e-04, -6.31236099e-03, 8.35394859e-03,
          -2.28547445e-03, 1.06039480e-03, 2.67164363e-03,
          3.40838305e-04, -1.21164592e-02, 1.19106239e-03,
          1.33954035e-03, -2.66822032e-03, 4.16042376e-03,
          9.29213944e-04, 9.63543728e-03, -2.86856550e-03,
          3.74987442e-03, 1.17458892e-03, 4.60731753e-05,
          -2.39246627e-04, 1.48386473e-03, -2.47919606e-03,
          2.47779710e-04, 1.66497135e-04, 2.24723807e-03, 2.85959826e-03,
          -9.21689346e-03, -5.11913968e-04, -1.24743528e-04,
          5.23665163e-04, -4.51136334e-03, -6.72588867e-05,
          1.03039620e-03, -5.42731909e-03, -3.21159549e-02,
          -6.44446583e-04, 2.06467012e-04, -1.01295673e-05,
          -9.40923404e-04, 1.74035085e-03, -5.81747619e-04,
          -2.67905951e-03, 1.48751866e-03, 1.55269168e-03,
          1.40808697e-03, 9.09716636e-03, 4.87989467e-03,
          -4.05481333e-05, -4.29566971e-05, 3.72697343e-03,
          -6.38858590e-04, 4.04731464e-03, 3.94498493e-04,
          -1.19610084e-03, -1.35620814e-02, 6.67308876e-03,
          -2.52401386e-03, -9.92026296e-04, -1.58201077e-03,
          -3.77898657e-04, -1.60826108e-04, -1.08790358e-04,
          -7.49931962e-04, -1.05998211e-03, -4.45494847e-03,
          -1.01716665e-03, -2.66175659e-04, -8.75323953e-04,
          7.86534231e-03, -6.89319349e-05, 1.82201402e-04,
          3.70770623e-03, -5.44136710e-05, -3.40433849e-04,
          4.29282838e-04, 3.52054740e-05, 6.78593945e-03, 1.01904618e-02,
          2.27922224e-04, 2.08792109e-02, 1.18774973e-04,
          -6.01380132e-04, 1.50956353e-02, -1.02470904e-05,
          -1.27488718e-04, 3.06312336e-06, -1.20669720e-03,
          -2.57432507e-03, 1.27685419e-03, 9.42234590e-04,
          1.61424163e-04, 1.44915562e-03, 5.83283661e-04,
          -1.42253120e-04, 1.04870531e-04, -5.67814626e-04,
          6.57169940e-03, -8.16878770e-03, 5.40984422e-03,
          -3.49798502e-04, -3.67980429e-05, -1.36654911e-04,
          3.51184490e-03, -2.65691542e-05, -2.72102165e-03,
          5.04233001e-04, 6.46690663e-04, -1.01200189e-03,
          -7.52879016e-04, 8.23362905e-04, 6.40761515e-04,
          4.28583735e-04, -1.15151372e-04, -7.52068497e-03,
          -2.62736867e-04, -3.26875015e-03, -4.00047458e-04,
          4.86065727e-03, -3.12237046e-03, 4.05244576e-03,
          1.02423155e-03, 2.76504288e-04, -2.20982754e-03,
          4.11336310e-04, -1.25684834e-04, -4.61761847e-05,
          -4.49375249e-03, 1.60948967e-03, -3.46269435e-03,
          4.17223945e-03, -2.19061665e-04, 7.15756835e-03,
          -4.93637963e-05, -2.46780663e-04, 5.82070323e-04,
          8.43580812e-04, -9.21327807e-03, -1.45482001e-04,
          -4.77579189e-04, 1.46785181e-03, -1.12202752e-05,
          5.33971797e-05, -1.23961561e-03, 2.25075073e-05,
          -4.38509323e-03, 2.56329542e-04, -9.13029769e-04,
          2.63025472e-03, -5.73540712e-03, -5.70216449e-03,
          -1.22331567e-02, -1.81295595e-03, 2.53018341e-04,
          -1.93841022e-03, 1.71837409e-03, -7.52184656e-04,
          -6.96711009e-04, 2.11693137e-03, -3.62819032e-04,
          -1.02467267e-04, 4.15868405e-03, -4.09916422e-04,
          -3.50085786e-04, -1.85232479e-04, 2.48197978e-03,
          1.95525982e-03, -1.28280744e-02, -3.48755624e-04,
          1.86651933e-03, -1.84306584e-03, 8.26101750e-03,
          1.89146143e-04, 1.76336721e-03, -2.79628497e-04,
          -6.74303330e-04, 8.13103933e-03, -1.34961401e-05,
          7.66203157e-04, 3.46882618e-04, 8.17429391e-04,
          -9.58130520e-04, -1.54158389e-02, 3.33499454e-04,
          -2.96226586e-03, -1.57750677e-03, -1.07160216e-04,
          2.47366168e-03, 3.33075113e-05, -5.60925866e-04,
          -7.51283253e-03, -1.51163695e-04, -1.31719848e-02,
          -5.37093729e-03, 8.06554046e-04, 2.79908301e-03,
          -4.27327259e-03, 3.23166326e-03, -6.04891626e-04,
          -1.02040148e-03, 9.60338512e-05, -8.82868655e-04,
          -2.71703373e-03, -1.35958006e-04, -1.73508641e-04,
          -8.71026947e-04, -1.48625660e-03, -5.35922649e-04,
          -2.07818509e-03, 6.09974486e-05, -9.07807043e-05,
          1.97492214e-03, -1.51011546e-03, -2.12770957e-03,
          -7.98657769e-04, -4.55694366e-03, -1.21448189e-04,
          -9.40898620e-03, 9.59334429e-03, -2.25075297e-02,
          -4.24128491e-04, -8.77704733e-05, -4.01000376e-04,
          -1.22390862e-03, 2.29015131e-04, 1.47672538e-02,
          3.70975613e-04, -2.49698613e-04, -5.03985153e-04,
          -1.29190180e-02, -9.44029453e-05, 6.49592548e-04,
          -7.27079343e-04, 4.41117063e-02, 2.25380696e-02,
          9.30442038e-05, -2.79932108e-04, -2.14153272e-03,
          1.19404176e-04, -4.70859697e-04, -1.19620860e-02,
          1.37148716e-03, 2.68730219e-04, -1.88474020e-03,
          -2.89132632e-03, -1.36899250e-03, -3.18858167e-03,
          6.11936790e-04, -5.39393455e-04, -1.28303858e-04,
          2.04292918e-03, -4.40908922e-03, 4.39365569e-04,
          -1.23541839e-02, -3.32701183e-03, -5.50977793e-03,
          -8.27832846e-04, -8.34785518e-04, 9.83601552e-04,
          -1.14113325e-03, -1.16624811e-03, 4.29578949e-06,
          1.93627167e-03, 5.10731596e-04, 2.42611370e-03, 2.93968595e-04,
          8.83536786e-03, 5.59327054e-05, -1.96377048e-04,
          -1.61340390e-03, -3.87241780e-05, -8.34022241e-04,
          2.55474384e-04, 1.06383469e-02, 4.60905721e-03, 7.37907307e-04,
          -1.95192260e-04, 1.29374291e-03, 2.93417397e-04,
          -3.90468189e-03, -1.86888373e-03, -2.07658872e-04,
          5.79890516e-03, 1.68813804e-05, -2.09753525e-05,
          -4.83372532e-05, 2.93623198e-05, -2.25042109e-03,
          3.36153869e-04, 6.29656576e-03, -2.06086249e-03,
          -3.61962011e-03, -2.96231569e-03, -8.37327098e-04,
          9.96806193e-04, 2.55493680e-04, 3.65223945e-03, 6.87816355e-05,
          -1.45529350e-03 ]
   uncompressed_sv_total: 17
   uncompressed_support_vectors:
      - [ 4.93811816e-01, 6.44610763e-01, 1.39596140e+00, 1.67160016e-03,
          2.00257704e-01, 5.78070939e-01, 3.69898945e-01, 0.,
          3.06093954e-02, 1.82166994e+00, 2.55595922e-01, 0., 0.,
          8.72557402e-01, 3.56275402e-02, 2.31925473e-01, 2.13449784e-02,
          1.99531004e-01, 2.68697739e-03, 6.35387702e-03, 7.83946276e-01,
          2.46151865e-01, 5.72399914e-01, 5.03343105e-01, 1.56225219e-01,
          2.33359635e-01, 4.54056829e-01, 1.08263724e-01, 1.37037772e-03,
          1.12388670e+00, 3.58115807e-02, 7.71795958e-02, 8.85465369e-02,
          0., 2.80414510e+00, 2.20028734e+00, 1.26146626e+00,
          1.25799375e-03, 8.80934000e-02, 3.03711630e-02, 3.26120853e-03,
          3.09911836e-02, 1.53324389e+00, 0., 1.31415367e+00,
          8.56379747e-01, 4.06207480e-02, 0., 0., 0., 7.75323689e-01,
          2.28179954e-02, 0., 2.78224703e-02, 0., 7.84607410e-01,
          1.82355121e-01, 3.46708089e-01, 3.10504436e-01, 8.81737992e-02,
          4.58417423e-02, 0., 8.14422369e-01, 1.12507880e+00,
          6.38697073e-02, 2.91474670e-01, 1.21920578e-01, 6.89929863e-03,
          0., 4.65509146e-01, 2.57558346e-01, 7.24718496e-02,
          3.32424790e-01, 2.72728175e-01, 1.20419741e+00, 0.,
          4.75865463e-03, 0., 7.93438703e-02, 1.00856312e-02,
          3.23374838e-01, 1.34652406e-01, 4.00631391e-02, 1.60672292e-01,
          1.43342912e-01, 0., 0., 0., 1.89550072e-02, 9.39522207e-01,
          5.83332539e-01, 2.69681406e+00, 5.67962587e-01, 3.11540902e-01,
          4.80625080e-03, 2.05702826e-01, 3.72452706e-01, 1.07573317e-02,
          2.09679157e-01, 2.16293126e-01, 1.71658829e-01, 3.53755742e-01,
          2.75424980e-02, 4.09169734e-01, 1.60167801e+00, 0.,
          1.28143311e-01, 1.46030366e-01, 1.66995704e-01, 7.80113712e-02,
          8.27205718e-01, 1.45044044e-01, 1.30138591e-01, 2.78521795e-02,
          2.63376546e+00, 3.03990752e-01, 5.64226322e-02, 2.83007830e-01,
          2.88289338e-01, 8.45514610e-02, 3.41376625e-02, 0.,
          4.50378656e-01, 6.60297126e-02, 3.91718924e-01, 0.,
          2.49893829e-01, 4.16126847e-01, 1.44167513e-01, 3.26922685e-02,
          5.00944197e-01, 6.60398602e-01, 0., 3.85308057e-01, 0.,
          1.18841328e-01, 3.63526374e-01, 1.05021767e-01, 5.50179839e-01,
          2.62744562e-03, 1.14601457e+00, 6.63268119e-02, 2.96426117e-01,
          1.65203944e-01, 1.68996193e-02, 0., 2.82610863e-01,
          3.74052227e-02, 7.34343834e-04, 1.71659601e+00, 8.74306798e-01,
          3.18808854e-02, 1.39369637e-01, 8.85626823e-02, 0.,
          2.00767562e-01, 0., 2.41762608e-01, 1.70317180e-02,
          5.33832729e-01, 1.60521671e-01, 4.42692965e-01, 1.02591097e-01,
          6.16197102e-02, 1.88104928e+00, 0., 4.09771949e-01, 0., 0.,
          7.96859898e-03, 2.89057970e-01, 0., 1.52532414e-01,
          2.44465426e-01, 0., 3.62814993e-01, 6.83923781e-01,
          1.02277625e+00, 3.04896105e-02, 8.52385700e-01, 3.96458320e-02,
          1.02663495e-01, 2.08931938e-02, 0., 4.89092171e-02,
          1.63143605e-01, 1.24726319e+00, 1.05211115e+00, 0.,
          1.95768082e+00, 7.80707747e-02, 4.30765450e-02, 7.18451887e-02,
          3.13816443e-02, 0., 1.42511594e+00, 3.36594939e-01,
          1.63808119e+00, 4.67204332e-01, 7.04181373e-01, 2.43087113e-01,
          5.71120143e-01, 0., 1.93966520e+00, 0., 2.54916859e+00,
          3.92064499e-03, 3.18623304e-01, 2.29594827e-01, 3.13689141e-03,
          1.04572845e+00, 2.22868115e-01, 3.89941025e+00, 2.38081608e-02,
          2.72836108e-02, 2.52762735e-01, 0., 1.14515729e-01,
          6.90120459e-01, 1.73791766e-01, 5.10974348e-01, 3.13021988e-01,
          1.79776493e-02, 2.97257453e-02, 9.48712409e-01, 9.20533836e-01,
          8.99887383e-02, 3.67198020e-01, 4.90269111e-03, 1.13370287e+00,
          5.26640773e-01, 0., 6.42187595e-02, 3.06505173e-01, 0.,
          1.65313661e-01, 0., 2.55042642e-01, 1.29974329e+00,
          2.92611599e-01, 0., 2.51423921e-02, 0., 1.48270503e-01, 0.,
          1.27652037e+00, 4.44148272e-01, 7.59376734e-02, 9.27182198e-01,
          4.03523929e-02, 0., 1.30250633e-01, 3.61415952e-01,
          1.14396796e-01, 2.33608738e-01, 4.01107252e-01, 2.09892839e-01,
          0., 4.93885651e-02, 2.90483475e-01, 0., 1.40658617e-01,
          1.26429260e-01, 3.84104438e-02, 6.16790295e-01, 0.,
          2.48664871e-01, 0., 9.08032954e-02, 5.40634468e-02,
          5.41957378e+00, 0., 2.08585620e-01, 3.17726731e+00,
          3.66042280e+00, 1.38341427e+00, 6.83661401e-01, 1.35096982e-01,
          5.39165139e-02, 3.24851274e-01, 2.30526477e-01, 7.67690361e-01,
          1.01806775e-01, 1.31508522e-03, 1.51269678e-02, 0.,
          1.60748154e-01, 2.29883003e+00, 1.46258146e-01, 3.81524295e-01,
          0., 4.31387760e-02, 4.09991592e-01, 2.59804316e-02,
          1.38509111e+01, 5.32628521e-02, 2.47951746e-01, 2.29786560e-02,
          2.40042019e+00, 1.33120477e+00, 0., 0., 2.67725363e-02,
          1.74337193e-01, 5.45251258e-02, 1.39801949e-02, 2.82053173e-01,
          3.75772357e-01, 1.24868941e+00, 3.73538554e-01, 3.64488393e-01,
          2.27332368e-01, 5.67573169e-03, 2.18442297e+00, 6.64188981e-01,
          1.59022987e+00, 5.14065959e-02, 7.08423555e-02, 1.59100927e-02,
          8.47075358e-02, 9.05725174e-03, 1.64420336e-01, 6.21031746e-02,
          2.36551151e-01, 0., 2.23564669e-01, 7.95829535e-01,
          4.45862681e-01, 3.10864057e-02, 6.48708463e-01, 4.01795179e-01,
          7.25071505e-02, 5.29396068e-03, 3.39913189e-01, 0.,
          1.35341376e-01, 7.27904737e-02, 1.16112873e-01, 2.50764303e-02,
          3.88123810e-01, 4.51719761e-03, 0., 1.88121144e-02,
          8.99466798e-02, 0., 3.69982757e-02, 4.14064229e-02,
          7.84517974e-02, 2.42233098e-01, 3.08838081e+00, 4.20557070e+00,
          3.02948384e-03, 1.73134595e-01, 1.92349207e+00, 0.,
          6.25180483e-01, 1.15251057e-02, 7.02051260e-03, 2.58204460e-01,
          0., 4.53204587e-02, 1.44664574e+00, 8.92939746e-01,
          1.21906924e+00, 4.71911393e-03, 0., 9.17268693e-02,
          5.00333123e-02, 0., 1.88860998e-01, 4.93365899e-02,
          1.97666407e-01, 5.53513587e-01, 2.64321876e+00, 0.,
          8.42852984e-03, 6.32811117e+00, 7.26919651e-01, 0.,
          8.77686813e-02, 1.13049466e-02, 8.54616286e-04, 2.28376120e-01,
          6.68956518e-01, 6.32217288e-01, 4.48773243e-02, 1.93174982e+00,
          1.16469279e-01, 1.02850389e+00, 0., 1.67204654e+00, 0.,
          2.42348865e-01, 5.69846481e-02, 9.19728354e-02, 8.79176054e-03,
          7.34310448e-01, 2.01516170e-02, 3.30495499e-02, 2.48420006e-03,
          0., 8.65061656e-02, 1.35566190e-01, 1.80636019e-01,
          7.20840156e-01, 3.49810392e-01, 1.47491470e-02, 1.77021265e-01,
          2.38245666e-01, 1.13236892e+00, 2.47381151e-01, 2.25209951e+00,
          1.34547679e-02, 7.85484537e-02, 0., 8.37170422e-01,
          4.09130454e-02, 0., 1.39539922e-02, 0., 1.80115059e-01,
          1.00239766e+00, 4.33161885e-01, 0., 1.38078734e-01, 0.,
          2.46293042e-02, 3.52077067e-01, 2.64927059e-01, 1.12326732e-02,
          2.81433258e-02, 0., 8.39147568e-02, 3.74701828e-01,
          9.96126328e-03, 2.49748397e+00, 5.81757009e-01, 2.64329016e-01,
          0., 1.45797819e-01, 1.58384636e-01, 2.88596819e-03,
          2.82262373e+00, 7.93173239e-02, 5.35240769e-01, 0.,
          2.18539998e-01, 0., 2.23190710e-01, 5.45045547e-03,
          1.48071170e-01, 7.71360751e-03, 2.44993985e-01, 9.49946344e-01,
          5.81943877e-02, 0., 1.33823371e-03, 1.28331256e+00,
          2.66282423e-03, 9.49949861e-01, 3.47121179e-01, 0.,
          5.90412557e-01, 1.37049118e-02, 2.22679432e-02, 9.32127610e-03,
          2.05484524e-01, 4.70921360e-02, 1.21879864e+00, 4.54303086e-01,
          1.93238974e-01, 3.60789210e-01, 6.15268564e+00, 7.46363625e-02,
          7.31235266e-01, 4.45474505e-01, 0., 1.83793068e-01,
          9.30855393e-01, 3.07096709e-02, 1.13819845e-01, 0.,
          1.08702648e-02, 5.13719022e-02, 5.19318521e-01, 2.02134624e-01,
          1.29537356e+00, 0., 2.85024714e+00, 0., 6.80894330e-02,
          6.20347500e-01, 0., 3.72889973e-02, 1.83803573e-01,
          8.85750353e-03, 7.48135000e-02, 3.78944188e-01, 1.81188118e-02,
          4.52149540e-01, 1.07849479e+00, 2.44311914e-02, 8.15915130e-03,
          1.19433492e-01, 2.53242254e-01, 1.39939678e+00, 0., 0.,
          1.58957624e+00, 4.69722450e-01, 2.34269470e-01, 1.99911857e+00,
          1.22105859e-01, 4.36715662e-01, 2.95969665e-01, 0.,
          3.85303348e-02, 6.71907961e-02, 1.83231995e-01, 4.23686790e+00,
          7.97705173e-01, 6.58425665e+00, 2.97555780e+00, 6.77575171e-01,
          1.17114320e-01, 0., 3.37207496e-01, 1.07380981e-02,
          6.87398538e-02, 9.21038389e-02, 3.76186639e-01, 0.,
          7.34005511e-01, 4.27252091e-02, 4.98835266e-01, 1.56737769e+00,
          0., 4.46557879e-01, 1.71723187e+00, 1.03191388e+00,
          3.86651442e-03, 1.73942596e-02, 1.70970820e-02, 2.40477467e+00,
          1.13214397e+00, 0., 1.14636663e-02, 0., 1.43182588e+00,
          7.98723195e-03, 1.69126596e-02, 0., 2.13270128e-01, 0.,
          2.95456070e-02, 3.48312289e-01, 5.94527721e-01, 5.69860518e-01,
          1.76923609e+00, 2.98525975e-03, 0., 6.21869601e-03,
          3.25500220e-02, 0., 8.84980801e-03, 8.11683834e-01,
          1.33790135e-01, 7.04960048e-01, 1.36093171e-02, 6.12840712e-01,
          3.27247828e-01, 8.71660281e-03, 8.30895528e-02, 1.75431937e-01,
          6.09004945e-02, 2.57048696e-01, 0., 1.88690984e+00,
          4.18439209e-01, 7.03369677e-01, 2.57546335e-01, 0.,
          2.31902337e+00, 1.87620983e-01, 7.76282489e-01, 2.61449289e+00,
          8.66065621e-02, 6.90605402e-01, 6.47764623e-01, 1.01282336e-01,
          3.58788848e-01, 1.92263290e-01, 9.75031778e-02, 5.02558891e-03,
          2.54187077e-01, 1.89790940e+00, 3.35504003e-02, 7.85132274e-02,
          2.31989607e-01, 2.23374695e-01, 8.68236087e-03, 1.21881045e-01,
          2.56002331e+00, 2.73106217e-01, 8.35718364e-02, 2.88498950e+00,
          2.31046870e-01, 5.85964561e-01, 1.28806546e-01, 4.58204560e-02,
          0., 1.93140600e-02, 8.10578406e-01, 2.22774744e-01,
          7.14461207e-02, 0., 1.65247768e-01, 3.61943334e-01,
          2.19381258e-01, 3.64996456e-02, 5.81243709e-02, 3.45861167e-02,
          2.06220802e-02, 1.36584386e-01, 9.23993811e-02, 8.99050057e-01,
          6.12142123e-02, 1.20446689e-01, 2.51717806e-01, 3.37925029e+00,
          4.61168945e-01, 5.02373427e-02, 4.47704755e-02, 1.28389239e+00,
          2.80861463e-03, 3.33022857e+00, 7.92259514e-01, 1.29298102e-02,
          7.28168428e-01, 1.15298532e-01, 2.39075601e-01, 2.50182450e-02,
          1.09963787e+00, 9.49897543e-02, 1.28738075e-01, 1.29421666e-01,
          1.12478602e+00, 5.83749652e-01, 3.02124768e-01, 6.37923777e-01,
          7.29815185e-01, 2.95635134e-01, 3.38239446e-02, 5.16331047e-02,
          4.46286887e-01, 0., 7.83201098e-01, 2.94206571e-03,
          1.74001139e-02, 2.53648728e-01, 1.32207340e-02, 1.82674721e-01,
          8.63686800e-02, 3.65806967e-01, 1.17335367e+00, 7.98913300e-01,
          0., 1.80928385e+00, 4.13804084e-01, 2.97578096e-01,
          2.16867356e-03, 8.76366273e-02, 4.75812644e-01, 5.04723489e-02,
          4.23896492e-01, 0., 1.66899061e+00, 1.02231696e-01, 0.,
          9.79408443e-01, 6.85169697e+00, 3.21308208e+00, 1.00595713e+00,
          5.20671844e-01, 0., 9.35726583e-01, 1.72885999e-01,
          1.01370335e-01, 1.05744712e-02, 1.30432665e+00, 2.93300241e-01,
          2.70420742e+00, 0., 2.41203755e-01, 1.13201685e-01, 0.,
          2.70169616e-01, 6.38655275e-02, 0., 3.26222964e-02,
          1.98138297e-01, 2.67291129e-01, 1.13714921e+00, 2.68824082e-02,
          1.48224592e+00, 7.68038690e-01, 4.49812040e-02, 7.13993669e-01,
          3.19470018e-01, 5.70617840e-02, 1.60518563e+00, 2.47274507e-02,
          0., 6.60991609e-01, 2.38312013e-03, 2.69001156e-01,
          1.02336118e-02, 2.64260709e-01, 1.26482201e+00, 3.10632791e-02,
          0., 9.41538513e-01, 4.46139365e-01, 9.62207377e-01,
          1.91961154e-01, 2.25920677e+00, 3.62087525e-02, 1.09414257e-01,
          5.53818122e-02, 1.87064037e-01, 1.18300222e-01, 1.70075119e-01,
          4.02369304e-03, 1.77921802e-02, 1.15272002e-02, 5.33724189e-01,
          8.56404960e-01, 1.52043730e-01, 1.13478251e-01, 9.69097018e-03,
          1.18157290e-01, 4.92003746e-02, 6.01798058e-01, 5.56618422e-02,
          3.86727639e-02, 1.21908128e+00, 2.79052228e-01, 1.69587851e-01,
          1.41572366e-02, 2.68840671e-01, 0., 3.37115228e-02,
          1.43827712e-02, 3.82022001e-02, 0., 6.28698543e-02,
          1.83696485e+00, 0., 5.62348031e-02, 1.22990996e-01,
          4.47814554e-01, 0., 4.14014220e-01, 2.31801343e+00,
          1.37647510e-01, 2.98865954e-03, 1.81518406e-01, 7.11253405e-01,
          4.46897037e-02, 5.79314041e+00, 3.76646280e-01, 2.91392021e-02,
          0., 8.77580345e-01, 7.14038536e-02, 1.58619300e-01,
          2.39069760e-01, 3.09992701e-01, 1.40222061e+00, 0.,
          9.57311809e-01, 1.97378308e-01, 0., 4.54989970e-01,
          6.59797639e-02, 3.64664346e-02, 4.08603214e-02, 7.51883149e-01,
          3.59785795e-01, 4.39135760e-01, 1.03508568e+00, 3.57266521e+00,
          1.01604939e-01, 3.23487557e-02, 0., 8.03513825e-02,
          7.27543458e-02, 2.50773644e-03, 6.40519559e-02, 0.,
          3.24160278e-01, 5.14621675e-01, 2.88420200e-01, 0.,
          1.49501730e-02, 0., 1.01466978e+00, 7.80261457e-01,
          7.08544850e-02, 0., 5.16707754e+00, 1.00993240e+00,
          1.24032223e+00, 7.79845193e-02, 8.92464697e-01, 2.29959130e+00,
          1.65225238e-01, 1.18732816e-02, 2.22009778e-01, 5.55628836e-01,
          1.68733299e-01, 0., 7.14022666e-02, 8.19175392e-02,
          2.58545804e+00, 4.28479165e-01, 3.67012429e+00, 2.85846181e-02,
          3.96545887e-01, 3.04884493e-01, 4.00357068e-01, 1.49239868e-01,
          2.88719565e-01, 0., 0., 0., 5.36335170e-01, 5.07671461e-02,
          3.41025162e+00, 5.15898392e-02, 7.00448155e-02, 0.,
          1.69697320e+00, 4.65907380e-02, 0., 5.47674417e+00,
          1.14489477e-02, 0., 4.64958954e+00, 1.21986389e-01,
          7.02685893e-01, 5.28259128e-02, 1.23293050e-01, 2.56009519e-01,
          1.04378767e-01, 7.84232691e-02, 4.31832135e-01, 8.70206237e-01,
          5.77772893e-02, 6.92955017e-01, 2.25427985e-01, 2.11942628e-01,
          0., 8.76245141e-01, 0., 1.47987616e+00, 0., 3.80481124e-01,
          1.14485212e-01, 2.40878791e-01, 1.31929992e-02, 1.54219931e-02,
          3.70806083e-03, 6.58340394e-01, 1.46798003e+00, 3.92664224e-01,
          3.79949868e-01, 1.80324428e-02, 1.24912113e-02, 6.54535890e-01,
          1.80076826e-02, 2.85758674e-01, 1.49037373e+00, 1.10883497e-01,
          1.20005250e+00, 1.49696365e-01, 1.81162983e-01, 5.15933856e-02,
          4.77384292e-02, 2.03750283e-02, 5.03367043e+00, 2.88235760e+00,
          3.98160279e-01, 0., 1.55128092e-02, 0., 3.41901742e-03, 0.,
          8.69650953e-03, 3.76209426e+00, 1.62242912e-02, 2.55650163e+00,
          1.19220736e-02, 4.80879366e-01, 1.19476914e+00, 1.34819180e-01,
          4.36262876e-01, 1.43648994e+00, 7.97943532e-01, 2.37460621e-02,
          3.07432581e-02, 2.44606599e-01, 4.64378387e-01, 5.47878265e-01,
          0., 4.24482226e-01, 2.17628404e-01, 7.79430211e-01,
          9.54359353e-01, 7.39925861e-01, 0., 4.09404784e-02,
          3.52962971e-01, 1.98360711e-01, 4.00273144e-01, 1.36045873e+00,
          1.50102183e-01, 7.78011382e-01, 0., 1.04196042e-01,
          1.42834887e-01, 1.20430954e-01, 0., 0., 1.80146590e-01,
          1.88622400e-01, 2.54337844e-02, 0., 1.46852270e-01,
          1.14451356e-01, 0., 7.49627411e-01, 3.45255360e-02, 0.,
          2.94118524e-01, 4.05920148e-01, 2.01742947e-02, 8.34181905e-01,
          8.96568298e-02, 1.91383902e-02, 3.99500504e-02, 1.06962085e+00,
          6.56598949e+00, 3.67321167e-03, 4.61875200e-01, 7.47797906e-01,
          5.40308617e-02, 3.25966907e+00, 5.66653132e-01, 0.,
          3.33075953e+00, 2.09363624e-02, 5.86241245e-01, 4.57414985e-02,
          1.26331532e-02, 0., 0., 0., 8.68650794e-01, 1.20806754e-01,
          1.64751112e-02, 2.02324986e-01, 6.29867613e-02, 1.93123102e-01,
          2.06093609e-01, 8.27263793e-05, 6.15282059e-01, 9.00471926e-01,
          0., 1.25293300e-01, 7.21290290e-01, 1.03509998e+00, 0.,
          7.47874200e-01, 0., 9.11499932e-02, 1.94863342e-02,
          6.31818955e-04, 1.48767591e-01, 1.57261729e-01, 1.83664978e-01,
          0., 4.86909479e-01, 1.72345899e-02, 0., 7.43791640e-01, 0.,
          6.18744865e-02, 0., 2.56203972e-02, 2.59613872e-01,
          1.46273270e-01, 3.85349095e-02, 1.55333634e-02, 3.43775511e-01,
          9.44618881e-02, 0., 2.03037664e-01, 5.34095347e-01,
          4.12296019e-02, 4.59269583e-01, 1.01649308e+00, 1.88741589e+00,
          0., 1.15192182e-01, 2.19223022e-01, 4.53649729e-01,
          1.01701009e+00, 3.79384786e-01, 2.58117728e-02, 4.88812208e-01,
          2.42219437e-02, 3.21687639e-01, 4.87337381e-01, 3.43947262e-01,
          0., 1.31368709e+00, 9.92324129e-02, 3.95813473e-02,
          4.56368290e-02, 3.92393082e-01, 2.60715902e-01, 3.63303035e-01,
          0., 6.05494261e-01, 1.95273068e-02, 5.57703972e-01,
          5.77595353e-01, 1.39924502e+00, 2.47429553e-02, 1.95565056e-02,
          1.59142625e+00, 8.39079976e-01, 0., 3.96403641e-01,
          3.90814841e-01, 5.10923564e-01, 1.20288739e-03, 3.57854635e-01,
          0., 2.34527633e-01, 2.09707264e-02, 5.16894460e-01, 0.,
          7.65145570e-02, 6.61434084e-02, 3.12091298e-02, 8.64224792e-01,
          3.13027203e-02, 0., 1.56879175e+00, 9.48879272e-02,
          2.05810785e+00, 1.84168620e-03, 7.73280859e-02, 3.73517796e-02,
          4.71252277e-02, 6.55031145e-01, 1.50741950e-01, 1.62065238e-01,
          1.87664852e-02, 3.24677515e+00, 1.39148489e-01, 4.89825189e-01,
          2.14312002e-01, 1.65159050e-02, 5.36635816e-02, 7.22634569e-02,
          4.80876684e-01, 0., 1.87230676e-01, 1.91277519e-01, 0.,
          4.12119865e+00, 1.00350164e-01, 1.74956420e-03, 7.17297196e-01,
          1.33566535e+00, 0., 1.98765863e-02, 4.31043319e-02,
          3.23215961e-01, 0., 4.02165055e-01, 9.18606222e-02,
          6.40862808e-02, 1.13843441e+00, 2.46063635e-01, 2.07710773e-01,
          2.54724221e-03, 8.69553983e-02, 3.19051556e-02, 1.14746474e-01,
          1.06299043e+00, 5.22537017e-03, 1.93138178e-02, 2.49544218e-01,
          5.89108646e-01, 2.07938567e-01, 8.53788853e-01, 0., 0.,
          1.62750161e+00, 0., 2.69209599e+00, 0., 0., 1.14524893e-01,
          1.64733864e-02, 2.06289172e+00, 1.00723520e-01, 5.99815212e-02,
          8.78707588e-01, 8.85815084e-01, 4.86567438e-01, 4.91710976e-02,
          9.47705925e-01, 1.63098848e+00, 1.79064736e-01, 3.69557738e-01,
          1.34636104e-01, 3.74886058e-02, 9.68146503e-01, 9.05388594e-02,
          5.31605668e-02, 5.36338985e-02, 0., 3.18002135e-01,
          2.04963183e+00, 3.28153849e-01, 1.29118592e-01, 7.10758716e-02,
          0., 0., 2.49475688e-01, 4.14661318e-01, 5.25020286e-02, 0.,
          8.69905502e-02, 1.25313595e-01, 0., 7.20775053e-02,
          1.30438851e-02, 1.98040828e-01, 9.22572762e-02, 0.,
          2.39798054e-01, 1.30160198e-01, 3.27679485e-01, 6.83155134e-02,
          1.58880129e-01, 6.90457404e-01, 3.00335020e-01, 0.,
          6.52259707e-01, 1.09913990e-01, 8.49318728e-02, 3.08077410e-02,
          0., 2.00703088e-02, 0., 4.07928675e-01, 0., 2.23763734e-02,
          3.20213389e+00, 6.64642751e-02, 8.11504269e+00, 1.45401180e-01,
          2.16024630e-02, 2.16205788e+00, 7.32701898e-01, 3.03344846e-01,
          0., 4.10330820e+00, 2.55296603e-02, 7.29796767e-01,
          7.07858428e-03, 1.35115492e+00, 9.22139406e-01, 2.21163794e-01,
          4.52912390e-01, 3.02943081e-01, 0., 2.75417030e-01,
          3.21040571e-01, 6.86562836e-01, 5.04947948e+00, 8.57122764e-02,
          4.16377038e-01, 3.77476960e-02, 5.17562032e-01, 6.76173940e-02,
          1.62771404e-01, 4.61511403e-01, 1.27518415e+00, 2.96041667e-02,
          1.31171718e-02, 2.73073971e-01, 4.54073000e+00, 0.,
          4.81830090e-02, 0., 1.80078354e-02, 7.53699094e-02, 0.,
          3.85136418e-02, 1.05646396e+00, 0., 4.11386073e-01,
          3.97996992e-01, 6.62078619e-01, 3.13562453e-01, 0.,
          8.90862010e-03, 7.18747526e-02, 2.04975426e-01, 0.,
          9.87738729e-01, 1.88299324e-02, 3.03159714e-01, 6.76309317e-02,
          0., 3.98229398e-02, 9.03443456e-01, 0., 3.68538767e-01,
          8.14729750e-01, 3.53964043e+00, 5.12061000e-01, 1.21539545e+00,
          0., 2.27737114e-01, 0., 1.18211806e+00, 1.38438037e-02,
          1.57129034e-01, 1.97943091e-01, 8.47154021e-01, 0.,
          8.70501548e-02, 5.60428917e-01, 2.01841950e-01, 1.93435919e+00,
          5.96446455e-01, 1.23741277e-01, 5.67255855e-01, 0., 0.,
          4.98030148e-03, 7.55793512e-01, 2.74285227e-01, 2.87306368e-01,
          0., 1.96270868e-02, 1.90870094e+00, 4.82866727e-03, 0.,
          9.88288783e-04, 3.45841236e-03, 8.88716355e-02, 3.58245701e-01,
          2.18638331e-02, 1.06702950e-02, 2.08971336e-01, 2.26923078e-02,
          1.05931945e-01, 4.76237759e-02, 0., 1.49789453e-01,
          2.61390749e-02, 1.57723263e-01, 4.19308096e-01, 0.,
          4.19586338e-02, 2.23632567e-02, 1.91794348e+00, 0., 0.,
          5.04349589e-01, 9.11414385e-01, 7.98744261e-02, 0.,
          1.36989847e-01, 9.19787493e-03, 3.54528338e-01, 1.10923970e+00,
          1.37942064e+00, 2.73421597e+00, 1.57221362e-01, 6.39221132e-01,
          0., 8.81513301e-03, 4.61645931e-01, 0., 1.51703451e-02,
          1.10372528e-02, 1.15007305e+00, 1.26727641e+00, 1.01912826e-01,
          2.82401323e-01, 0., 2.58544713e-01, 4.78012934e-02,
          3.46928425e-02, 6.65753222e+00, 1.56501806e+00, 5.66765904e-01,
          8.15994024e-01, 9.02933776e-02, 1.37759671e-01, 2.10615903e-01,
          1.32524576e-02, 1.63211748e-02, 1.41618913e-02, 2.22244067e-03,
          2.29967618e-03, 1.50809467e+00, 1.72017083e-01, 1.02704370e+00,
          4.82556708e-02, 0., 3.55208576e-01, 7.53283873e-02, 0.,
          1.04067552e+00, 0., 3.12041730e-01, 1.21745014e+00,
          2.34263182e+00, 1.05884843e-01, 3.35364453e-02, 9.52467397e-02,
          9.45988968e-02, 0., 6.43795729e-02, 3.76970284e-02,
          1.38272035e+00, 9.73093733e-02, 1.19573426e+00, 1.08599627e+00,
          2.14220095e+00, 3.03565878e-02, 8.59386101e-02, 0.,
          2.31615566e-02, 3.03059518e-01, 2.85931081e-02, 0.,
          9.37225223e-02, 1.46514937e-01, 1.99222937e-01, 5.57507984e-02,
          1.24157643e+00, 5.19205689e-01, 3.95923145e-02, 2.53499240e-01,
          2.66528159e-01, 0., 2.45486453e-01, 2.49522164e-01,
          4.28648368e-02, 1.29324245e+00, 1.46833849e+00, 0., 0.,
          7.68094286e-02, 1.08186519e-02, 7.12291300e-01, 3.87425363e-01,
          7.67472804e-01, 2.67801380e+00, 1.09445715e+00, 0.,
          2.09221482e+00, 3.71831536e-01, 6.55343309e-02, 3.71614061e-02,
          1.30241588e-01, 4.79659647e-01, 2.00078711e-02, 3.46881509e-01,
          0., 9.75050807e-01, 4.42274302e-01, 4.27085578e-01,
          2.06261778e+00, 3.34046900e-01, 3.87463748e-01, 6.37673974e-01,
          2.68401670e+00, 9.58779156e-01, 2.03411281e-01, 4.14586246e-01,
          2.12476420e+00, 4.28239465e-01, 0., 0., 4.98223484e-01,
          1.52172754e-02, 0., 0., 1.79698259e-01, 4.98373695e-02,
          1.29898563e-01, 1.97499976e-01, 7.81459272e-01, 3.07255954e-01,
          1.32389009e-01, 1.28000870e-01, 4.55550790e-01, 1.83021533e-03,
          9.63523015e-02, 5.42587861e-02, 0., 1.79792702e+00,
          8.11228514e-01, 1.99422464e-01, 1.04831719e+00, 5.87876081e-01,
          0., 1.87687427e-02, 3.65264751e-02, 9.35929656e-01,
          3.53501409e-01, 3.37643296e-01, 0., 1.14416592e-01,
          2.54499197e-01, 0., 1.13948546e-01, 1.67420790e-01,
          8.37408245e-01, 1.33536446e+00, 1.29594874e+00, 3.02475393e-01,
          1.14553766e-02, 0., 6.60395399e-02, 0., 5.42205691e-01,
          4.47725803e-02, 1.14869783e-02, 1.48825586e-01, 0.,
          2.02896774e-01, 3.40652376e-01, 0., 4.33510952e-02,
          7.83631485e-03, 1.21057322e-02, 6.63828701e-02, 0.,
          4.22937237e-02, 3.49373579e-01, 1.12717405e-01, 9.97186184e+00,
          6.76469207e-01, 2.85896137e-02, 4.63159047e-02, 7.79394805e-01,
          2.31546211e+00, 8.22993815e-02, 1.07412887e+00, 0.,
          1.16971597e-01, 6.56036437e-01, 0., 2.00941712e-02,
          2.00818866e-01, 4.41019177e-01, 3.66641462e-01, 9.22170654e-02,
          1.83051467e-01, 4.98467654e-01, 1.05006516e+00, 6.89401507e-01,
          1.39083099e+00, 0., 1.27738833e+00, 2.37819028e+00,
          7.03563988e-01, 1.47937620e+00, 2.93458113e-03, 4.17017102e-01,
          0., 1.37196243e+00, 2.46637198e-03, 4.94098552e-02,
          1.50417626e-01, 6.36493694e-03, 2.57455015e+00, 1.70105338e-01,
          5.68422377e-01, 0., 4.59973669e+00, 6.71661377e-01,
          1.17889977e+01, 1.27999455e-01, 5.46696484e-01, 1.60396680e-01,
          5.71955323e-01, 5.38161136e-02, 5.22305071e-02, 7.07842335e-02,
          1.35140017e-01, 8.95065665e-02, 0., 2.18354404e-01,
          4.60901372e-02, 6.20398760e-01, 8.27966481e-02, 2.45323703e-01,
          1.45201957e+00, 2.54296601e-01, 0., 2.51606345e-01,
          1.48841009e-01, 0., 4.95204329e-01, 7.07488954e-02, 0., 0.,
          2.16772575e-02, 4.80234139e-02, 1.08739525e-01, 4.24815655e-01,
          3.12849253e-01, 9.98167470e-02, 2.40781203e-01, 1.68323889e-01,
          1.00952111e-01, 0., 3.37368133e-03, 4.00094777e-01,
          2.09006578e-01, 3.91911417e-01, 8.35894346e-02, 0.,
          1.22353937e-02, 0., 0., 1.19076920e+00, 3.26354712e-01,
          1.71780407e-01, 1.76181361e-01, 1.85032915e-02, 1.77517623e-01,
          1.26646087e-02, 2.41482586e-01, 0., 2.70587832e-01, 0.,
          5.82552791e-01, 1.55609017e-02, 3.37721080e-01, 2.79853535e+00,
          1.04314610e-01, 5.10499001e-01, 1.92439765e-01, 6.86521173e-01,
          1.03116356e-01, 8.69574770e-02, 5.72444499e-01, 4.01787698e-01,
          6.65073931e-01, 3.99171680e-01, 2.65655309e-01, 6.40210509e-01,
          2.83149928e-01, 0., 6.10276639e-01, 0., 6.36045039e-01, 0.,
          4.77875262e-01, 0., 8.61162394e-02, 5.37475169e-01,
          3.36807929e-02, 1.71742439e-02, 3.63366097e-01, 6.36784196e-01,
          0., 1.77021578e-01, 5.36196709e-01, 1.77564695e-01,
          1.12029040e+00, 1.05197239e+00, 3.23133755e+00, 3.82282448e+00,
          3.44694912e-01, 7.12149963e-02, 0., 2.28188261e-01,
          3.48219216e-01, 4.33949232e-01, 6.01805389e-01, 1.85583513e-02,
          3.34615521e-02, 1.47953856e+00, 0., 2.63132572e-01,
          8.78800452e-02, 2.12390092e-03, 7.93754458e-02, 1.07237387e+00,
          4.20727164e-01, 8.35925758e-01, 6.13056608e-02, 8.25779676e-01,
          0., 0., 6.59543052e-02, 3.80550534e-01, 0., 1.12604998e-01,
          6.91821873e-01, 3.40291405e+00, 3.04360241e-01, 1.12737358e+00,
          1.72591165e-01, 4.28255230e-01, 4.41441266e-03, 7.42405131e-02,
          3.44202852e+00, 3.70460749e-01, 1.45539716e-01, 6.33519709e-01,
          3.42202038e-02, 1.15321517e+00, 4.82938737e-01, 2.74554729e-01,
          5.73196299e-02, 0., 7.67914727e-02, 8.51613656e-02,
          2.54032165e-01, 2.33939420e-02, 9.03290570e-01, 8.43162119e-01,
          0., 1.39836478e+00, 7.43139908e-02, 3.13523382e-01,
          3.16588841e-02, 0., 4.80447076e-02, 0., 5.64935744e-01,
          1.77872211e-01, 0., 3.17422658e-01, 0., 1.54050648e-01, 0.,
          4.55113769e-01, 5.08614182e-02, 1.31550953e-01, 4.80190325e+00,
          1.86773300e-01, 6.95869401e-02, 3.41263111e-03, 2.37387228e+00,
          3.00284922e-01, 2.53615290e-01, 2.36661530e+00, 3.66117001e-01,
          5.31519365e+00, 2.28668954e-02, 4.36849236e-01, 1.18440241e-02,
          2.90344328e-01, 0., 5.40774763e-01, 0., 8.66738241e-03,
          2.37343028e-01, 8.90907764e-01, 8.74454714e-03, 6.43008947e-01,
          3.55565138e-02, 1.15551926e-01, 0., 1.01369059e+00,
          1.32788703e-01, 4.26160954e-02, 1.64179087e-01, 1.70005429e+00,
          0., 0., 4.11547244e-01, 0., 0., 1.20167291e+00, 2.26981547e-02,
          2.46923655e-01, 2.61315846e+00, 0., 1.13105305e-01,
          3.31350192e-02, 5.18980086e-01, 4.34999354e-02, 4.29207206e-01,
          2.61209428e-01, 3.18409614e-02, 3.60972667e+00, 5.25730327e-02,
          0., 8.41608107e-01, 6.95535004e-01, 2.68417454e+00, 0.,
          7.09326640e-02, 1.44939616e-01, 3.39748174e-01, 2.33589470e-01,
          0., 7.34929880e-03, 1.60497487e+00, 8.75790268e-02,
          9.90721807e-02, 0., 1.80725718e+00, 2.44991779e+00,
          1.77740562e+00, 5.10481186e-02, 1.38624400e-01, 1.46608591e+00,
          2.75613535e-02, 1.08827474e-02, 5.81297353e-02, 1.67774713e+00,
          1.17951510e-02, 9.55241561e-01, 6.46533132e-01, 3.98616394e-04,
          3.87454295e+00, 3.04498047e-01, 1.65508896e-01, 4.64567952e-02,
          2.19144166e-01, 1.85467657e-02, 2.70310432e-01, 4.43425030e-01,
          1.25001216e+00, 4.07338977e-01, 1.96272418e-01, 4.50436145e-01,
          6.77395403e-01, 3.18852991e-01, 6.47211671e-01, 2.36679465e-02,
          3.25635701e-01, 7.34696090e-02, 5.71072638e-01, 2.43009016e-01,
          4.20036227e-01, 1.18659563e-01, 1.07276760e-01, 3.24399024e-01,
          9.48447809e-02, 8.62544682e-03, 9.28218886e-02, 2.71814112e-02,
          1.48174986e-01, 5.13923585e-01, 2.32671887e-01, 0., 0.,
          1.11596324e-01, 2.65575320e-01, 1.21522665e+00, 5.23835301e-01,
          0., 2.13890576e+00, 1.64909095e-01, 0., 0., 8.69057104e-02,
          7.54190564e-01, 3.05526834e-02, 2.58262426e-01, 1.95990875e-01,
          2.18372300e-01, 1.30342498e-01, 1.03443956e+00, 6.71257600e-02,
          0., 0., 2.54652828e-01, 3.56232114e-02, 8.27008724e-01,
          2.24852469e-02, 4.99637604e-01, 5.89905834e+00, 2.67145932e-01,
          5.40459514e-01, 1.41431183e-01, 3.55315506e-02, 1.12805413e-02,
          9.07434821e-02, 2.47070238e-01, 1.29778296e-01, 1.28165245e-01,
          7.76664987e-02, 7.18164891e-02, 0., 2.32510626e-01,
          1.43168128e+00, 1.45650643e-03, 4.96769063e-02, 5.11680126e-01,
          1.30175829e-01, 9.05046891e-03, 1.44932181e-01, 2.13808427e-03,
          4.20000374e-01, 1.05763197e+00, 9.61728767e-02, 1.75835097e+00,
          2.24665068e-02, 0., 4.23213100e+00, 2.98808422e-03,
          2.05001608e-02, 8.94735679e-02, 2.85780191e-01, 2.59214312e-01,
          9.22111124e-02, 1.44103289e-01, 6.90167993e-02, 3.64754617e-01,
          1.53177008e-02, 1.14391046e-03, 2.55208202e-02, 1.98454559e-02,
          4.11658078e-01, 9.77528930e-01, 9.29488912e-02, 2.06873208e-01,
          2.17026100e-03, 5.03096692e-02, 1.74081445e-01, 0.,
          4.50731814e-01, 1.29659727e-01, 2.68402733e-02, 1.28886625e-01,
          1.74691491e-02, 1.79045815e-02, 2.95620203e-01, 8.59292924e-01,
          6.45346269e-02, 2.00498059e-01, 5.20175919e-02, 8.85695443e-02,
          9.28591490e-02, 1.06956613e+00, 2.97831941e+00, 1.44911945e+00,
          8.59655663e-02, 2.79482543e-01, 1.22075546e+00, 9.70351100e-02,
          0., 2.72348709e-03, 9.18358088e-01, 4.66850400e-02,
          1.73366949e-01, 7.76338100e-01, 0., 3.53602588e-01, 0.,
          1.21432170e-01, 3.46975029e-02, 1.65800780e-01, 3.19041222e-01,
          3.36398883e-03, 3.20078544e-02, 6.84282243e-01, 0., 0.,
          9.86301154e-02, 1.38898818e-02, 8.43688026e-02, 9.36177839e-03,
          1.37501839e-03, 8.67541790e-01, 1.37834167e+00, 9.15334105e-01,
          9.45080638e-01, 0., 6.49957061e-02, 8.59049320e-01,
          5.97841978e-01, 1.03907382e+00, 1.13432787e-01, 6.62497997e-01,
          1.79587319e-01, 0., 5.19105434e-01, 1.68774240e-02,
          1.93279237e-02, 5.40870368e-01, 3.82947534e-01, 1.15951753e+00,
          1.73853338e+00, 8.11954737e-02, 3.39502245e-01, 5.68239152e-01,
          1.40229094e+00, 2.93740571e-01, 5.06564498e-01, 4.50228387e-03,
          2.85788756e-02, 1.91180438e-01, 0., 3.03721093e-02,
          2.46492159e-02, 0., 4.45335731e-03, 1.62115157e-01,
          1.74291909e-01, 2.45828915e+00, 7.57163540e-02, 1.99513927e-01,
          6.01059496e-02, 3.45616229e-02, 7.77773932e-02, 2.56573379e-01,
          0., 2.45836213e-01, 1.05348177e-01, 2.81666905e-01,
          5.68878531e-01, 8.89352083e-01, 8.92192364e-01, 1.41581386e-01,
          0., 2.41802382e+00, 6.81239143e-02, 2.45537907e-01,
          1.00087263e-01, 1.23663954e-01, 8.19393527e-03, 5.07320285e-01,
          0., 3.49463616e-03, 0., 1.95702165e-02, 1.82663786e+00,
          1.37513578e-01, 2.57379502e-01, 0., 5.07665455e-01, 0.,
          3.77669573e-01, 1.59510124e+00, 6.47151709e-01, 0.,
          3.44026722e-02, 8.43350142e-02, 0., 9.09212828e-02,
          1.23418055e+01, 2.98215426e-03, 1.04854390e-01, 9.82966200e-02,
          1.86686420e+00, 1.16664581e-02, 1.50002733e-01, 3.12656462e-01,
          5.25407553e+00, 5.50678253e+00, 1.45273497e-02, 0.,
          7.76549131e-02, 1.44879773e-01, 0., 8.46860945e-01,
          1.13551997e-01, 2.88875923e-02, 9.77362096e-02, 4.76557434e-01,
          5.96975684e-02, 8.53705585e-01, 2.60449778e-02, 8.02111104e-02,
          1.47212639e-01, 8.79577696e-02, 2.53317952e+00, 4.80766684e-01,
          2.04355335e+00, 3.21485884e-02, 1.00766480e+00, 4.01910730e-02,
          2.76255049e-02, 6.90333784e-01, 9.84781832e-02, 8.40520114e-02,
          0., 3.87450576e-01, 1.54442444e-01, 2.12152660e-01, 0.,
          5.17098546e-01, 0., 7.03398585e-01, 1.60717428e+00, 0.,
          1.15547943e+00, 1.82214975e-02, 1.82746685e+00, 1.10062018e-01,
          9.21931267e-02, 5.94970435e-02, 2.27262497e+00, 4.03922535e-02,
          3.23823959e-01, 5.94391167e-01, 1.41206607e-01, 1.07001150e+00,
          2.60821398e-04, 2.13489626e-02, 2.48396769e-03, 0.,
          1.01551402e+00, 1.06280053e+00, 3.66988294e-02, 0.,
          4.48801249e-01, 1.39202192e-01, 6.46212278e-03, 1.68243170e-01,
          2.67238393e-02, 2.80475706e-01, 4.45355207e-01, 1.13404572e+00 ]
      - [ 1.25552893e+00, 2.72125602e-01, 4.69987363e-01, 2.58307699e-02,
          9.69750509e-02, 5.70317268e-01, 7.36881018e-01, 0., 0.,
          1.67180133e+00, 2.53644865e-02, 0., 0., 9.15183961e-01,
          3.82197611e-02, 4.43863422e-02, 3.93264033e-02, 1.80356383e-01,
          1.16865486e-01, 0., 1.16784342e-01, 1.16535865e-01,
          9.49923515e-01, 8.70202541e-01, 5.81936911e-03, 7.45273847e-03,
          5.45466207e-02, 0., 6.05815053e-02, 2.32439852e+00,
          1.63330898e-01, 2.70018578e-01, 1.05182223e-01, 0.,
          1.86714840e+00, 1.07226980e+00, 1.53492224e+00, 2.00841296e-02,
          0., 0., 7.99120695e-04, 9.56113786e-02, 8.02549481e-01, 0.,
          1.34952641e+00, 1.24520504e+00, 0., 1.77686103e-02,
          1.29670301e-03, 1.82168856e-02, 2.27151021e-01, 8.87924340e-04,
          0., 1.97074965e-01, 0., 9.67008844e-02, 6.05224296e-02,
          2.81109154e-01, 1.14226556e+00, 3.35694337e-03, 1.84517458e-01,
          0., 2.82435924e-01, 8.93976629e-01, 0., 4.55664694e-01,
          3.06945983e-02, 0., 0., 6.10693693e-01, 3.61185044e-01, 0.,
          4.90448214e-02, 3.03724885e-01, 5.68882406e-01, 0., 0.,
          8.49745702e-04, 3.03695221e-02, 0., 5.87350667e-01,
          2.29328480e-02, 1.18471989e-02, 2.86209732e-02, 5.47992766e-01,
          0., 8.51439238e-02, 0., 0., 5.05596220e-01, 5.98248601e-01,
          1.61698759e+00, 8.86805803e-02, 1.42435342e-01, 1.66095309e-02,
          9.36205499e-03, 4.28351700e-01, 0., 1.79283962e-01,
          5.92308529e-02, 1.78753093e-01, 8.69377181e-02, 9.74771902e-02,
          4.23032418e-02, 6.86274409e-01, 0., 8.97518769e-02,
          3.15786093e-01, 3.15607160e-01, 1.30995482e-01, 6.32572770e-01,
          3.57426614e-01, 4.84029623e-03, 8.78639221e-02, 2.31349421e+00,
          1.29642200e+00, 5.75790554e-02, 7.81644434e-02, 4.21833321e-02,
          0., 0., 8.73129256e-03, 4.72959727e-01, 0., 4.14285392e-01, 0.,
          7.78393671e-02, 5.93819082e-01, 8.78708903e-03, 0.,
          5.42910218e-01, 3.58654529e-01, 8.93711299e-03, 1.52554765e-01,
          1.37078300e-01, 1.53702619e-02, 3.83423150e-01, 1.27385989e-01,
          6.07627571e-01, 0., 4.11068082e-01, 0., 0., 9.70809348e-03, 0.,
          0., 5.42281449e-01, 0., 0., 1.19900858e+00, 4.56023753e-01,
          7.14780856e-03, 7.43658468e-02, 3.01120013e-01, 0.,
          3.70381564e-01, 0., 9.81479943e-01, 4.77379113e-02,
          5.62339067e-01, 1.73739030e-03, 6.27612174e-02, 1.72894403e-01,
          1.79727785e-02, 1.83026981e+00, 6.35489821e-02, 2.24500060e-01,
          1.43462270e-02, 2.12499080e-03, 5.85497078e-03, 2.26495668e-01,
          1.65503658e-02, 6.20045923e-02, 0., 0., 6.13468140e-02,
          5.18229485e-01, 5.91099858e-01, 0., 1.54666376e+00,
          2.21935250e-02, 7.34323561e-02, 0., 0., 0., 5.23356378e-01,
          7.18137264e-01, 6.80633068e-01, 0., 1.14791298e+00,
          1.98207870e-02, 5.84038906e-03, 2.25716438e-02, 1.76838301e-02,
          0., 9.32209253e-01, 3.16508979e-01, 3.60253155e-01,
          2.87919521e-01, 4.54450011e-01, 2.68659860e-01, 4.40264672e-01,
          4.24884185e-02, 1.84505701e+00, 0., 1.52808380e+00,
          6.99111894e-02, 7.95204341e-02, 0., 7.31641352e-02,
          4.01502609e-01, 3.76634933e-02, 3.20298767e+00, 1.35462850e-01,
          1.82574335e-02, 9.99024659e-02, 0., 2.99884796e-01,
          8.76461089e-01, 3.58161122e-01, 3.50810066e-02, 1.83843505e-02,
          8.11106563e-02, 0., 1.27430975e-01, 1.84064949e+00,
          7.25513473e-02, 4.80375499e-01, 1.28973916e-01, 1.44031823e+00,
          1.18077016e+00, 0., 1.11877263e-01, 2.72590995e-01, 0.,
          6.44925237e-02, 0., 2.76657671e-01, 1.02024198e+00,
          6.48267642e-02, 2.08060359e-04, 9.52979103e-02, 0., 0., 0.,
          6.32366478e-01, 3.10466558e-01, 5.47185130e-02, 9.44132209e-01,
          2.14875694e-02, 0., 3.47437039e-02, 3.79209489e-01,
          1.45145029e-01, 1.17750220e-01, 2.23783985e-01, 2.80834418e-02,
          0., 3.44317555e-02, 5.30926466e-01, 0., 5.29565476e-02,
          2.76641659e-02, 1.01236133e-02, 4.22145307e-01, 9.85219795e-03,
          2.60574043e-01, 0., 4.79991958e-02, 3.53248157e-02,
          3.44727373e+00, 0., 2.67620176e-01, 2.34969544e+00,
          3.28612065e+00, 2.46071649e+00, 7.22349524e-01, 1.30176740e-02,
          2.62375586e-02, 1.99272543e-01, 2.91203797e-01, 7.30818510e-01,
          0., 0., 1.61522716e-01, 0., 3.73005956e-01, 2.02404356e+00,
          1.38910189e-01, 1.82312205e-01, 0., 0., 1.22064233e+00,
          1.71999296e-03, 9.77408409e+00, 2.24634781e-02, 3.26591581e-01,
          0., 1.21946716e+00, 1.09461546e+00, 0., 0., 7.69658461e-02,
          1.01354323e-01, 0., 1.05325012e-02, 2.32368723e-01,
          1.27874777e-01, 6.74876928e-01, 2.32216880e-01, 1.12105580e-02,
          2.09679082e-01, 1.09431773e-01, 1.35871017e+00, 7.32380450e-01,
          9.49116290e-01, 8.53259042e-02, 8.59059859e-03, 0.,
          3.72221358e-02, 4.08960767e-02, 1.84634025e-03, 3.34696881e-02,
          8.92807320e-02, 0., 3.33894134e-01, 1.09347850e-01,
          8.69517803e-01, 3.14426422e-03, 3.92661572e-01, 6.88492298e-01,
          1.10779829e-01, 0., 6.99393824e-03, 5.49679697e-02,
          1.23404097e-02, 4.14821953e-02, 6.44268468e-02, 0.,
          6.97057545e-01, 0., 1.72042847e-02, 6.59359992e-02,
          5.06251827e-02, 1.23199299e-02, 2.78227720e-02, 1.44708201e-01,
          5.23868203e-02, 9.08360243e-01, 2.90347385e+00, 1.42342699e+00,
          1.69200897e-01, 9.52884108e-02, 2.32540011e+00, 0.,
          5.15567996e-02, 4.92764497e-03, 0., 1.52473837e-01, 0.,
          1.80331338e-02, 3.03520501e-01, 8.62651348e-01, 4.80296552e-01,
          0., 0., 1.10103160e-01, 1.14201598e-01, 1.48353428e-02,
          9.38691795e-01, 0., 1.61909223e-01, 3.82772088e-01,
          2.19711590e+00, 4.60329093e-03, 1.15514291e-03, 2.98983526e+00,
          5.64016640e-01, 0., 1.14055857e-01, 6.28063281e-04,
          5.51021583e-02, 6.84033614e-03, 5.04478216e-01, 2.36045122e-01,
          4.61613610e-02, 1.51011145e+00, 0., 6.76422119e-01, 0.,
          2.15831384e-01, 0., 1.62447825e-01, 0., 2.03522760e-02,
          2.18704566e-02, 1.10887671e+00, 2.08991021e-02, 0., 0.,
          1.49207357e-02, 1.71351388e-01, 2.20513660e-02, 1.79353669e-01,
          6.54764473e-01, 8.88922662e-02, 0., 1.55116662e-01,
          4.95656490e-01, 7.30914533e-01, 7.01188624e-01, 2.12566543e+00,
          2.15707365e-02, 3.74558717e-02, 0., 9.99133468e-01,
          1.15767922e-02, 0., 1.93144217e-01, 0., 7.90786967e-02,
          3.61036718e-01, 3.85528088e-01, 5.91524877e-02, 1.12736955e-01,
          0., 7.02516213e-02, 9.92174521e-02, 5.54307699e-01,
          1.83712006e-01, 4.12100777e-02, 9.19122919e-02, 4.40806076e-02,
          2.37455498e-02, 8.47152472e-02, 1.09808695e+00, 8.84745300e-01,
          1.62029918e-02, 0., 1.68919310e-01, 1.80723891e-01,
          4.27884571e-02, 3.10126972e+00, 1.14164911e-02, 1.27672344e-01,
          0., 7.37600401e-02, 6.98930118e-04, 7.58873895e-02, 0.,
          1.19696736e-01, 0., 1.45350089e-02, 8.34876418e-01,
          1.32226455e-03, 0., 3.65040009e-03, 1.71612382e+00,
          1.95185598e-02, 8.10869396e-01, 9.41760167e-02, 0.,
          4.00969356e-01, 0., 1.66737169e-01, 0., 2.80642599e-01,
          4.15876843e-02, 6.83005333e-01, 4.74399567e-01, 4.48604733e-01,
          1.49521520e-02, 4.31045771e+00, 2.41911560e-02, 3.42131704e-01,
          2.46123329e-01, 3.68578099e-02, 1.15069836e-01, 1.02456069e+00,
          1.63185038e-02, 2.29453444e-01, 0., 1.03466222e-02,
          6.13086559e-02, 6.02263331e-01, 1.66050002e-01, 1.55533481e+00,
          0., 2.50699139e+00, 2.24384479e-02, 1.78948388e-01,
          3.28729600e-01, 9.54277627e-03, 0., 0., 2.29015648e-02, 0.,
          2.32343361e-01, 0., 9.74204242e-01, 4.89551842e-01, 0., 0.,
          4.38928068e-01, 1.53536975e-01, 1.15201926e+00, 0.,
          6.15096325e-03, 1.09827149e+00, 1.12313044e+00, 5.25004826e-02,
          3.30523300e+00, 2.49173399e-02, 1.36881590e-01, 1.20175555e-01,
          0., 4.97887731e-02, 0., 7.49213174e-02, 3.44286895e+00,
          3.48557308e-02, 5.35271168e+00, 1.92429900e+00, 1.48547578e+00,
          0., 3.17880441e-03, 1.07694492e-01, 3.96744668e-01, 0.,
          8.30491446e-03, 2.38657445e-01, 0., 4.85382497e-01,
          1.96204265e-03, 1.62735477e-01, 2.32230210e+00, 0.,
          2.19853550e-01, 4.84469205e-01, 7.63210058e-01, 2.59411801e-02,
          0., 5.98860718e-02, 2.06843495e+00, 4.08103913e-01,
          6.77334070e-02, 0., 0., 8.53475213e-01, 0., 7.91029483e-02, 0.,
          1.00498900e-01, 2.17939243e-02, 3.21450680e-02, 5.26565611e-02,
          4.09087509e-01, 9.93747711e-01, 2.34368491e+00, 0., 0., 0.,
          1.73431970e-02, 0., 1.96867108e-01, 6.19450629e-01,
          6.21168077e-01, 9.99866188e-01, 2.28242739e-03, 0.,
          1.58217832e-01, 8.09698030e-02, 2.91486178e-02, 9.35999006e-02,
          4.55655754e-02, 1.94473993e-02, 1.54906102e-02, 1.94674468e+00,
          1.92687940e-02, 3.30740213e-01, 4.41903353e-01, 1.24055808e-02,
          1.59797227e+00, 1.02807451e-02, 3.52456808e-01, 2.24476480e+00,
          0., 6.67357862e-01, 5.57375908e-01, 1.04381137e-01, 0.,
          3.42436172e-02, 5.62512092e-02, 0., 1.15920827e-01,
          1.70282853e+00, 3.07852253e-02, 0., 1.63732290e-01,
          3.50971848e-01, 0., 8.32206979e-02, 1.86654520e+00,
          2.40433797e-01, 1.20208575e-03, 1.70596063e+00, 5.42232171e-02,
          9.32656765e-01, 4.35939550e-01, 4.37349975e-02, 0.,
          8.04556627e-03, 8.76876891e-01, 1.83804259e-01, 3.40276957e-01,
          0., 4.72738653e-01, 3.75456661e-01, 8.26825500e-02,
          1.51027113e-01, 0., 0., 8.67386232e-04, 1.05052695e-01,
          4.85402234e-02, 4.34901088e-01, 1.47265077e-01, 1.13173723e-02,
          4.89194095e-02, 2.83040500e+00, 4.47701693e-01, 1.04032485e-02,
          9.41184117e-04, 6.93936110e-01, 6.87045157e-02, 3.09570241e+00,
          5.14809310e-01, 1.55328345e-02, 6.85378075e-01, 4.89470214e-02,
          4.33939099e-01, 5.95205883e-03, 7.00311840e-01, 9.66561735e-02,
          2.66169049e-02, 1.45107403e-01, 4.99338001e-01, 2.82124341e-01,
          1.87485069e-01, 2.07395747e-01, 2.77786881e-01, 1.68036610e-01,
          1.01626880e-01, 0., 2.57958382e-01, 0., 7.71529555e-01,
          4.27652150e-02, 1.17184529e-02, 3.45548898e-01, 0.,
          1.56891733e-01, 1.37365699e-01, 3.78723264e-01, 8.18874896e-01,
          4.19111013e-01, 0., 8.60576153e-01, 3.36183310e-01,
          1.43612176e-01, 2.12075170e-02, 3.45018436e-03, 2.73777664e-01,
          5.38667560e-01, 2.78786749e-01, 5.98772801e-02, 4.73237246e-01,
          2.21888497e-01, 1.98844615e-02, 9.63281989e-01, 5.47626543e+00,
          2.43640828e+00, 8.52854609e-01, 3.20881933e-01, 0.,
          1.42834365e-01, 2.14671448e-01, 1.14049595e-02, 1.72393754e-01,
          1.69038963e+00, 3.43540534e-02, 2.09661841e+00, 5.87016484e-03,
          1.67528391e-01, 1.55897021e-01, 1.51414480e-02, 2.05367893e-01,
          2.30829092e-03, 2.10370533e-02, 1.02820925e-01, 7.51974955e-02,
          6.26570126e-03, 8.18490624e-01, 0., 8.00577581e-01,
          3.74626160e-01, 5.36855087e-02, 8.03630650e-01, 1.43942282e-01,
          0., 6.29992723e-01, 3.11838705e-02, 0., 1.43916237e+00, 0.,
          3.38153839e-01, 3.70486118e-02, 0., 2.96890289e-01,
          3.36752683e-02, 0., 2.21401647e-01, 5.15557289e-01,
          3.78081918e-01, 3.60421866e-01, 1.55028284e+00, 9.67705995e-02,
          1.62688717e-02, 0., 4.92831282e-02, 3.87495034e-03,
          4.02203985e-02, 0., 1.21040285e-01, 0., 6.19946837e-01,
          9.16321337e-01, 0., 8.14597383e-02, 0., 7.76236057e-02,
          3.75975445e-02, 1.72936872e-01, 6.98107928e-02, 5.02647683e-02,
          1.03964818e+00, 3.20465356e-01, 1.96270317e-01, 7.03004226e-02,
          2.97628015e-01, 0., 4.29264084e-02, 1.01517532e-02,
          1.67212188e-02, 0., 4.71287826e-03, 2.73825598e+00, 0.,
          2.89555918e-02, 6.26644194e-02, 1.67225242e-01, 0.,
          5.75609803e-01, 1.61250758e+00, 0., 0., 4.21642601e-01,
          1.38688970e+00, 6.40816335e-03, 4.87189960e+00, 1.09372355e-01,
          1.49382008e-02, 5.40929660e-03, 4.68083948e-01, 3.33969598e-03,
          9.61957276e-02, 2.02887282e-02, 1.08512528e-01, 1.70720875e+00,
          0., 1.02413297e+00, 0., 0., 2.40460649e-01, 4.98909652e-02,
          3.75862494e-02, 5.32801170e-03, 8.89539123e-01, 4.21413183e-01,
          5.86942509e-02, 6.60978913e-01, 3.14584541e+00, 1.51617870e-01,
          7.85907507e-02, 0., 3.26649547e-02, 3.14725265e-02,
          3.06574497e-02, 8.53679925e-02, 0., 3.45436066e-01,
          1.52007401e-01, 1.20858520e-01, 0., 7.93540403e-02, 0.,
          4.43368375e-01, 4.93568182e-01, 2.47395821e-02, 0.,
          4.30053854e+00, 1.60407066e+00, 1.88176131e+00, 1.83704227e-01,
          6.27410829e-01, 1.75621939e+00, 3.19513679e-01, 3.44584172e-04,
          1.14253625e-01, 9.21164528e-02, 5.01675606e-01, 0.,
          1.09729497e-02, 1.64116412e-01, 3.03487039e+00, 1.89200014e-01,
          3.24193501e+00, 2.93823797e-02, 3.79592389e-01, 2.71639768e-02,
          3.30285043e-01, 2.92620987e-01, 2.82198995e-01, 0., 0., 0.,
          8.67088735e-01, 6.64484641e-03, 2.69053936e+00, 8.93133052e-04,
          3.19468714e-02, 0., 9.79666114e-01, 6.41224608e-02, 0.,
          4.79148483e+00, 0., 0., 3.06239891e+00, 3.06324810e-01,
          4.38585654e-02, 6.97290450e-02, 5.23854084e-02, 2.65215766e-02,
          0., 2.63673142e-02, 5.68540841e-02, 1.04338801e+00,
          3.12693380e-02, 1.20756483e+00, 0., 1.74881041e-01, 0.,
          1.15896153e+00, 0., 1.16413033e+00, 0., 3.82556260e-01,
          2.59046704e-01, 1.22479513e-01, 1.14236923e-03, 0., 0.,
          5.04554033e-01, 8.23931396e-01, 1.94455162e-01, 1.97862253e-01,
          0., 0., 8.45416069e-01, 7.04563409e-03, 1.28222167e-01,
          1.08043432e+00, 1.11571796e-01, 4.68879193e-01, 4.05555926e-02,
          3.43610376e-01, 5.05922258e-01, 1.72146305e-01, 5.33176288e-02,
          5.02754402e+00, 1.88219845e+00, 1.12993494e-01, 0.,
          4.86248545e-02, 4.55877148e-02, 0., 0., 5.15327416e-02,
          3.17042136e+00, 8.88556615e-03, 1.90034223e+00, 5.07738534e-03,
          1.09060645e-01, 7.17632353e-01, 2.76072651e-01, 1.46240309e-01,
          1.36512184e+00, 6.65260613e-01, 0., 0., 3.21336150e-01,
          5.64341247e-02, 6.71387911e-01, 0., 1.49157017e-01,
          2.83236444e-01, 1.74022213e-01, 7.60650873e-01, 9.04528618e-01,
          0., 1.24517538e-01, 3.31385970e-01, 0., 4.00672048e-01,
          9.13786650e-01, 5.52302487e-02, 2.02285007e-01, 0., 0.,
          1.45794749e-01, 0., 0., 2.18778271e-02, 2.02903245e-02,
          1.12442896e-01, 0., 7.18856603e-03, 2.24994004e-01, 0., 0.,
          3.01695585e-01, 1.31556496e-01, 7.62841776e-02, 3.74769457e-02,
          5.96838713e-01, 6.33884519e-02, 2.42895365e-01, 1.88552160e-02,
          0., 0., 2.62217492e-01, 5.50970888e+00, 0., 8.31436634e-01,
          4.46028382e-01, 1.08230785e-01, 3.42024636e+00, 4.05722558e-01,
          0., 3.98887396e+00, 5.14462031e-03, 3.49528283e-01,
          4.54782873e-01, 6.57633469e-02, 0., 0., 2.14673555e-03,
          6.54040039e-01, 7.09162802e-02, 0., 1.44935563e-01,
          1.19483322e-02, 1.92813694e-01, 5.15551865e-02, 0.,
          1.92356259e-01, 2.72619873e-01, 0., 0., 1.33323216e+00,
          9.68906581e-01, 0., 5.34219682e-01, 7.14045158e-03, 0., 0., 0.,
          1.38741896e-01, 0., 2.75850594e-01, 0., 1.57062903e-01,
          4.50756354e-03, 0., 5.26927114e-01, 0., 0., 0., 1.26414105e-01,
          1.99365597e-02, 9.67163518e-02, 4.32074592e-02, 4.45551146e-03,
          1.59445256e-01, 0., 0., 9.89684314e-02, 3.83891255e-01,
          8.71477425e-02, 2.70495862e-01, 4.51423228e-01, 3.45726401e-01,
          2.04497963e-01, 5.54198958e-02, 1.25137702e-01, 4.47680116e-01,
          8.54047656e-01, 3.65285605e-01, 0., 3.35693747e-01,
          2.03215014e-02, 2.68487811e-01, 4.34915274e-01, 6.65555239e-01,
          2.17633061e-02, 1.33196664e+00, 2.17317268e-02, 0., 0.,
          8.66921321e-02, 1.65272519e-01, 2.46016711e-01, 1.15601733e-01,
          1.97782189e-01, 0., 4.91758376e-01, 3.73349994e-01,
          1.05591774e+00, 1.64842363e-02, 2.13074051e-02, 1.15888739e+00,
          2.37422317e-01, 0., 2.87904646e-02, 1.15852011e-02,
          4.41956371e-01, 0., 2.12999851e-01, 3.88006284e-03,
          2.50530601e-01, 0., 2.71861792e-01, 0., 1.28740389e-02,
          3.37091237e-02, 6.40444132e-03, 8.42496037e-01, 0., 0.,
          4.77817297e-01, 2.77918220e-01, 9.78526354e-01, 0.,
          4.31086384e-02, 1.65386070e-02, 0., 1.27840233e+00,
          1.08624510e-01, 1.40385181e-01, 7.12112011e-03, 2.08912230e+00,
          1.06329814e-01, 4.34941202e-01, 1.17698498e-03, 3.71125266e-02,
          1.07901998e-01, 1.48543984e-01, 4.05842423e-01, 0.,
          6.50556982e-02, 3.09573084e-01, 0., 1.71262932e+00,
          1.10445410e-01, 9.99966711e-02, 4.52961832e-01, 8.94201159e-01,
          0., 0., 0., 6.05959706e-02, 0., 1.75798684e-01, 3.10969725e-03,
          7.13434815e-02, 3.61525506e-01, 1.38784451e-02, 2.73127973e-01,
          0., 1.19394876e-01, 2.95556765e-02, 2.03433394e-01,
          1.39625716e+00, 2.40344688e-01, 0., 1.40834346e-01,
          7.35329151e-01, 9.99154150e-03, 9.18896258e-01, 0., 0.,
          1.07849109e+00, 0., 2.48192716e+00, 0., 0., 2.25894377e-02,
          8.98250472e-03, 1.90989387e+00, 9.91736650e-02, 0.,
          6.77582264e-01, 1.64004314e+00, 1.81923673e-01, 1.90184359e-02,
          8.66259098e-01, 2.29031157e+00, 6.56680837e-02, 1.97386250e-01,
          4.47707772e-02, 8.75631645e-02, 1.58716059e+00, 2.08267793e-02,
          8.00573081e-03, 1.52769918e-02, 7.09086517e-03, 2.22017542e-01,
          2.01653576e+00, 9.75694284e-02, 4.38433677e-01, 3.34674492e-02,
          5.29222190e-02, 0., 3.37385565e-01, 4.82893616e-01,
          1.08447812e-01, 1.27194272e-02, 1.25209481e-01, 1.45773873e-01,
          0., 2.64851172e-02, 1.10400394e-01, 1.23280853e-01,
          7.86990523e-02, 0., 9.82496589e-02, 7.39079108e-03,
          2.69881964e-01, 2.04548310e-03, 3.15172412e-02, 3.68722051e-01,
          2.80219495e-01, 4.59576584e-02, 4.00650948e-01, 9.72542986e-02,
          6.10398613e-02, 2.72660404e-02, 0., 0., 1.65243164e-01,
          5.07451713e-01, 1.68726146e-02, 1.70917455e-02, 3.96435308e+00,
          6.70158118e-02, 5.95529366e+00, 2.46306155e-02, 1.61996298e-02,
          2.22625756e+00, 1.08853757e+00, 1.57297865e-01, 0.,
          4.40487432e+00, 0., 3.04449618e-01, 0., 1.14686763e+00,
          7.52487361e-01, 5.73018730e-01, 1.31928653e-01, 9.33587179e-02,
          0., 2.08166279e-02, 3.11882049e-01, 7.73025095e-01,
          5.86214828e+00, 2.80313590e-03, 2.38685414e-01, 8.49958509e-02,
          2.67770916e-01, 3.24364483e-01, 1.58167019e-01, 1.11048572e-01,
          7.33914137e-01, 0., 8.47766828e-03, 4.23142791e-01,
          4.14356422e+00, 0., 4.63669151e-02, 1.23257585e-01,
          2.40428206e-02, 4.93069086e-03, 9.87031031e-04, 7.19111264e-02,
          1.07325566e+00, 0., 3.45957905e-01, 2.66034156e-01,
          3.42235804e-01, 8.82574916e-02, 0., 0., 1.12628721e-01, 0., 0.,
          1.05147576e+00, 0., 7.79495165e-02, 1.23109236e-01,
          3.25541832e-02, 2.34780461e-02, 7.13135719e-01, 0.,
          4.68242168e-01, 2.50960946e-01, 4.38212109e+00, 4.48693484e-01,
          1.82317257e+00, 1.39750950e-02, 3.95278454e-01, 0.,
          6.05722427e-01, 0., 1.15473472e-01, 5.92621155e-02,
          1.32801700e+00, 0., 0., 9.76529419e-01, 1.60309836e-01,
          7.64548242e-01, 2.14928046e-01, 7.54881501e-02, 2.02372879e-01,
          4.35042046e-02, 0., 0., 2.85843074e-01, 1.04782656e-02,
          1.04747668e-01, 9.84451268e-03, 0., 1.25997102e+00,
          2.05785707e-01, 9.22181457e-02, 2.36214269e-02, 0.,
          3.44141410e-03, 5.66562191e-02, 6.27531810e-03, 0.,
          1.19768707e-02, 2.31533870e-03, 1.50887057e-01, 4.96870056e-02,
          0., 3.65305059e-02, 0., 1.20345742e-01, 3.59355211e-01, 0.,
          6.06911629e-02, 8.48692562e-03, 1.32954454e+00, 0., 0.,
          4.09947932e-01, 6.57063067e-01, 9.45648253e-02, 0.,
          3.21650431e-02, 1.16532750e-01, 1.99081525e-01, 8.87197554e-01,
          1.82711136e+00, 1.73717332e+00, 2.77178194e-02, 1.40982151e+00,
          0., 1.21069443e-03, 4.77232113e-02, 0., 0., 0., 8.86965871e-01,
          1.32198477e+00, 9.57757607e-03, 1.81218997e-01, 0.,
          5.93022816e-02, 7.11502833e-03, 0., 6.59281397e+00,
          1.92666364e+00, 2.81669702e-02, 7.60610998e-01, 0.,
          6.99855909e-02, 1.65889621e-01, 0., 1.51518583e-01, 0.,
          6.35449812e-02, 3.22963274e-03, 1.34710991e+00, 1.12816513e-01,
          1.44317591e+00, 8.73838644e-03, 0., 3.31418626e-02,
          1.85820032e-02, 1.25490455e-02, 5.79253137e-01, 0.,
          1.46394685e-01, 2.11791754e+00, 2.02376747e+00, 0., 0.,
          3.15612644e-01, 6.17908016e-02, 0., 8.98450315e-02,
          1.00906976e-01, 1.01965868e+00, 1.49016112e-01, 2.74339527e-01,
          4.83684927e-01, 1.77806234e+00, 2.58476031e-03, 1.91413164e-02,
          0., 2.04636119e-02, 1.29116550e-01, 1.76414117e-01, 0.,
          2.19116911e-01, 7.24420622e-02, 1.05345942e-01, 6.72809221e-03,
          1.35271335e+00, 4.27407920e-01, 1.19428135e-01, 5.05400538e-01,
          4.16197721e-03, 0., 4.78307247e-01, 2.51706928e-01, 0.,
          1.32148278e+00, 1.03493714e+00, 0., 1.25152189e-02,
          9.48677957e-02, 6.67979755e-03, 9.84344184e-01, 1.11408985e+00,
          2.97432523e-02, 2.21089411e+00, 6.53354645e-01, 1.61717180e-02,
          1.38326871e+00, 8.61352324e-01, 9.94025245e-02, 0.,
          1.14542283e-01, 7.62927711e-01, 1.28267258e-01, 8.31514671e-02,
          0., 6.17645741e-01, 8.47990394e-01, 2.74997354e-01,
          1.15238833e+00, 1.34243980e-01, 9.18838084e-02, 7.18110502e-02,
          2.83247662e+00, 2.89659411e-01, 2.50460170e-02, 1.85662538e-01,
          1.87462497e+00, 4.49227303e-01, 2.43664086e-02, 1.43608754e-03,
          8.35882127e-02, 0., 0., 0., 2.24850416e-01, 3.41301382e-01,
          3.86058688e-01, 3.06667060e-01, 1.03327699e-01, 4.37410653e-01,
          4.55776267e-02, 1.10086434e-01, 5.28280616e-01, 6.45519281e-03,
          1.09200791e-01, 1.49429187e-01, 0., 6.56197608e-01,
          3.18064034e-01, 4.02426384e-02, 1.00549734e+00, 8.26799452e-01,
          3.70787308e-02, 0., 2.68984027e-02, 7.81065404e-01,
          1.76584169e-01, 8.22097003e-01, 1.16094816e-02, 1.04707135e-02,
          1.22798130e-01, 0., 0., 4.08215612e-01, 5.49429655e-01,
          8.24878097e-01, 2.95931846e-01, 2.74509639e-01, 0., 0.,
          9.34075564e-02, 0., 1.77511334e-01, 1.02229211e-02,
          1.34444581e-02, 1.51313737e-01, 2.60814466e-03, 1.69714034e-01,
          3.03050995e-01, 4.51822206e-03, 0., 2.80518159e-02, 0.,
          4.03537989e-01, 0., 7.21615404e-02, 6.13399921e-03,
          1.72605187e-01, 8.46192646e+00, 2.76175290e-01, 0.,
          7.06720352e-03, 6.51129663e-01, 1.33451092e+00, 4.48216908e-02,
          5.42684078e-01, 0., 1.55957758e-01, 5.86817801e-01, 0.,
          6.40129149e-02, 3.59680086e-01, 4.92665499e-01, 5.61660230e-01,
          2.35384986e-01, 1.01425096e-01, 5.99787533e-01, 6.88270748e-01,
          1.71108797e-01, 3.14459264e-01, 0., 4.17708308e-01,
          3.39184612e-01, 1.98378161e-01, 1.65218318e+00, 5.71202254e-04,
          2.39463542e-02, 1.54992755e-04, 8.51075470e-01, 1.33044377e-03,
          0., 2.31748462e-01, 7.68607408e-02, 1.14543819e+00,
          7.38063082e-02, 2.80270517e-01, 0., 4.49394798e+00,
          5.13655782e-01, 9.97798061e+00, 2.95657627e-02, 3.26278567e-01,
          6.15343869e-01, 2.74881154e-01, 5.57820141e-01, 2.01738614e-04,
          3.43361139e-01, 5.87530471e-02, 1.06428396e-02, 0.,
          5.47637567e-02, 0., 1.29704982e-01, 9.74242017e-03,
          3.60099494e-01, 1.06772375e+00, 1.47835970e-01, 0.,
          1.70921907e-01, 3.07038665e-01, 7.47041544e-03, 7.37821460e-01,
          2.50602746e-03, 0., 0., 3.77256609e-02, 1.35710533e-03,
          1.39208985e-02, 8.25759247e-02, 4.01751474e-02, 6.41882643e-02,
          2.93270797e-01, 2.11436898e-01, 2.44480005e-04, 0., 0.,
          2.19134822e-01, 3.80459636e-01, 1.71871036e-01, 4.62368466e-02,
          0., 1.31945908e-01, 0., 0., 4.30406839e-01, 3.40233505e-01,
          1.32637560e-01, 1.29890278e-01, 1.31297845e-03, 1.49603160e-02,
          9.23557207e-03, 4.11271930e-01, 3.32051888e-03, 1.47473648e-01,
          0., 6.49414137e-02, 0., 2.62214839e-02, 3.44276619e+00,
          5.12139276e-02, 5.45458972e-01, 1.03373490e-01, 3.82884502e-01,
          6.02257013e-01, 8.34075958e-02, 6.95857584e-01, 0.,
          4.56546187e-01, 3.78514498e-01, 2.23330677e-01, 5.37844658e-01,
          1.46487728e-01, 0., 3.97638470e-01, 0., 3.53819877e-01, 0.,
          1.99797049e-01, 0., 5.82220517e-02, 1.51551351e-01, 0., 0.,
          2.56836027e-01, 1.36290938e-02, 0., 2.04072800e-02,
          3.69423121e-01, 2.58194376e-02, 4.11535531e-01, 1.02294159e+00,
